,0,1,2,3,4,5,6,7,8,9,10,11,12,13,14,15,16,17,18,19,20,21,22,23,24,25,26,27,28,29,30,31,32,33,34,35,36,37,38,39,40,41,42,43,44,45,46,47,48,49,50,51,52,53,54,55,56,57,58,59,60,61,62,63,64,65,66,67,68,69,70,71,72,73,74,75,76,77,78,79,80,81,82,83,84,85,86,87,88,89,90,91,92,93,94,95,96,97,98,99,100,101,102,103,104,105,106,107,108,109,110,111,112,113,114,115,116,117,118,119,120,121,122,123,124,125,126,127,128,129,130,131,132,133,134,135,136,137,138,139,140,141,142,143,144,145,146,147,148,149,150,151,152,153,154,155,156,157,158,159,160,161,162,163,164,165,166,167,168,169,170,171,172,173,174,175,176,177,178,179,180,181,182,183,184,185,186,187,188,189,190,191,192,193,194,195,196,197,198,199,200,201,202,203,204,205,206,207,208,209,210,211,212,213,214,215,216,217,218,219,220,221,222,223,224,225,226,227,228,229,230,231,232,233,234,235,236,237,238,239,240,241,242,243,244,245,246,247,248,249,250,251,252,253,254,255,256,257,258,259,260,261,262,263,264,265,266,267,268,269,270,271,272,273,274,275,276,277,278,279,280,281,282,283,284,285,286,287,288,289,290,291,292,293,294,295,296,297,298,299,300,301,302,303,304,305,306,307,308,309,310,311,312,313,314,315,316,317,318,319,320,321,322,323,324,325,326,327,328,329,330,331,332,333,334,335,336,337,338,339,340,341,342,343,344,345,346,347,348,349,350,351,352,353,354,355,356,357,358,359,360,361,362,363,364,365,366,367,368,369,370,371,372,373,374,375,376,377,378,379,380,381,382,383,384,385,386,387,388,389,390,391,392,393,394,395,396,397,398,399,400,401,402,403,404,405,406,407,408,409,410,411,412,413,414,415,416,417,418,419,420,421,422,423,424,425,426,427,428,429,430,431,432,433,434,435,436,437,438,439,440,441,442,443,444,445,446,447,448,449,450,451,452,453,454,455,456,457,458,459,460,461,462,463,464,465,466,467,468,469,470,471,472,473,474,475,476,477,478,479,480,481,482,483,484,485,486,487,488,489,490,491,492,493,494,495,496,497,498,499,500,501,502,503,504,505,506,507,508,509,510,511,512,513,514,515,516,517,518,519,520,521,522,523,524,525,526,527,528,529,530,531,532,533,534,535,536,537,538,539,540,541,542,543,544,545,546,547,548,549,550,551,552,553,554,555,556,557,558,559,560,561,562,563,564,565,566,567,568,569,570,571,572,573,574,575,576,577,578,579,580,581,582,583,584,585,586,587,588,589,590,591,592,593,594,595,596,597,598,599,600,601,602,603,604,605,606,607,608,609,610,611,612,613,614,615,616,617,618,619,620,621,622,623,624,625,626,627,628,629,630,631,632,633,634,635,636,637,638,639,640,641,642,643,644,645,646,647,648,649,650,651,652,653,654,655,656,657,658,659,660,661,662,663,664,665,666,667,668,669,670,671,672,673,674,675,676,677,678,679,680,681,682,683,684,685,686,687,688,689,690,691,692,693,694,695,696,697,698,699,700,701,702,703,704,705,706,707,708,709,710,711,712,713,714,715,716,717,718,719,720,721,722,723,724,725,726,727,728,729,730,731,732,733,734,735,736,737,738,739,740,741,742,743,744,745,746,747,748,749,750,751,752,753,754,755,756,757,758,759,760,761,762,763,764,765,766,767
veneto,-0.016936,0.023540,0.071213,-0.040420,0.050444,-0.000151,0.047679,0.019868,0.001470,0.010704,0.011487,0.041970,-0.001710,0.009954,0.041796,0.043627,0.070993,-0.050906,-0.021781,0.057652,0.050727,0.053613,-0.035991,0.019873,-0.192304,0.006650,-0.018670,-0.009828,0.019275,-0.007378,0.020886,0.003922,0.017990,-0.009896,0.031076,0.002269,-0.023733,-0.021829,-0.024414,0.065516,0.008743,-0.011435,-0.001123,0.061642,0.071518,0.049560,-0.018743,-0.013796,-0.010157,0.025014,0.015930,0.003898,-0.014972,0.032869,0.104394,-0.050787,0.042635,-0.045239,0.026053,0.005001,-0.007280,-0.040080,0.057083,-0.003611,0.006870,-0.005489,0.021122,0.011354,-0.000616,0.021789,-0.032544,-0.008170,0.003363,-0.051017,0.006589,-0.011331,0.006890,-0.019750,0.032757,-0.037680,-0.018438,0.022440,-0.015244,0.000823,-0.019617,0.049186,-0.039885,0.022565,-0.010131,-0.000345,-0.000250,-0.001727,0.031226,-0.024103,0.007384,-0.031202,0.006992,0.018171,-0.030328,0.065749,0.036160,0.003896,0.027836,-0.010601,-0.093619,0.008601,-0.035366,0.001563,-0.058307,-0.009707,-0.063902,0.033106,0.018480,0.101052,-0.005137,0.029261,-0.003527,0.037901,-0.001550,0.016699,-0.008063,-0.010675,-0.001476,0.006066,0.022282,0.018356,0.022758,-0.029796,0.034252,0.028464,-0.020506,0.094376,0.000828,-0.000954,0.026069,0.031308,-0.026428,0.024898,0.041994,-0.000074,-0.003940,0.035917,0.019554,0.023126,0.001595,-0.031473,-0.029980,0.062401,-0.049285,0.050458,0.022431,0.001821,0.060940,-0.000404,0.004438,0.040868,0.043134,-0.009268,0.040374,-0.001803,0.026184,0.011618,0.020460,0.058897,-0.019849,0.077387,0.102579,-0.037964,0.167180,0.005072,-0.064725,0.006683,0.003552,-0.001632,0.009400,-0.015933,0.015309,0.000900,-0.000222,-0.004138,0.011312,-0.013606,0.005114,-0.013798,-0.036626,0.031029,0.010965,-0.008728,-0.046028,-0.053232,0.022480,-0.004297,-0.042224,-0.021284,0.000722,-0.003921,0.054616,-0.003863,-0.022314,-0.017603,0.029998,0.047744,0.050289,-0.021309,-0.044112,-0.026421,0.012001,0.037091,-0.009921,0.053050,-0.034990,-0.031292,0.048603,-0.007539,-0.006415,-0.057583,-0.023843,0.088243,0.017240,0.048284,0.051644,0.003284,0.043451,0.027855,0.009721,-0.006214,0.025898,-0.011756,0.043189,0.026668,-0.016569,0.006675,-0.020046,0.031332,0.013409,0.029387,-0.032948,0.017285,-0.074830,0.019275,0.025886,0.023760,-0.032583,-0.003234,0.024372,0.052363,-0.014387,0.092646,0.000316,-0.003749,0.020630,-0.031414,-0.068868,0.080710,0.037203,0.041320,0.011468,-0.016435,-0.039702,0.012626,0.039271,0.011277,0.031201,0.031880,0.012429,-0.011506,-0.017037,-0.025053,0.011652,0.019057,-0.026728,-0.017040,0.002370,0.021449,0.044258,0.081099,0.059355,0.002822,-0.010962,0.046305,0.038993,-0.036665,0.006357,0.043740,0.007047,-0.038899,0.031839,-0.005643,0.031421,-0.035340,-0.003049,-0.046647,-0.002312,0.031008,0.012491,-0.014778,-0.005130,-0.032026,-0.000605,-0.001138,0.030195,0.010850,0.021787,0.029558,-0.020428,0.028133,-0.041438,-0.004132,0.046722,0.031553,0.013805,0.022398,0.032648,-0.042493,-0.012380,0.045997,0.005017,0.020598,0.029997,0.091389,0.049092,0.033489,-0.000580,-0.030652,0.016989,-0.033324,0.021518,-0.025740,0.046151,-0.015441,0.035858,0.023520,-0.048967,0.032932,-0.026095,-0.005029,-0.039872,0.059720,-0.046847,-0.020296,0.014138,0.037324,0.013360,-0.021623,0.041101,0.003092,0.016164,-0.024017,0.002507,-0.034691,0.034885,0.006433,-0.006609,-0.022144,0.041153,-0.003117,-0.012390,-0.075408,-0.041945,-0.012230,0.057314,-0.019827,0.015504,0.017280,-0.031024,-0.005369,-0.026182,-0.010571,0.015813,-0.042949,0.001298,0.004967,-0.015848,-0.018067,-0.057411,0.024606,-0.014824,-0.007842,0.007852,0.005412,0.040493,0.003573,0.002027,0.006937,0.002625,0.039137,-0.009462,0.046344,0.051806,0.005894,0.001421,0.001563,0.044590,0.042721,0.028180,-0.111892,-0.046242,0.089100,0.029009,-0.023777,0.003920,0.035879,-0.012096,-0.019264,-0.007431,-0.040736,0.052593,0.014007,0.034090,0.025947,-0.002858,0.011171,-0.029984,0.062238,0.009419,0.019933,0.025198,-0.008494,0.028680,0.022823,0.007826,0.041993,0.016093,-0.001820,0.014130,0.041825,-0.006514,0.015526,0.025294,0.011757,0.055574,0.034278,0.013647,0.048566,0.066765,-0.026467,-0.014678,-0.001182,-0.001914,0.036468,0.009645,-0.015550,-0.009881,0.046517,-0.015631,0.043440,-0.000775,-0.020634,0.001921,-0.001986,0.036300,0.079712,0.059989,-0.003754,-0.002077,-0.025554,-0.026143,-0.024311,0.035266,0.033366,0.000456,0.011283,-0.052098,0.013314,-0.010499,0.011185,0.033347,-0.003379,0.037694,-0.005636,0.031485,0.032640,-0.053315,-0.024171,0.027592,0.026014,0.012309,0.038215,-0.037598,0.057181,0.072046,0.022705,0.014081,-0.030473,-0.028596,0.018032,-0.030230,0.014766,0.002577,-0.016914,-0.009118,0.049098,0.079751,-0.047620,0.013712,0.033068,0.006593,-0.007154,-0.025493,-0.009404,0.026972,0.028996,-0.034673,0.006131,-0.015490,0.018019,-0.001042,0.030929,-0.011827,0.008706,0.003501,0.013615,-0.000618,0.017606,-0.092946,0.023664,0.030624,-0.056264,0.005920,-0.014416,0.008146,-0.006356,0.018794,0.005259,-0.012739,0.008100,0.038860,0.031307,-0.044161,0.012141,-0.001822,-0.005088,0.007125,0.007312,-0.040573,-0.026439,0.015435,-0.053898,0.117220,0.020564,-0.012038,-0.006946,-0.019852,0.006606,-0.016307,-0.000577,0.075474,-0.015570,-0.048745,-0.053103,-0.034897,-0.038537,-0.007649,-0.045249,0.009732,0.043383,0.039252,0.003053,0.076026,-0.033400,-0.007381,0.062601,0.037496,-0.004073,0.001910,0.030578,-0.006252,-0.016067,-0.047832,0.009322,-0.025030,0.009936,0.042789,0.018575,0.015248,-0.018746,0.006022,-0.004824,0.031610,-0.019982,0.070865,0.013486,0.006449,-0.023698,0.032222,0.025290,-0.005071,0.073422,0.028979,0.033047,-0.013619,0.012243,0.043197,-0.010032,0.016313,-0.001647,0.007949,0.021924,0.008206,-0.011313,0.031260,-0.032369,0.059710,0.009648,-0.001617,0.019874,0.007440,0.269240,-0.045265,0.026665,0.042560,0.022017,0.036400,0.003207,-0.022646,0.046647,-0.014688,0.076850,0.006666,0.043238,-0.021810,-0.009892,-0.028881,-0.033975,-0.026029,0.015535,-0.045466,0.029725,0.059608,0.026342,0.004230,-0.020948,-0.043142,0.010309,0.003518,-0.007566,0.009354,0.017668,-0.005798,-0.001043,0.008799,0.007014,0.047725,0.017501,-0.005310,0.029473,-0.009016,-0.026466,-0.028833,-0.020346,0.022324,0.007167,0.084123,-0.031769,0.023072,-0.001414,-0.077963,-0.007953,0.023629,0.021036,-0.014145,-0.031818,0.009715,-0.024854,0.027580,-0.005128,0.027596,0.045730,-0.009320,-0.013096,0.026652,0.005033,0.052815,0.009685,0.024371,-0.005998,-0.003264,0.035639,0.006358,-0.049215,-0.024952,0.032606,-0.025137,-0.023178,-0.033640,0.007444,0.046355,0.066753,0.063340,0.002182,0.016366,0.028693,-0.012236,-0.081748,0.029412,0.026057,-0.005275,-0.012839,0.022989,-0.067288,0.019631,0.035136,0.007737,0.035970,-0.007215,0.037352,-0.012160,-0.005499,0.053780,-0.083488,-0.016977,-0.070913,0.004544,0.008092,0.009007,-0.029796,-0.005687,0.032208,-0.127084,-0.008580,0.018313,-0.018342,-0.030267,0.039884,0.020052,0.016601,0.035909,0.016915,-0.031787,0.025507,0.025922,-0.022651,0.015795,0.009585,-0.014528,0.027512,0.065308,0.010869,0.004306,-0.017315,-0.031633,0.093140,-0.029109,0.018821,0.116142,-0.011323,0.041998,-0.016142,0.019500,0.029594,-0.003169,0.039187,-0.020378,0.014228,0.035146,-0.048264,0.006133,0.014471,-0.029067,0.041328,0.029192,-0.005331,-0.068231,0.039825,-0.012203,0.039251,0.083682,-0.004148
siciliano,-0.024184,0.026913,0.063296,-0.032515,0.055963,-0.005460,0.027664,0.014676,-0.004846,0.024469,-0.011431,0.039967,-0.002351,0.001624,0.033575,0.056696,0.073639,-0.019472,-0.000035,0.035411,0.062089,0.049459,-0.035876,0.035848,-0.185900,0.000254,-0.001948,-0.001167,0.027990,-0.011745,0.015388,0.012803,0.009984,-0.016393,0.001194,-0.011492,-0.029534,-0.024642,-0.018803,0.044546,0.003305,-0.001975,-0.012826,0.047524,0.061214,0.023406,0.030977,-0.032326,0.006109,0.001610,0.022487,0.011735,-0.010227,0.034484,0.113175,-0.055392,0.078224,-0.050125,0.040372,0.011067,-0.015153,-0.057561,0.040954,-0.018734,-0.001554,0.021077,0.028709,0.014889,-0.002702,0.024259,-0.021060,-0.005658,-0.002984,-0.047151,0.018676,-0.012274,0.005420,-0.003076,0.028519,-0.030014,-0.013547,0.023468,-0.044307,0.009542,-0.037223,0.047926,-0.044247,0.027541,-0.002262,0.006699,0.019439,0.023419,0.014843,-0.023073,0.015316,-0.040436,-0.002135,-0.012798,-0.035179,0.084078,0.033554,0.004655,0.029783,-0.010499,-0.092606,-0.011423,-0.035590,0.007168,-0.059845,-0.025607,-0.059342,0.037170,0.019261,0.080712,0.033436,0.035891,-0.006150,0.052172,-0.009557,0.032609,-0.026791,0.020345,-0.019652,0.011672,0.042198,0.030648,0.037761,-0.023553,0.028503,0.022223,-0.005159,0.093931,-0.014974,0.014791,0.053569,0.021278,-0.004303,0.025825,0.023241,-0.002125,-0.001719,0.033663,0.026920,0.044743,-0.002078,-0.027136,-0.031132,0.054101,-0.033190,0.058635,0.009718,-0.035032,0.057869,0.017858,0.015843,0.007191,0.041079,-0.021706,0.032218,-0.001732,0.048325,0.015155,0.013863,0.077496,-0.027578,0.087053,0.069818,-0.046835,0.173855,0.007446,-0.063934,-0.004642,0.006567,-0.021225,-0.005817,-0.001792,0.026524,-0.004621,-0.029216,0.000783,0.027092,-0.018026,-0.010798,-0.001304,-0.041521,0.029916,0.010285,0.004329,-0.021484,-0.040995,0.029253,0.008699,-0.025932,-0.011740,0.003851,-0.010130,0.067421,-0.006664,-0.018292,0.027474,0.015318,0.047968,0.026089,-0.020264,-0.037940,-0.027533,0.016623,0.024357,-0.013823,0.040213,-0.027769,-0.020449,0.037836,-0.000043,-0.028242,-0.043047,-0.033931,0.100989,0.056109,0.033518,0.050881,-0.007466,0.032994,0.038807,0.002240,-0.017146,0.015931,-0.009304,0.055723,0.013158,-0.008333,-0.004772,-0.027568,0.048607,-0.012605,0.013155,-0.040690,0.007761,-0.073233,0.005145,0.004482,0.030401,-0.023446,-0.005105,0.028230,0.053945,-0.024739,0.067292,-0.003748,-0.012021,0.010728,-0.023596,-0.066899,0.069923,0.031206,0.020481,0.027814,-0.006813,-0.031465,0.019337,0.044294,0.013062,0.032233,0.038061,-0.007267,-0.006159,-0.027240,-0.033356,0.030942,0.012035,-0.011914,-0.024338,-0.012848,0.062521,0.061427,0.081504,0.071611,-0.020766,-0.015554,0.015827,0.034700,-0.037019,0.007541,0.036605,0.012469,-0.043502,0.020977,0.030192,0.056415,-0.035246,-0.013720,-0.051033,-0.002725,-0.000807,0.002739,0.000474,-0.023962,-0.026807,-0.026402,0.009160,0.024106,0.001484,0.018340,0.006319,-0.032335,0.047639,-0.030751,0.027062,0.046983,0.053324,-0.002337,0.017511,0.015351,-0.020112,-0.016340,0.047635,0.005561,0.004277,0.032669,0.091950,0.033916,0.026770,-0.001208,-0.008821,0.017074,-0.027611,0.018753,-0.030852,0.018698,-0.037189,0.032717,0.008661,-0.030261,0.019790,-0.039794,0.000826,-0.036175,0.050001,-0.031493,-0.007617,0.020010,0.029344,0.013105,-0.002965,0.052601,0.000375,-0.002076,-0.029377,0.020528,-0.013589,0.044401,0.004707,0.016494,-0.024237,0.042876,-0.014205,-0.016850,-0.068590,-0.047315,-0.023246,0.086293,-0.007263,0.026619,0.008060,-0.040666,-0.005848,-0.035824,-0.012205,0.007630,-0.040104,0.005246,-0.003193,-0.028325,-0.049796,-0.071130,0.025938,-0.020989,-0.021070,-0.002738,0.019801,0.004116,-0.013476,-0.011511,0.028558,0.012933,0.034118,-0.010250,0.022455,0.050615,0.034255,-0.003793,-0.014300,0.044605,0.029899,0.024335,-0.110558,-0.057797,0.109090,0.030758,0.000390,-0.001886,0.029707,-0.027098,0.006167,0.006375,-0.049177,0.065447,0.019377,0.040937,0.033986,-0.005580,0.005289,-0.015174,0.054047,-0.000395,0.016720,-0.006530,0.011246,0.023847,0.015462,0.010911,0.048446,0.037552,-0.005249,0.011759,0.046475,0.001854,0.014312,0.034810,0.012489,0.030725,0.033238,-0.000198,0.033483,0.070124,-0.019925,-0.021429,0.004095,-0.006143,0.033447,0.021394,-0.018433,-0.008298,0.029626,-0.021007,0.030372,0.008446,-0.048007,-0.027366,-0.008766,0.026784,0.089365,0.051017,-0.015748,-0.013357,-0.021744,-0.003689,-0.023487,0.035253,0.017705,-0.015614,0.020737,-0.056367,0.018625,-0.013741,0.011033,0.053128,-0.007747,0.034727,-0.025928,0.011914,0.017571,-0.060312,-0.016309,0.016598,0.026519,0.028180,0.000495,-0.026865,0.067141,0.082826,0.016684,-0.002445,-0.005732,-0.014893,0.016471,-0.033147,0.030717,0.007417,0.006712,-0.010958,0.067619,0.069064,-0.038070,0.017398,0.024247,-0.006853,-0.015601,-0.016785,-0.016666,0.013878,0.042845,-0.030019,-0.014801,-0.017972,0.020170,0.009158,0.031504,0.000710,0.008566,0.004575,-0.008055,-0.013586,-0.000982,-0.098409,0.025418,0.048470,-0.044363,0.001243,-0.012059,-0.007387,0.010073,0.057093,-0.005105,-0.006765,0.017558,0.054052,0.019614,-0.046155,0.006456,-0.006991,0.004038,-0.010377,0.003992,-0.032487,-0.024026,0.013993,-0.047951,0.110066,0.064825,-0.022307,0.000825,-0.007874,0.000300,-0.025538,0.006101,0.075912,-0.009186,-0.037264,-0.060063,-0.057306,-0.031967,0.003673,-0.046777,0.020580,0.030461,-0.024592,0.001657,0.074083,-0.025186,0.009271,0.070781,0.027772,-0.004442,-0.016413,0.019687,0.020835,-0.019295,-0.036961,0.013896,-0.030570,0.014925,0.058947,0.013474,0.023191,-0.007964,0.017228,-0.023020,0.017619,-0.022529,0.072469,0.007624,0.031297,-0.031718,0.023856,0.018958,-0.028758,0.073177,0.039832,0.029759,-0.010815,0.006345,0.030361,-0.014160,0.012909,-0.014000,0.027709,0.021060,0.017570,-0.008054,0.038843,-0.028874,0.058225,0.015714,0.004550,0.015084,-0.016879,0.261756,-0.037596,0.042740,0.020317,0.040400,0.018990,-0.000873,-0.012813,0.033825,-0.007333,0.086746,0.010677,0.048084,-0.005978,-0.004171,-0.029706,-0.011179,-0.024320,0.010855,-0.056354,0.024508,0.027544,0.036071,0.008818,-0.030394,-0.050247,0.019330,0.017093,-0.013926,0.023391,0.018172,0.003916,0.011213,0.012175,0.017625,0.054915,0.017133,0.006888,0.004581,0.008543,-0.030507,-0.042638,-0.004099,0.033072,0.006582,0.045058,-0.027991,0.021746,-0.004757,-0.068149,-0.009620,0.021427,0.034268,-0.035234,-0.030073,-0.005946,-0.026898,0.010627,-0.023768,0.021344,0.021639,-0.003890,-0.007309,0.025146,0.002308,0.041131,0.020853,0.029134,0.013734,-0.012317,0.054994,-0.011120,-0.045462,-0.020450,0.036763,-0.030035,-0.026557,-0.046117,-0.004220,0.046983,0.063638,0.060643,0.010773,0.021255,0.029090,-0.014558,-0.075077,0.026967,0.004664,0.009118,0.014715,0.033887,-0.052508,0.026826,0.028070,0.012955,0.031988,-0.021209,0.066310,-0.008121,-0.011170,0.019208,-0.083773,-0.019560,-0.058180,0.011958,0.012178,0.000889,-0.026121,0.010518,0.057909,-0.117621,-0.006172,0.023727,-0.029633,-0.022186,0.031654,0.000733,0.007218,0.036727,0.047778,0.002461,0.027721,0.021491,-0.018700,0.019518,0.007138,-0.012037,0.032154,0.033777,0.008948,-0.019696,-0.010789,-0.028767,0.074896,-0.009041,0.016233,0.099608,-0.015430,0.048686,-0.018831,0.031024,0.041098,-0.001355,0.037670,-0.014394,0.021103,0.026443,-0.032741,0.010641,0.005506,-0.025432,0.042376,0.032377,0.004873,-0.066022,0.030946,-0.003570,0.047554,0.069407,0.003298
lombardo,-0.026363,0.025405,0.046572,-0.028777,0.045761,0.004439,0.056411,0.027947,0.008395,0.015461,-0.002773,0.047062,-0.011012,0.013912,0.026799,0.050963,0.071054,-0.049326,-0.032181,0.046458,0.049297,0.041288,-0.033029,0.027416,-0.188523,0.011895,-0.012793,-0.011162,0.013871,-0.009897,0.015051,0.009584,0.016775,-0.011932,0.011916,0.001345,-0.015266,-0.021888,-0.020357,0.060846,0.007937,-0.020862,-0.016820,0.062772,0.068454,0.044367,0.006724,-0.033291,0.010760,0.009629,0.016882,0.004628,-0.013698,0.029632,0.096179,-0.040485,0.072297,-0.045330,0.038424,0.008819,-0.010610,-0.042564,0.044303,-0.002372,0.006467,0.006373,0.029954,0.001053,0.001862,0.029697,-0.030235,-0.007317,0.015622,-0.047639,0.018128,-0.014087,0.001305,-0.018387,0.027152,-0.036775,-0.010298,0.027400,-0.017995,0.013731,-0.028613,0.048044,-0.024188,0.015131,-0.014662,0.007170,0.011092,0.002960,0.023122,-0.032041,0.005226,-0.035180,0.009290,0.012941,-0.032555,0.077450,0.045942,-0.008922,0.021535,-0.018472,-0.082128,0.012065,-0.032200,-0.000177,-0.056474,-0.013218,-0.068484,0.023130,0.020112,0.104729,0.001928,0.027730,0.002988,0.032372,-0.006576,0.014539,-0.020940,0.011856,-0.002054,0.008288,0.021275,0.014361,0.014444,-0.026015,0.009918,0.019962,-0.012773,0.091818,0.002323,0.003520,0.036921,0.030792,-0.025713,0.034290,0.040272,0.001957,0.001407,0.029062,0.018547,0.041876,0.000111,-0.037582,-0.022754,0.070242,-0.044126,0.045798,0.022550,-0.014113,0.061792,0.012394,0.002819,0.029800,0.044700,0.001895,0.045260,-0.004409,0.024833,0.002280,0.014621,0.079678,-0.021153,0.078258,0.097414,-0.033469,0.183354,0.014957,-0.072860,-0.000013,0.000680,-0.019385,0.000519,-0.000937,0.022320,-0.006366,-0.015907,-0.010875,0.015450,-0.014287,-0.001733,-0.005179,-0.043079,0.040478,0.016409,-0.007471,-0.042668,-0.059744,0.023036,0.009420,-0.036705,-0.017187,0.000156,-0.015138,0.048701,-0.004024,-0.019193,-0.003159,0.030895,0.046227,0.044828,-0.009399,-0.016693,-0.039734,-0.000985,0.032329,-0.007095,0.055436,-0.026360,-0.016742,0.048201,0.000351,-0.015097,-0.054548,-0.030253,0.087746,0.029397,0.030842,0.051919,-0.001523,0.025861,0.029751,0.016611,-0.011771,0.023408,-0.008985,0.042756,0.030390,-0.009782,0.004635,-0.041713,0.082398,0.013080,0.023141,-0.037032,0.006200,-0.074228,0.012408,0.019414,0.029079,-0.023099,-0.008762,0.023605,0.043598,-0.011736,0.097462,-0.006293,-0.009449,0.011292,-0.028084,-0.081905,0.089557,0.051238,0.033651,0.016984,-0.011809,-0.041528,0.009042,0.039557,-0.000628,0.039626,0.032842,-0.003788,-0.007245,-0.025292,-0.028214,0.027412,0.012895,-0.035470,-0.020314,-0.019101,0.045633,0.043880,0.088296,0.058494,-0.001620,-0.015887,0.049226,0.024318,-0.036898,0.010056,0.032235,0.017671,-0.046615,0.023874,0.005171,0.055429,-0.028450,0.001781,-0.049932,-0.012859,0.018752,0.011034,0.001553,-0.009372,-0.038673,-0.005473,0.013085,0.027104,0.015933,0.021918,0.010883,-0.018419,0.026678,-0.019451,-0.004705,0.047962,0.026770,0.013227,0.020598,0.015588,-0.029846,-0.026181,0.050025,-0.003918,0.002572,0.030007,0.098186,0.027274,0.049007,-0.000339,-0.015184,0.016037,-0.030711,0.030003,-0.027656,0.041288,-0.016042,0.030531,0.016586,-0.046852,0.025299,-0.040280,0.010708,-0.031698,0.050764,-0.038664,-0.005637,0.021027,0.039151,0.011213,-0.004186,0.057182,0.006581,0.006856,-0.029508,0.024432,-0.027416,0.041808,0.010047,-0.009690,-0.023271,0.044007,-0.013609,-0.009731,-0.065348,-0.042340,-0.014831,0.065639,-0.023681,0.017251,0.010721,-0.040173,-0.000827,-0.025739,-0.006888,0.025331,-0.037813,-0.010749,-0.002362,-0.022199,-0.023709,-0.062292,0.032536,-0.013512,-0.026780,-0.002997,0.018534,0.027579,-0.001042,0.002179,0.020230,0.009452,0.037169,-0.001664,0.041524,0.062113,0.010263,0.006292,-0.002453,0.047775,0.033483,0.040618,-0.099526,-0.044206,0.104728,0.040876,0.000322,0.013622,0.031413,-0.012452,-0.002845,-0.008387,-0.038263,0.054316,0.020226,0.039261,0.018444,-0.007332,0.004240,-0.027265,0.054535,0.001456,0.013626,0.023007,0.000519,0.026816,0.019836,0.014658,0.053657,0.020586,-0.006034,0.011680,0.045512,-0.010706,0.011294,0.040689,0.014491,0.056391,0.036341,0.013249,0.036571,0.055331,-0.023318,-0.031591,0.005151,-0.003294,0.037002,0.010837,-0.011542,-0.005543,0.031923,-0.003359,0.030505,0.013499,-0.028686,-0.008200,-0.007410,0.040455,0.089608,0.049333,-0.016062,-0.013969,-0.029061,-0.004374,-0.026361,0.053173,0.026391,-0.012288,0.008614,-0.060698,0.005753,-0.013901,0.016887,0.027354,-0.006917,0.039761,-0.017298,0.016026,0.028361,-0.057365,-0.021863,0.026414,0.025693,-0.000058,0.023988,-0.041129,0.061666,0.069924,0.024464,0.003004,-0.005396,-0.025491,0.009156,-0.034394,0.012121,-0.000725,0.001044,-0.028179,0.045516,0.076556,-0.050136,0.019084,0.038701,-0.001377,-0.004837,-0.018110,-0.012600,0.014510,0.028373,-0.032919,-0.001431,-0.016824,0.017611,0.001910,0.032207,-0.001630,0.000215,0.017529,0.004712,-0.008374,0.015377,-0.095646,0.026330,0.040884,-0.056375,0.012334,0.007101,0.000487,0.012621,0.015281,0.002533,-0.012302,0.009611,0.043623,0.026600,-0.049451,0.016126,-0.003006,-0.002650,-0.011256,0.005458,-0.043831,-0.028137,0.010930,-0.060964,0.113195,0.044406,-0.015008,0.001745,-0.007050,0.009036,-0.022507,-0.001068,0.084991,-0.009681,-0.038798,-0.070361,-0.041069,-0.029484,0.002333,-0.043873,0.001312,0.029311,0.005260,0.009622,0.077984,-0.033239,-0.007789,0.067870,0.022894,-0.008405,-0.012800,0.023409,0.008168,-0.014712,-0.046097,0.019723,-0.041710,0.011358,0.029872,0.019883,0.019167,-0.028345,0.016907,-0.010354,0.029969,-0.014219,0.062615,0.019238,0.006344,-0.030023,0.013236,0.040983,-0.005061,0.067166,0.019383,0.022744,-0.018387,0.013841,0.015307,-0.019633,0.020867,-0.018856,0.018971,0.021224,0.013549,-0.009271,0.038469,-0.031836,0.062946,0.011433,-0.010501,0.004257,0.008685,0.249908,-0.036023,0.036965,0.037462,0.023795,0.039973,0.006655,-0.026414,0.040216,-0.001036,0.071003,0.010465,0.046730,-0.008095,-0.003057,-0.032750,-0.015181,-0.027281,0.008950,-0.042057,0.027414,0.045279,0.021997,-0.004626,-0.017753,-0.043018,0.009310,0.009371,0.002757,0.012879,0.021026,0.012909,0.004318,-0.004687,0.015687,0.052059,0.004349,0.001017,0.011175,-0.004474,-0.024752,-0.034094,-0.012853,0.016909,0.004585,0.060547,-0.031303,0.019365,-0.023417,-0.079744,-0.000841,0.027231,0.043690,-0.019260,-0.021991,0.006935,-0.023625,0.029533,-0.007444,0.038090,0.029747,-0.009271,-0.005584,0.031311,-0.007230,0.045067,0.011804,0.032051,0.002649,-0.009190,0.051439,-0.001840,-0.044762,-0.015882,0.034110,-0.024200,-0.008885,-0.044768,0.002023,0.063755,0.055945,0.046121,0.017167,0.011781,0.026519,-0.018302,-0.085507,0.018707,0.030991,-0.004637,-0.027898,0.043548,-0.071964,0.025929,0.038843,0.005707,0.036009,-0.018675,0.055279,-0.006322,-0.013253,0.038229,-0.087205,-0.022312,-0.066026,0.017588,-0.003723,0.004843,-0.029454,-0.012498,0.029902,-0.125600,-0.003652,0.023704,-0.027545,-0.031862,0.048879,0.015500,0.011888,0.044933,0.031179,-0.006812,0.036194,0.040171,-0.024745,0.029002,0.002814,-0.011392,0.027020,0.040158,0.005255,-0.011334,-0.012382,-0.026389,0.076459,-0.028850,0.017297,0.116816,-0.013940,0.033261,-0.025849,0.018674,0.023429,-0.002768,0.038650,-0.023834,0.011580,0.029501,-0.040553,0.006069,0.015434,-0.022000,0.049439,0.027052,0.005016,-0.072010,0.045340,-0.001571,0.052632,0.089598,0.006611
sardo,-0.024449,0.028898,0.063699,-0.039479,0.062499,-0.003193,0.029690,0.009644,0.002068,0.028030,-0.005737,0.055732,-0.015510,-0.005473,0.048204,0.059705,0.072082,-0.044242,-0.008239,0.056533,0.046865,0.032538,-0.043437,0.020262,-0.195383,0.014423,-0.014246,-0.021944,0.009009,-0.010261,0.027410,-0.000614,0.015454,-0.013145,0.018784,-0.000025,-0.029877,-0.025983,-0.022090,0.052285,0.016065,-0.027614,-0.002375,0.067030,0.073896,0.038455,-0.007876,-0.019997,0.012246,0.012579,0.023537,0.005679,-0.017675,0.029429,0.091706,-0.049495,0.072157,-0.037150,0.024312,0.000891,-0.016277,-0.045064,0.042104,-0.013421,0.004889,0.022227,0.023890,0.027580,-0.003681,0.021040,-0.027537,-0.018246,0.007148,-0.048622,0.026565,-0.024936,0.001125,-0.014622,0.035872,-0.033164,-0.014013,0.016429,-0.039117,0.001149,-0.018828,0.039682,-0.039158,0.030515,-0.008711,0.008170,0.001164,0.016241,0.031546,-0.029533,0.002415,-0.035706,0.010418,0.016535,-0.030385,0.070420,0.039167,-0.000198,0.022387,-0.018908,-0.093922,-0.002940,-0.038268,0.003135,-0.057888,-0.017010,-0.067608,0.033724,0.006867,0.087973,0.018626,0.029812,-0.003309,0.053975,0.005100,0.010785,-0.002701,-0.012379,-0.001741,0.005679,0.017425,0.031291,0.022821,-0.031243,0.025056,0.019303,-0.012701,0.086315,-0.009792,0.021721,0.046648,0.022514,-0.025493,0.025293,0.039374,0.004178,-0.020402,0.032391,0.027053,0.036505,-0.005133,-0.033297,-0.031382,0.060697,-0.055297,0.049549,0.011517,-0.018442,0.072217,0.012029,-0.002143,0.026777,0.050635,-0.019172,0.026366,-0.004160,0.032625,0.009634,0.027463,0.051736,-0.030837,0.079989,0.086513,-0.044936,0.152729,-0.010008,-0.066308,0.011005,0.011467,-0.011901,0.008208,-0.000034,0.030345,-0.001130,-0.009199,0.004061,0.008022,-0.013136,-0.004706,-0.005546,-0.039783,0.038710,0.008416,0.001658,-0.037880,-0.050433,0.034203,-0.011674,-0.022569,-0.015603,0.014295,-0.006117,0.064168,-0.006736,-0.023393,-0.002546,0.037512,0.049436,0.051212,-0.014394,-0.004193,-0.024479,0.001024,0.030373,-0.020243,0.029269,-0.030236,-0.030399,0.030936,-0.008061,-0.013231,-0.049490,-0.020178,0.100203,0.030974,0.035699,0.048629,-0.009226,0.035605,0.026459,0.006825,-0.019763,0.028692,-0.025018,0.043061,0.027077,-0.004998,0.007542,-0.020360,0.042575,0.012280,0.030554,-0.036177,0.018096,-0.080657,0.010183,0.018646,0.039254,-0.039301,-0.001588,0.022860,0.057732,-0.012855,0.079770,0.003435,-0.013253,0.027712,-0.035400,-0.082488,0.071467,0.032200,0.036966,0.010766,-0.014631,-0.036705,0.016763,0.030411,0.020869,0.032328,0.017563,0.005190,-0.006788,-0.023273,-0.037477,0.012512,0.012006,-0.012154,-0.025073,0.001037,0.044376,0.026950,0.083749,0.069483,-0.004662,-0.004453,0.047781,0.013618,-0.047851,0.019911,0.044203,0.004842,-0.042256,0.017308,0.008871,0.034206,-0.032464,-0.015612,-0.050056,0.001065,0.024654,0.003776,-0.003447,-0.021212,-0.032569,-0.017051,0.004509,0.028500,0.005885,0.024967,0.023180,-0.037744,0.022608,-0.027222,-0.000375,0.040976,0.040234,0.016843,0.019307,0.033885,-0.031915,-0.007187,0.038277,0.011002,0.003704,0.027418,0.086467,0.058745,0.030217,0.004654,-0.021111,0.020652,-0.026178,0.015895,-0.021804,0.028049,-0.016220,0.037903,0.006101,-0.048655,0.037227,-0.026569,0.000943,-0.032742,0.054575,-0.042725,-0.009147,0.019265,0.038322,0.014311,-0.015125,0.039814,0.000470,-0.003575,-0.032806,0.015529,-0.021473,0.052635,0.012078,0.005947,-0.023057,0.033733,-0.003984,-0.019946,-0.071642,-0.048491,-0.012335,0.038982,-0.019847,0.013146,0.029091,-0.048993,-0.005817,-0.034052,-0.003946,0.009746,-0.054813,0.004588,0.007871,-0.018501,-0.035663,-0.057219,0.032419,-0.023045,-0.013390,0.000914,0.004599,0.033383,0.005293,0.013905,0.026651,0.003152,0.032159,-0.015625,0.037823,0.041749,0.019401,0.003896,0.004417,0.047482,0.021829,0.021426,-0.110331,-0.048402,0.085958,0.030667,-0.008772,-0.004694,0.027998,-0.006356,0.011990,-0.011251,-0.043096,0.063721,0.025305,0.022975,0.029668,0.011577,0.010590,-0.038641,0.067852,0.002635,0.019760,0.008947,-0.005643,0.048588,0.010356,0.017794,0.028917,0.039160,-0.000807,0.012628,0.043896,-0.002092,0.013413,0.037703,0.007868,0.054542,0.048401,0.013183,0.046671,0.059904,-0.012791,-0.007634,0.006999,-0.007408,0.043733,0.023051,-0.027079,-0.010111,0.049596,-0.012697,0.000614,0.011166,-0.023859,0.001505,-0.000110,0.031352,0.083575,0.049744,0.008469,-0.001608,-0.023411,-0.012117,-0.031502,0.040295,0.026013,-0.006391,0.016485,-0.066140,0.023333,-0.014399,0.008471,0.021338,-0.004087,0.037039,-0.012163,0.040278,0.032232,-0.057875,-0.016567,0.017429,0.003688,0.024971,0.005144,-0.025576,0.064777,0.062956,0.043134,0.013020,-0.024806,-0.019769,0.005888,-0.017339,0.018645,0.001818,-0.000346,-0.037474,0.056991,0.073359,-0.045751,0.031094,0.048412,0.004933,-0.002456,-0.019903,-0.001233,0.022348,0.032397,-0.031825,0.007489,-0.015862,0.020849,-0.000709,0.029613,0.003021,0.003858,0.001158,0.006887,-0.007558,0.018192,-0.102025,0.045710,0.025052,-0.051321,-0.005603,-0.019738,0.007571,0.002256,0.013935,-0.004045,-0.011344,0.008177,0.036220,0.026226,-0.038525,0.012841,0.014298,-0.005501,0.018357,-0.005126,-0.039647,-0.024261,0.010262,-0.050418,0.110772,0.048364,-0.019178,0.005690,-0.022807,0.003961,-0.042401,-0.005270,0.071599,-0.035944,-0.035049,-0.041526,-0.050110,-0.019779,-0.004295,-0.037784,0.016670,0.045056,0.017592,0.001973,0.088028,-0.032999,-0.016768,0.063878,0.039828,-0.000511,-0.037867,0.033993,-0.012110,-0.011854,-0.039354,0.019169,-0.026960,0.022398,0.066086,0.011757,0.029347,-0.008232,0.009856,-0.020879,0.038749,-0.022752,0.064797,0.023671,0.006865,-0.019849,0.033052,0.005378,-0.006527,0.058498,0.038662,0.033694,-0.014916,0.006628,0.046517,-0.006814,0.011461,-0.024595,-0.001736,0.022420,0.008656,-0.018373,0.023197,-0.031281,0.067213,0.012999,-0.000482,0.026144,0.017208,0.263925,-0.038075,0.031975,0.038350,0.023862,0.031534,0.009420,-0.021990,0.034462,-0.017999,0.081095,0.001361,0.051658,0.001514,-0.008637,-0.028475,-0.019014,-0.021331,0.018188,-0.042514,0.024589,0.044447,0.028177,-0.002840,-0.026601,-0.040114,0.002038,0.004890,-0.000123,-0.001517,0.033353,-0.004304,-0.002684,0.013882,0.012089,0.048047,0.006123,0.016577,0.006989,-0.003178,-0.038248,-0.030488,0.007948,0.021065,0.005125,0.074161,-0.025320,0.026060,0.002951,-0.081080,-0.007343,0.028961,0.027294,-0.025243,-0.022985,0.009087,-0.033274,0.014190,-0.012238,0.019345,0.041788,-0.004716,-0.024856,0.030139,0.004456,0.053343,0.005261,0.021157,-0.001423,0.012433,0.047740,-0.005396,-0.046330,-0.025219,0.027911,-0.034120,-0.031114,-0.040038,0.006065,0.042662,0.053930,0.059031,0.011998,0.022893,0.024636,-0.015234,-0.070749,0.040764,0.020814,0.004924,0.007417,0.022444,-0.069127,0.021484,0.036522,0.001928,0.040846,-0.022031,0.058708,-0.015744,-0.002692,0.045254,-0.080628,-0.020016,-0.068485,0.013791,0.006649,0.008454,-0.037020,-0.008070,0.051153,-0.123930,-0.005966,0.027173,-0.019900,-0.031519,0.039381,0.006769,0.022974,0.035951,0.025755,-0.022929,0.023415,0.018405,-0.020903,0.025734,0.001342,-0.012249,0.027060,0.043919,0.012590,0.008461,-0.031543,-0.019006,0.079668,-0.020487,0.021707,0.118356,-0.007815,0.049022,-0.036712,0.021672,0.030826,-0.000522,0.046347,-0.018941,0.012206,0.028086,-0.042404,0.001154,0.013820,-0.026332,0.051984,0.014787,0.001197,-0.065174,0.049390,-0.007829,0.054573,0.094457,0.000660
ligure,-0.024262,0.022406,0.055183,-0.039317,0.050172,0.002515,0.043748,0.020240,-0.004626,0.019287,-0.002573,0.044575,0.005141,0.001593,0.043453,0.046453,0.063802,-0.040701,-0.018027,0.050218,0.054349,0.051923,-0.035007,0.013102,-0.192592,0.008714,-0.014844,-0.015960,0.012101,-0.006173,0.025525,0.007951,0.001364,-0.012069,0.019292,-0.000705,-0.021172,-0.016892,-0.025633,0.059746,0.005587,-0.017387,-0.008790,0.061658,0.069126,0.039810,-0.011063,-0.013682,-0.008748,0.028268,0.028175,0.004357,-0.004962,0.035287,0.104379,-0.047201,0.077397,-0.030181,0.031037,0.011134,-0.013349,-0.049111,0.050780,-0.005411,0.016894,-0.014365,0.014513,0.011920,-0.010748,0.023474,-0.023875,-0.011183,0.006251,-0.043136,0.023914,-0.025743,0.000059,-0.012642,0.030810,-0.035185,-0.018538,0.014683,-0.028356,0.006304,-0.026613,0.041003,-0.041569,0.021295,-0.014926,0.004782,0.006524,0.010985,0.027499,-0.030734,0.011684,-0.028265,0.005091,0.003572,-0.031969,0.072828,0.034126,-0.000870,0.034607,-0.013646,-0.089794,0.016019,-0.033464,0.006938,-0.057284,-0.014225,-0.063073,0.042719,0.027775,0.096709,0.006932,0.030890,0.004368,0.041474,0.000687,0.015580,-0.017921,0.000780,-0.007306,0.008373,0.028145,0.022855,0.036459,-0.025218,0.013363,0.009362,-0.017178,0.094328,-0.002425,0.003164,0.034047,0.019255,-0.022899,0.025273,0.030272,-0.002106,-0.006158,0.035576,0.007785,0.038710,0.003830,-0.032381,-0.030871,0.058140,-0.046610,0.044706,0.026160,0.013175,0.067802,0.007113,0.009628,0.034994,0.048829,-0.009730,0.039067,-0.003009,0.028194,0.006101,0.014020,0.065701,-0.030950,0.075531,0.096768,-0.042818,0.176048,0.000963,-0.079164,0.012245,0.001926,0.002941,0.000188,-0.010210,0.023873,-0.002856,-0.023874,-0.009139,0.009268,-0.014813,0.011185,0.008631,-0.027459,0.031619,0.017579,0.000727,-0.029078,-0.053920,0.026019,0.000579,-0.031961,-0.009609,-0.004031,-0.008207,0.064820,-0.013911,-0.027600,0.007589,0.035073,0.046491,0.040945,-0.020768,-0.018473,-0.026141,0.018910,0.031307,-0.004170,0.038188,-0.040466,-0.025908,0.041660,-0.003676,-0.029384,-0.055210,-0.018592,0.086626,0.017953,0.028817,0.058601,0.003050,0.030853,0.026206,0.008500,-0.014258,0.038048,-0.019002,0.037152,0.023210,-0.019685,-0.005056,-0.028604,0.060164,0.014364,0.020525,-0.031609,0.008956,-0.075697,-0.000782,0.019872,0.025443,-0.017149,-0.001418,0.015150,0.068765,-0.015423,0.080928,0.000072,-0.016693,0.016561,-0.034750,-0.062510,0.067036,0.036012,0.041830,0.016304,-0.021580,-0.040401,0.008631,0.035905,0.018267,0.035040,0.037630,0.015381,-0.007067,-0.017867,-0.023970,0.016094,0.026063,-0.025907,-0.019072,-0.002046,0.028953,0.054704,0.089368,0.055478,-0.008929,-0.006684,0.040470,0.028539,-0.024660,0.009028,0.033082,-0.009312,-0.034590,0.034258,-0.002285,0.028856,-0.033618,0.001451,-0.046597,-0.007721,0.044246,0.010961,-0.006474,-0.009682,-0.033736,-0.019232,0.004037,0.034987,0.004954,0.027874,0.014560,-0.014736,0.037220,-0.038638,0.006701,0.039707,0.037319,0.012178,0.015143,0.022237,-0.041854,-0.010756,0.050079,0.007959,0.016113,0.030095,0.087719,0.034418,0.039579,-0.002928,-0.010954,0.019879,-0.035815,0.028282,-0.016479,0.050347,-0.010708,0.034538,0.013307,-0.046306,0.020455,-0.023458,-0.000226,-0.037539,0.055654,-0.042502,-0.005513,0.021023,0.043936,0.014974,-0.012936,0.045952,-0.001534,0.014136,-0.029126,0.003336,-0.022725,0.038617,0.008928,0.000001,-0.022653,0.038777,-0.000096,-0.017259,-0.070836,-0.045010,-0.012156,0.065681,-0.014835,0.019162,0.014940,-0.032930,0.001490,-0.035657,-0.001038,0.009661,-0.026881,0.002177,0.011872,-0.018594,-0.025233,-0.070038,0.023249,-0.010957,-0.000675,0.011413,0.013183,0.038147,-0.005889,0.000239,0.020185,0.015611,0.044747,-0.014053,0.047335,0.064097,0.005354,0.009092,-0.000193,0.045574,0.015320,0.031292,-0.102368,-0.050950,0.094862,0.034092,-0.013525,-0.002015,0.030663,-0.013825,-0.001629,0.002219,-0.039214,0.059151,0.011971,0.030116,0.028421,-0.001086,0.008285,-0.034328,0.064853,0.005907,0.017840,0.011804,0.000785,0.029125,0.020100,0.015012,0.038130,0.010006,0.005501,0.020663,0.041659,0.003625,-0.010264,0.034655,0.004994,0.054092,0.029862,0.014493,0.035066,0.062617,-0.026725,-0.028069,0.002790,-0.002422,0.043957,0.009942,-0.016800,-0.006704,0.042024,-0.009468,0.029169,0.016983,-0.002779,0.002362,-0.008325,0.033806,0.083369,0.058485,-0.008911,0.007747,-0.028440,-0.036192,-0.017933,0.038477,0.021680,0.002130,0.019474,-0.045626,0.009696,-0.014076,0.002124,0.039346,-0.010026,0.054137,-0.005567,0.019845,0.034026,-0.056450,-0.015064,0.023777,0.034367,0.020113,0.025088,-0.033351,0.064262,0.079481,0.039609,0.015357,-0.024524,-0.024421,0.016633,-0.037810,0.034882,-0.002298,-0.007145,-0.036801,0.043464,0.078545,-0.046714,0.019130,0.031701,-0.009183,-0.005864,-0.018320,-0.004779,0.027253,0.037019,-0.038949,0.005334,-0.016278,0.017482,0.002159,0.037517,-0.006491,0.009491,0.011803,0.007548,-0.017022,0.012475,-0.101894,0.030386,0.036155,-0.048564,-0.015345,0.001378,-0.009069,0.006852,0.026491,-0.007427,-0.011373,0.013658,0.044462,0.024848,-0.039642,0.013716,-0.001613,-0.007645,0.013127,0.011068,-0.040119,-0.019559,0.013854,-0.042621,0.112808,0.025658,-0.019269,0.010171,-0.020977,0.012822,-0.038144,-0.014467,0.077586,-0.010390,-0.034768,-0.050963,-0.051921,-0.037145,-0.007004,-0.047535,0.010947,0.028497,0.024273,0.001179,0.092070,-0.026561,-0.010097,0.068170,0.036771,0.000348,-0.039050,0.021593,-0.013864,-0.020326,-0.045828,0.022955,-0.027952,0.009327,0.058816,0.019280,0.011364,-0.021715,0.015363,-0.002206,0.041798,-0.028572,0.066957,0.016652,0.020655,-0.028185,0.022117,0.029549,-0.007826,0.061775,0.033892,0.029685,-0.018659,0.009142,0.033187,-0.015088,-0.005390,0.003418,0.008229,0.025493,0.011730,-0.011404,0.038686,-0.033053,0.049792,0.009455,0.002219,0.010769,-0.011463,0.282500,-0.035658,0.027615,0.021703,0.037614,0.031941,0.000018,-0.007821,0.041755,0.001634,0.086279,0.011906,0.037000,-0.024503,-0.011746,-0.027204,-0.036260,-0.024712,0.011932,-0.045908,0.026486,0.041380,0.021674,0.006212,-0.024240,-0.043300,0.005636,0.000526,-0.006498,0.019469,0.029771,-0.005199,0.005130,-0.002602,0.016594,0.051324,0.009003,0.000173,0.015153,-0.007450,-0.031001,-0.033097,-0.013651,0.014522,0.002531,0.084531,-0.034811,0.021305,-0.008583,-0.073691,-0.011977,0.017306,0.033029,-0.032598,-0.025812,0.014090,-0.026776,0.039942,-0.005488,0.024574,0.040644,-0.002624,-0.019026,0.030871,0.001651,0.048458,0.020143,0.016080,0.003049,-0.005373,0.035529,-0.006377,-0.054240,-0.025262,0.031697,-0.025371,-0.031245,-0.047116,0.006485,0.040893,0.061416,0.052959,0.010121,0.011048,0.025145,-0.016586,-0.073969,0.027915,0.019697,-0.006257,0.013694,0.023280,-0.062211,0.029284,0.034503,0.013507,0.034499,-0.012182,0.054146,-0.009517,-0.007709,0.051685,-0.076897,-0.015533,-0.069879,0.012677,0.005013,0.006007,-0.034246,-0.003197,0.030445,-0.120636,0.007714,0.018150,-0.029181,-0.022362,0.039088,0.031402,-0.000792,0.043119,-0.004630,-0.034260,0.033602,0.028992,-0.024769,0.019235,0.001169,-0.015985,0.032460,0.061710,0.012225,0.001660,-0.018542,-0.031158,0.077643,-0.028887,0.021653,0.106552,-0.012516,0.050913,0.007326,0.004612,0.035213,-0.004917,0.029854,-0.024553,0.015198,0.025744,-0.042961,0.003901,0.011646,-0.030726,0.042360,0.016680,0.002992,-0.070071,0.043003,-0.001542,0.051572,0.076484,0.001496
friulano,-0.019264,0.021812,0.053938,-0.044557,0.049520,0.000049,0.016620,0.012440,-0.005005,0.027881,-0.012372,0.041214,-0.003853,-0.006106,0.043182,0.049259,0.083913,-0.025948,-0.019083,0.046323,0.059803,0.062058,-0.044795,0.015562,-0.189769,0.007600,0.000353,-0.006139,0.012871,-0.008154,0.028475,0.010333,0.016477,-0.010892,0.017794,-0.005721,-0.030619,-0.009072,-0.033969,0.054898,0.003146,-0.005702,0.008564,0.047856,0.056555,0.025458,-0.027671,-0.011589,0.004191,0.015607,0.029472,0.005333,-0.007610,0.045256,0.108827,-0.075993,0.095106,-0.013248,0.034476,0.020357,-0.012306,-0.054805,0.056435,-0.008317,0.010964,-0.010147,0.022931,0.004464,-0.007486,0.024367,-0.019625,-0.001231,-0.001197,-0.045015,0.012872,-0.017588,0.000885,-0.002400,0.033840,-0.028161,-0.007210,0.004268,-0.029619,-0.004198,-0.017060,0.037028,-0.031600,0.030148,-0.017703,-0.000203,0.011792,0.020169,0.031354,-0.028859,0.004264,-0.022269,-0.007313,0.010157,-0.037060,0.078442,0.038813,-0.001237,0.033012,-0.007851,-0.089730,0.008013,-0.043147,0.015631,-0.064360,-0.011791,-0.059538,0.028996,0.010728,0.091958,0.022568,0.040470,-0.003427,0.025239,0.003363,0.030207,-0.019701,0.001865,-0.009709,0.019263,0.033594,0.013818,0.038715,-0.029502,0.020392,0.018326,-0.015924,0.112640,-0.014680,-0.003609,0.046582,0.027284,-0.017204,0.038261,0.037552,-0.003338,-0.001293,0.024015,0.012611,0.044840,-0.002663,-0.028628,-0.022540,0.051216,-0.047410,0.055400,0.009952,-0.017146,0.072344,-0.001987,0.012501,0.029865,0.048678,-0.022589,0.027052,-0.009223,0.009714,-0.000652,0.011853,0.067811,-0.040769,0.085669,0.084074,-0.042676,0.187360,-0.012093,-0.078374,-0.001161,0.012029,-0.008499,0.000778,0.007554,0.044860,-0.014311,-0.023081,-0.003363,0.026380,-0.009351,0.002390,0.012479,-0.037833,0.026083,0.014386,-0.004960,-0.012142,-0.051183,0.023744,-0.002552,-0.034813,-0.011531,-0.003792,-0.001384,0.066645,-0.000107,-0.025696,0.012508,0.032828,0.040046,0.045839,-0.046081,-0.008934,-0.023214,0.031738,0.030602,-0.008630,0.049501,-0.041177,-0.029921,0.052439,-0.007704,-0.017634,-0.049215,-0.026138,0.114803,0.029681,0.021339,0.054728,0.000847,0.043275,0.022924,0.008256,-0.013614,0.026407,-0.011766,0.054998,0.012602,-0.009722,-0.005211,-0.024421,0.038323,-0.000355,0.029906,-0.028915,0.013671,-0.073657,-0.000312,0.026188,0.029226,-0.029310,-0.003944,0.036991,0.063374,-0.025211,0.076189,-0.008366,-0.007451,0.006214,-0.032228,-0.060272,0.047576,0.030003,0.027544,0.031858,-0.028974,-0.026804,0.010835,0.037161,0.032489,0.031902,0.035716,0.003397,-0.016148,-0.017273,-0.032613,0.016763,0.017411,-0.020821,-0.016004,0.000884,0.035571,0.031307,0.089300,0.056567,-0.017161,-0.012922,0.017049,0.028426,-0.026293,0.002748,0.050719,0.000287,-0.042943,0.029011,0.009827,0.031585,-0.043251,-0.011799,-0.025493,-0.011351,0.033696,0.015013,-0.011108,-0.013203,-0.040464,-0.017278,0.007912,0.041533,0.001436,0.021199,0.012884,-0.021593,0.060090,-0.040484,0.005910,0.031071,0.050541,0.007300,0.001172,0.025758,-0.029378,-0.008918,0.037033,0.020999,0.020861,0.025247,0.085267,0.056460,0.030828,-0.000078,0.004517,0.021213,-0.026958,0.010734,-0.030477,0.051213,-0.025074,0.035906,0.023118,-0.040418,0.025515,-0.035573,0.001651,-0.030153,0.053912,-0.027377,-0.010197,0.013605,0.043006,0.011185,0.005250,0.043121,-0.009240,0.022210,-0.019973,0.025160,-0.025843,0.028525,0.012702,0.003400,-0.020100,0.043417,-0.010061,-0.024293,-0.065821,-0.047714,-0.019685,0.065948,-0.020219,0.026486,0.015662,-0.034869,0.000324,-0.028053,-0.015458,-0.007188,-0.032957,0.013578,0.011468,-0.007780,-0.016434,-0.063065,0.025761,-0.014999,-0.023295,0.009832,0.011237,0.030076,-0.002073,-0.004506,0.007656,0.003893,0.046285,-0.012385,0.032387,0.044554,0.001588,0.012497,-0.014293,0.054100,0.021014,0.012618,-0.109190,-0.050403,0.108385,0.035606,-0.005903,-0.000964,0.034196,-0.022561,0.014333,0.014013,-0.045573,0.039279,0.020318,0.021727,0.024662,-0.000673,0.002842,-0.025403,0.074002,0.015985,0.011277,-0.007657,0.012339,0.032871,0.010225,0.007445,0.045529,0.014916,0.015540,0.018297,0.042283,0.004209,0.013215,0.020919,0.012866,0.041196,0.035342,0.008421,0.048742,0.054546,-0.027505,-0.022801,0.006041,-0.010106,0.034212,0.035804,-0.020656,-0.006253,0.040211,-0.006583,0.032496,0.003440,-0.032904,-0.014569,-0.013592,0.028116,0.081769,0.057901,-0.002411,-0.016112,-0.020909,-0.022327,-0.010308,0.024872,0.029836,-0.007929,0.019086,-0.046503,0.024213,-0.018016,0.001801,0.024809,-0.000597,0.056333,-0.005317,0.041964,0.012538,-0.051808,-0.013421,0.016324,0.032181,0.026037,0.013404,-0.027024,0.070151,0.083950,0.025330,-0.001633,-0.016827,-0.020400,0.021571,-0.036388,0.029828,0.009891,0.002372,-0.014885,0.061044,0.068247,-0.041127,0.004042,0.021641,0.001318,-0.013146,-0.017481,-0.009269,0.027760,0.030376,-0.030254,0.001259,-0.002970,0.010121,0.010494,0.016125,-0.018505,0.024152,0.011356,0.007124,-0.002001,0.006020,-0.101986,0.035395,0.029092,-0.042811,0.000489,-0.002949,0.002645,0.013616,0.054946,-0.028313,-0.020047,0.016054,0.041954,0.029623,-0.044896,0.008896,0.010876,0.009473,0.014256,0.006289,-0.026618,-0.025034,0.008325,-0.049622,0.110737,0.041790,-0.019405,-0.015288,-0.030031,-0.001573,-0.024983,-0.005170,0.070129,0.001372,-0.030060,-0.034161,-0.061781,-0.017955,-0.014112,-0.047220,0.001866,0.031831,0.031030,0.000132,0.080668,-0.024625,-0.007493,0.078055,0.030795,-0.007605,-0.035998,0.038261,-0.009973,-0.029037,-0.031091,0.005287,-0.026080,0.013482,0.061669,0.019752,0.023682,-0.015902,0.017099,-0.004968,0.042682,-0.019831,0.065518,0.012200,0.032584,-0.019173,0.019385,0.021681,-0.019175,0.054815,0.030455,0.032134,-0.012556,0.009039,0.036911,-0.008038,-0.003330,-0.010303,0.006597,0.028866,0.014630,-0.016079,0.031107,-0.027247,0.051245,0.009438,0.021032,0.000712,-0.015019,0.260207,-0.047055,0.022393,0.017915,0.022748,0.026730,-0.007337,0.003117,0.038979,-0.001969,0.074186,0.006456,0.028531,-0.027431,-0.004010,-0.032232,-0.032172,-0.021922,0.015870,-0.053945,0.018728,0.037274,0.017113,0.012306,-0.029452,-0.041933,0.018769,0.003648,-0.015552,0.034044,0.017994,-0.000509,0.007338,0.009681,0.024025,0.047899,0.015018,0.002301,0.006081,-0.005905,-0.038545,-0.032093,-0.005456,0.035585,0.000715,0.069660,-0.027706,0.023579,-0.012064,-0.071840,-0.021888,0.019840,0.029055,-0.020951,-0.027987,-0.009152,-0.025943,0.037769,-0.013341,0.006429,0.042860,-0.012729,-0.015217,0.029546,-0.000470,0.050623,0.024872,0.013851,-0.004825,-0.020732,0.054722,-0.005726,-0.056031,-0.019665,0.032866,-0.038126,-0.038472,-0.034896,0.011722,0.047957,0.070835,0.070517,0.010288,0.007073,0.031959,-0.008148,-0.068087,0.025612,0.018633,0.003597,0.033855,0.026762,-0.068984,0.030605,0.034966,0.016323,0.040768,-0.020088,0.057766,-0.023156,-0.003878,0.033348,-0.084497,-0.023063,-0.072505,0.005497,0.009274,0.004579,-0.021836,0.003591,0.059327,-0.109247,-0.000505,0.028463,-0.024679,-0.026360,0.028123,0.017847,-0.005235,0.032354,0.008425,-0.024240,0.028846,0.019929,-0.026379,0.020735,-0.000282,-0.017358,0.037377,0.037263,0.006879,-0.012173,-0.025823,-0.019858,0.082227,-0.027085,0.024213,0.094517,-0.022018,0.046367,-0.026100,0.006992,0.032557,-0.003001,0.037663,-0.014308,-0.002092,0.032632,-0.039954,0.001854,0.008923,-0.032288,0.057635,0.022419,0.000445,-0.074138,0.024835,-0.010932,0.063166,0.070722,0.009633
ladino,-0.014881,0.017867,0.045264,-0.033688,0.048271,-0.002446,0.059642,0.026428,-0.001397,0.024142,-0.014466,0.053726,-0.010335,0.005499,0.033544,0.032714,0.067178,-0.023099,-0.023563,0.046855,0.043978,0.044927,-0.035726,0.021840,-0.185893,0.011946,0.013409,-0.013002,0.026360,-0.006249,0.016402,0.025700,0.015577,-0.011600,0.011223,0.001912,-0.044576,-0.007487,-0.033795,0.066165,0.008375,-0.012990,-0.022317,0.065070,0.068392,0.023113,-0.014167,-0.012653,-0.000703,0.025589,0.026833,0.008796,-0.004684,0.031345,0.114001,-0.067916,0.100466,-0.020905,0.025560,0.010773,-0.017719,-0.060926,0.045790,-0.007469,0.012094,-0.006550,0.024890,0.016937,-0.003662,0.027703,-0.022014,-0.002544,0.006060,-0.042700,0.034623,-0.017547,0.001929,-0.009182,0.029735,-0.021130,-0.004320,0.009581,-0.011037,0.004262,-0.016625,0.040346,-0.042868,0.019584,-0.007455,0.002732,0.020112,0.015178,0.021136,-0.032368,0.020917,-0.021892,-0.002488,0.001501,-0.041274,0.058729,0.015883,-0.001679,0.026924,-0.009143,-0.095370,0.021214,-0.044999,0.022775,-0.065494,0.000115,-0.061718,0.026242,0.018869,0.095386,0.012267,0.040944,0.000855,0.027755,0.006459,0.021301,-0.020894,-0.002990,-0.019050,0.016282,0.034207,0.013615,0.022673,-0.020745,0.007478,0.003558,-0.026783,0.097975,-0.007601,-0.014766,0.048311,0.026738,-0.016776,0.024415,0.036407,-0.013931,-0.001877,0.022300,0.006899,0.029163,0.000758,-0.014717,-0.021476,0.047356,-0.046156,0.050706,0.016629,0.000661,0.067966,0.010244,0.010950,0.044017,0.053855,-0.010021,0.062921,-0.009947,0.004626,-0.022076,0.012250,0.059043,-0.039839,0.078534,0.096920,-0.052887,0.193732,-0.009226,-0.087400,0.010708,-0.009930,-0.001969,0.028975,0.021667,0.032058,-0.018337,-0.025417,-0.012696,0.011496,-0.022019,0.010860,0.028034,-0.025288,0.017732,0.019619,0.000583,-0.023499,-0.068158,0.025266,-0.004294,-0.022056,-0.008204,-0.000135,-0.006838,0.060655,-0.004987,-0.008076,0.021504,0.038592,0.038616,0.045331,-0.026534,-0.031067,-0.026698,0.030132,0.038653,-0.010458,0.051027,-0.033226,-0.020407,0.056655,-0.018453,-0.031841,-0.049310,-0.009961,0.096129,0.026933,0.020748,0.065135,-0.004548,0.025787,0.014730,0.012650,-0.003759,0.031873,-0.008305,0.046348,0.018909,0.003842,0.002289,-0.024903,0.034961,-0.003309,0.032527,-0.030219,-0.006989,-0.075958,0.009598,0.018465,0.037326,-0.020753,0.003147,0.019859,0.053092,-0.012929,0.095146,-0.003622,-0.000001,-0.002692,-0.034749,-0.061473,0.053191,0.023385,0.033963,0.027013,-0.031153,-0.043135,0.014392,0.036065,0.022698,0.026875,0.026688,0.013467,-0.014385,-0.008469,-0.028557,0.015544,0.013026,-0.034041,-0.034062,-0.002235,0.048093,0.025908,0.110566,0.056555,-0.018887,-0.018041,0.029117,0.016579,-0.035781,0.013672,0.052143,0.010033,-0.039461,0.019468,0.013142,0.031661,-0.030997,-0.005545,-0.021464,-0.004620,0.044102,0.008556,-0.010044,-0.009002,-0.043806,-0.012398,0.004380,0.044265,-0.000657,0.024043,-0.004644,-0.009981,0.050240,-0.035856,0.005317,0.031223,0.059318,0.009555,0.026783,0.030835,-0.028697,-0.026423,0.047145,0.018231,0.012346,0.023712,0.090364,0.070431,0.027131,-0.000134,-0.000562,0.001544,-0.034368,0.015058,-0.026242,0.056186,-0.005215,0.031902,0.009569,-0.041398,0.019851,-0.014406,0.009374,-0.046007,0.048177,-0.030272,0.018797,0.027788,0.036460,0.012791,-0.008444,0.022649,-0.011088,0.008312,-0.006606,0.005436,-0.021103,0.044498,0.011752,0.002327,-0.015411,0.039951,-0.006665,-0.010113,-0.059871,-0.044752,-0.023187,0.062467,-0.016404,0.025045,0.013244,-0.037983,0.008286,-0.042431,-0.005724,-0.006323,-0.029198,0.025219,0.017247,-0.026309,-0.013416,-0.068314,0.043997,-0.012637,-0.012213,0.011843,0.018773,0.031339,-0.010866,0.000515,0.014910,0.005236,0.050701,-0.017797,0.037129,0.043202,0.008608,0.023400,-0.017607,0.055290,0.045268,0.034932,-0.095266,-0.048164,0.101646,0.038817,-0.008323,0.009936,0.029231,-0.019824,0.013031,0.011872,-0.043645,0.032895,0.010871,0.026735,0.022217,0.000612,-0.000530,-0.028436,0.063976,0.014359,0.013294,0.002460,0.010632,0.028486,0.016898,0.024309,0.043639,0.009341,0.014391,0.008717,0.028742,-0.005557,0.001078,0.022094,0.004126,0.051643,0.035210,0.010864,0.034752,0.059784,-0.033588,-0.030292,0.008270,-0.007507,0.039242,0.008250,-0.004536,-0.014174,0.036009,0.016742,0.027460,0.006167,-0.015026,0.002873,-0.009896,0.003987,0.072589,0.060582,0.002575,-0.005674,-0.038122,-0.022351,0.000806,0.032662,0.042119,0.006931,0.017545,-0.046512,0.020593,-0.015558,-0.006882,0.013874,-0.005909,0.067784,-0.016834,0.022923,0.012509,-0.050202,-0.003421,0.017683,0.044297,0.021595,0.041498,-0.024686,0.051272,0.075618,0.035205,0.005249,-0.014979,-0.023822,0.029248,-0.045630,0.031395,0.016130,-0.002501,-0.012593,0.041359,0.093757,-0.044018,0.001188,0.036744,0.002106,-0.019848,-0.003170,-0.008862,0.022343,0.031956,-0.035077,0.015307,-0.004834,0.010751,0.007243,0.031406,-0.001050,-0.007796,0.014320,0.003490,-0.007220,0.006496,-0.106241,0.040102,0.040095,-0.039675,-0.018891,-0.000003,0.004229,-0.000746,0.019330,-0.005828,-0.015080,0.017254,0.031654,0.024233,-0.042102,0.013726,0.016055,-0.003561,0.018526,0.011152,-0.029226,-0.029906,0.008610,-0.052164,0.107453,0.030006,-0.005234,0.008785,-0.033874,0.004441,-0.026409,-0.019468,0.073898,0.014084,-0.022706,-0.041856,-0.052973,-0.022731,-0.011284,-0.044875,-0.004393,0.028801,0.009314,-0.000680,0.050907,-0.018027,-0.001394,0.060631,0.029333,0.008600,-0.032762,0.029556,-0.019564,-0.028158,-0.030102,0.015090,-0.024953,0.006074,0.057785,0.021018,0.009142,-0.012572,0.020369,-0.015059,0.023261,-0.018312,0.064353,0.027942,0.006823,-0.013552,0.019019,0.038472,-0.014826,0.051957,0.032300,0.004662,-0.013644,0.001054,0.014143,-0.004008,0.000376,-0.023725,0.009082,0.011212,0.014310,-0.012580,0.021785,-0.030419,0.042777,0.009477,0.023206,-0.002065,-0.004786,0.297579,-0.015923,0.029261,0.009384,0.020820,0.021139,-0.004663,0.004865,0.023699,0.013260,0.093934,0.028853,0.031000,-0.037155,-0.005108,-0.030413,-0.029009,-0.019151,-0.007834,-0.033007,0.010368,0.041611,0.010211,-0.005997,-0.023293,-0.042672,-0.005322,0.006669,-0.010957,0.030833,0.039197,-0.008486,0.010333,-0.004125,0.024367,0.053395,0.023150,-0.005940,-0.010804,-0.006771,-0.031933,-0.040036,-0.007241,0.021251,0.018465,0.057086,-0.034230,0.019866,-0.007434,-0.081485,-0.030178,0.021133,0.029557,-0.038880,-0.036341,0.006787,-0.030014,0.025224,-0.020139,0.005436,0.050719,0.003398,-0.008638,0.028035,-0.005044,0.046327,0.016646,0.017941,-0.004067,0.000983,0.047364,-0.000283,-0.044333,-0.007801,0.033569,-0.023914,-0.037783,-0.049763,0.005488,0.042400,0.053432,0.054566,0.006128,0.014126,0.023676,-0.015323,-0.061184,0.026554,0.026830,0.019067,0.020045,0.020825,-0.047825,0.035001,0.033560,0.029307,0.035966,-0.027937,0.052378,-0.011996,-0.004815,0.048790,-0.080649,-0.003509,-0.076364,0.000067,0.014658,0.004345,-0.024855,-0.001450,0.038844,-0.119678,0.003383,0.029416,-0.020516,-0.022831,0.012181,0.032904,0.017390,0.020265,-0.003126,-0.040112,0.017298,0.012243,-0.020349,0.011905,-0.001185,-0.015999,0.046121,0.058011,0.011542,-0.013248,-0.030993,-0.012297,0.075045,-0.014920,0.022207,0.114679,-0.011729,0.049315,-0.043704,-0.007139,0.038125,-0.001870,0.018807,-0.013752,0.002392,0.035892,-0.037267,0.002680,0.012986,-0.027311,0.038995,0.022081,0.015003,-0.070607,0.032747,-0.003238,0.058989,0.068875,0.002143
italiano,-0.011787,0.022319,0.077933,-0.042730,0.047141,0.005625,0.036468,0.022805,0.008438,0.026694,0.009136,0.044549,-0.002364,-0.001403,0.045742,0.046585,0.068246,-0.039332,-0.011055,0.055995,0.053684,0.047060,-0.043903,0.019333,-0.198100,-0.001643,-0.011047,0.001084,0.006199,-0.019702,0.040296,0.007289,0.014133,-0.011184,0.020199,0.003680,-0.015463,-0.020525,-0.037850,0.044982,0.002215,-0.016267,-0.004414,0.090252,0.051829,0.035935,-0.019058,-0.011235,-0.010613,0.028794,0.025716,0.005109,-0.006624,0.030921,0.107435,-0.051674,0.058789,-0.033279,0.017342,0.013329,-0.016354,-0.054503,0.041236,-0.008505,0.002682,-0.002686,0.011879,0.008459,-0.014322,0.022527,-0.019183,-0.011718,-0.006030,-0.041230,0.011437,-0.008221,-0.007998,-0.021890,0.038835,-0.034322,-0.013991,0.009993,-0.029493,0.000904,-0.022683,0.048348,-0.032038,0.038680,0.002586,0.007885,-0.002905,0.012862,0.036675,-0.020214,0.017402,-0.020186,0.007524,0.013496,-0.021365,0.068540,0.025487,0.012531,0.013538,-0.018080,-0.093819,-0.001045,-0.036143,-0.001815,-0.070739,-0.022051,-0.049306,0.037880,0.010918,0.092482,0.015742,0.032492,-0.000854,0.020439,-0.010918,0.019851,-0.014196,0.001782,-0.015839,0.012803,0.031103,0.018328,0.033918,-0.019261,0.010109,0.006346,-0.027381,0.098350,-0.018807,0.015665,0.025976,0.022874,-0.017406,0.009753,0.038247,-0.000655,-0.004806,0.049582,0.034818,0.037633,0.003274,-0.026066,-0.031300,0.055201,-0.049546,0.056402,0.016343,-0.002662,0.059908,-0.007095,0.010260,0.043400,0.045181,-0.012827,0.032942,-0.005269,0.037270,0.018260,0.023247,0.028766,-0.029161,0.079841,0.074673,-0.042270,0.129438,-0.009791,-0.073474,0.006996,0.011668,0.013337,0.000607,-0.020306,0.012500,0.005034,-0.007027,-0.007607,0.020175,-0.021312,0.000652,-0.004791,-0.036945,0.032361,0.011970,-0.009731,-0.021461,-0.030327,0.018531,0.000006,-0.018874,-0.015995,0.002850,0.008332,0.064587,-0.007575,-0.032393,-0.001221,0.031752,0.044266,0.054914,-0.025066,-0.047050,-0.021417,0.026243,0.036721,-0.015771,0.045130,-0.036338,-0.034311,0.040916,-0.017243,-0.013833,-0.049043,-0.019341,0.107807,0.013103,0.057238,0.060175,-0.001718,0.054399,0.027452,0.002380,-0.007082,0.025280,-0.011077,0.039878,0.021885,-0.006680,-0.001688,-0.009918,0.040362,0.008209,0.035095,-0.030684,0.015680,-0.082076,0.008518,0.024283,0.030597,-0.014623,-0.000993,0.029654,0.065299,-0.029215,0.077779,-0.006642,-0.014926,0.027064,-0.025182,-0.058529,0.062503,0.016090,0.025564,0.002760,-0.023171,-0.028473,0.019342,0.040930,0.010012,0.029422,0.030260,0.003479,-0.008094,-0.024455,-0.025974,0.002299,0.015569,-0.027680,-0.014560,0.013191,0.042838,0.051654,0.081627,0.068583,-0.001174,-0.014277,0.028410,0.041696,-0.020434,0.015135,0.043544,-0.006779,-0.029085,0.028110,-0.006126,0.014285,-0.039411,-0.000844,-0.045113,-0.014284,0.037815,0.013614,-0.005077,-0.010298,-0.018824,-0.007111,-0.008216,0.038369,0.003273,0.025544,0.013674,-0.020626,0.038921,-0.054801,-0.002118,0.041033,0.052262,0.014655,0.019404,0.032897,-0.040288,0.000344,0.032980,-0.004225,0.017264,0.029778,0.070856,0.032520,0.025422,-0.003939,-0.010901,0.013839,-0.019668,0.021060,-0.013918,0.041173,-0.026244,0.038948,0.023437,-0.039293,0.029170,-0.022737,-0.008361,-0.033255,0.046926,-0.038088,-0.023634,0.003858,0.039851,0.023830,-0.024389,0.048038,-0.001584,0.006446,-0.022146,0.031498,-0.021985,0.049931,0.017005,0.014508,-0.016753,0.036601,0.000219,-0.012499,-0.066367,-0.049709,-0.009778,0.070337,-0.008830,0.025821,0.012624,-0.049678,-0.000376,-0.026364,-0.012736,0.018547,-0.043880,0.001411,0.004017,-0.009968,-0.031154,-0.057484,0.003428,-0.015708,0.013021,0.017807,0.016208,0.036564,0.002875,0.005174,0.014434,0.006436,0.033953,-0.011700,0.019519,0.044930,0.004141,0.014409,-0.000001,0.033968,0.037693,0.004545,-0.136766,-0.055188,0.093692,0.033019,-0.028838,-0.003627,0.026117,-0.025129,-0.007311,0.001612,-0.040326,0.051758,0.024552,0.039031,0.030462,0.003410,0.012288,-0.029420,0.066018,0.016344,0.010971,-0.009412,-0.001760,0.031343,0.017023,0.015785,0.035638,0.018052,0.008397,0.015820,0.037942,-0.017203,0.022007,0.007263,0.007013,0.059595,0.023439,0.013589,0.073158,0.074012,-0.019969,-0.034525,0.007600,-0.006414,0.027370,0.022435,-0.025096,-0.010835,0.042007,0.002488,0.044733,0.011021,-0.012855,-0.009741,0.001954,0.044814,0.073850,0.050644,-0.013080,0.010203,-0.035554,-0.021328,-0.020346,0.023681,0.031842,-0.006768,0.020499,-0.041191,0.012926,-0.013600,-0.006900,0.029824,-0.011374,0.037094,-0.010024,0.020162,0.034162,-0.055032,-0.006794,0.009683,0.028473,0.030225,0.003900,-0.035367,0.046573,0.081546,0.030017,0.004673,-0.026945,-0.017715,0.017855,-0.026116,0.044189,0.011096,0.000810,-0.023010,0.060997,0.063700,-0.043262,0.007977,0.033811,0.001838,-0.003071,-0.016896,-0.003838,0.027381,0.028867,-0.042395,0.007537,-0.033375,0.016884,-0.004076,0.040814,-0.013946,0.020336,0.000638,0.009424,0.002366,0.010628,-0.095983,0.023251,0.027390,-0.073848,-0.005563,-0.004726,0.011477,0.005797,0.032956,-0.003153,-0.012312,0.012653,0.054088,0.029914,-0.043996,0.012658,0.015053,-0.004060,0.024693,0.008938,-0.032816,-0.027569,0.012148,-0.035276,0.112642,0.031600,-0.024803,-0.000670,-0.015797,0.005788,-0.036867,-0.005145,0.053992,-0.018698,-0.032153,-0.045686,-0.049041,-0.019492,-0.001000,-0.044584,0.011629,0.041945,0.024283,-0.000004,0.074733,-0.027163,-0.018863,0.071778,0.040834,0.001038,-0.013722,0.025286,-0.013806,-0.022990,-0.051892,-0.000970,-0.014167,0.009046,0.077839,0.029524,0.006653,-0.006476,0.003490,0.000740,0.053240,-0.017819,0.067277,0.011370,0.023630,-0.032891,0.025083,0.036231,-0.011073,0.066957,0.023678,0.030508,-0.010303,0.007219,0.033519,-0.013541,0.003310,-0.005252,0.002164,0.017139,0.007935,-0.021647,0.020721,-0.029102,0.019538,0.011779,-0.007437,0.042526,-0.012580,0.292881,-0.054851,0.032115,0.005080,0.033266,0.029227,-0.001040,-0.011933,0.041720,-0.029198,0.085128,0.013069,0.035623,0.002865,-0.011012,-0.035120,-0.035938,-0.030508,0.019029,-0.054157,0.029910,0.032856,0.023370,0.015777,-0.028339,-0.041527,0.014883,0.002709,-0.004713,0.014891,0.025717,-0.004525,-0.000233,0.006993,-0.000247,0.038032,0.015102,0.007145,0.015077,0.001930,-0.028355,-0.034510,-0.010659,0.034016,0.026071,0.067634,-0.035805,0.027414,0.008313,-0.086141,-0.023417,0.009472,0.032813,-0.021376,-0.023355,0.004507,-0.034008,0.033567,-0.020495,0.007765,0.043879,-0.010603,-0.030158,0.027894,0.010753,0.047083,0.018271,0.017789,0.008056,0.005201,0.030427,-0.008984,-0.044800,-0.022956,0.034839,-0.034815,-0.025708,-0.034427,0.008125,0.026987,0.062151,0.077797,-0.012263,0.015743,0.025004,-0.012181,-0.086276,0.037800,0.019428,0.008207,0.009552,-0.000585,-0.059088,0.005607,0.025448,0.023775,0.044876,-0.020248,0.069398,-0.016692,-0.001474,0.043961,-0.100012,-0.018869,-0.065050,-0.004603,0.016539,0.010345,-0.034654,-0.000048,0.027905,-0.130320,-0.025675,0.018163,-0.013610,-0.023488,0.032362,0.020291,0.016200,0.022090,0.008385,-0.011513,0.020967,0.008946,-0.026799,0.018767,0.009368,-0.016905,0.011733,0.044797,0.007561,0.006354,-0.027879,-0.027890,0.091440,-0.026073,0.025184,0.105584,-0.016198,0.060229,-0.003795,0.018233,0.037495,-0.015853,0.037319,-0.017530,0.007358,0.035064,-0.050635,0.006585,0.011922,-0.045099,0.027785,0.042572,0.000949,-0.070092,0.039488,-0.024362,0.054139,0.071087,-0.003225
spagnolo,-0.011357,0.023274,0.081797,-0.046031,0.056043,0.007002,0.035919,0.030013,0.011285,0.031108,0.005201,0.048047,-0.006163,0.004004,0.053398,0.037164,0.067773,-0.056763,-0.006452,0.054579,0.047901,0.035934,-0.044411,0.014678,-0.193825,0.007487,-0.011436,-0.017230,-0.000460,-0.026280,0.040030,0.004617,0.026397,-0.006225,0.021234,0.013371,-0.015121,-0.016790,-0.033662,0.065394,0.015704,-0.030722,0.016185,0.077639,0.049682,0.034543,-0.017164,-0.012323,-0.007489,0.024652,0.025429,0.005529,-0.005168,0.034640,0.112630,-0.046780,0.072198,-0.018929,0.015266,0.013352,-0.020290,-0.053141,0.029226,-0.007145,0.005864,-0.002102,0.019458,0.010061,-0.009458,0.018505,-0.024532,-0.015411,-0.007117,-0.043797,0.013319,-0.017034,-0.003345,-0.029212,0.037941,-0.036774,-0.016700,0.002014,-0.022060,0.006294,-0.018927,0.039537,-0.032060,0.046985,-0.003694,0.004083,-0.007877,0.026864,0.046595,-0.029419,0.019750,-0.021573,0.002772,0.015232,-0.021694,0.060270,0.026011,0.014505,0.009612,-0.011021,-0.096689,0.003047,-0.042190,-0.003909,-0.072426,-0.010480,-0.057688,0.026474,0.008404,0.086744,0.007599,0.024671,-0.005587,0.029489,-0.002048,0.015535,-0.015881,0.002010,-0.010668,0.007555,0.025180,0.017174,0.030603,-0.023886,0.024865,-0.000286,-0.029860,0.084745,-0.009787,0.007615,0.031437,0.027911,-0.017490,0.013675,0.040705,-0.001785,-0.015585,0.042158,0.026850,0.017332,-0.000629,-0.029158,-0.029746,0.057188,-0.051865,0.052081,0.015386,0.002517,0.062855,-0.020421,-0.007551,0.044693,0.052065,-0.012471,0.028975,0.008604,0.019776,0.019911,0.029760,0.033151,-0.038112,0.070119,0.080921,-0.038737,0.137565,-0.015309,-0.075719,0.015313,0.006920,0.017196,0.011532,-0.009594,0.016757,-0.000512,0.001759,-0.004606,0.019140,-0.021732,0.011400,-0.002494,-0.030892,0.035050,0.011147,-0.002362,-0.029008,-0.048476,0.023454,-0.006790,-0.015464,-0.015977,0.000207,0.014841,0.068263,-0.010159,-0.034893,0.008912,0.067239,0.045015,0.074392,-0.023228,-0.024825,-0.021063,0.024336,0.049002,-0.016392,0.030429,-0.036354,-0.035208,0.040232,-0.012874,-0.012911,-0.056494,-0.013431,0.108869,0.008280,0.047279,0.054566,-0.006991,0.050646,0.011802,0.003319,-0.013510,0.030479,-0.014063,0.030225,0.025862,-0.003669,0.007572,-0.005848,0.024178,0.021018,0.040595,-0.033312,0.011806,-0.077848,0.013798,0.030145,0.031811,-0.018965,0.003012,0.026856,0.057989,-0.020367,0.075256,-0.002579,-0.016496,0.023724,-0.028064,-0.057966,0.056927,0.021093,0.032804,-0.008860,-0.030201,-0.022090,0.018592,0.033829,0.028046,0.022189,0.025884,0.006065,-0.010990,-0.020131,-0.023022,0.004089,0.018876,-0.021683,-0.016270,0.014163,0.031460,0.015884,0.091541,0.073903,-0.001540,-0.012630,0.036424,0.036776,-0.030997,0.017417,0.046265,-0.008009,-0.036360,0.025471,0.008550,0.013023,-0.036052,-0.002461,-0.037822,-0.018210,0.040912,0.023947,-0.011008,-0.012751,-0.031756,-0.005063,-0.007079,0.043058,0.001741,0.029218,0.028029,-0.016004,0.026595,-0.047694,-0.010263,0.031300,0.043735,0.012500,0.013896,0.039989,-0.035524,-0.005243,0.030198,-0.011910,0.009830,0.037589,0.067085,0.053938,0.029950,-0.002421,-0.019427,0.014931,-0.024642,0.014884,-0.023358,0.049981,-0.010955,0.037864,0.014831,-0.037020,0.031906,-0.011739,-0.006223,-0.037802,0.045103,-0.050231,-0.018304,0.002655,0.037978,0.028929,-0.022172,0.038827,-0.007694,0.001743,-0.017847,0.026577,-0.020178,0.060225,0.014971,0.003270,-0.014528,0.026015,0.014518,-0.013315,-0.064829,-0.052454,-0.007467,0.026346,-0.009440,0.011566,0.019606,-0.055779,0.007946,-0.028678,-0.001579,0.012483,-0.041739,0.002905,0.004315,-0.005874,-0.017875,-0.062292,0.007762,-0.018802,0.004552,0.012361,-0.002868,0.044348,0.006070,0.014273,0.018572,-0.004117,0.030388,-0.008407,0.020691,0.033331,0.008065,0.022771,0.003012,0.045323,0.036628,0.000112,-0.141072,-0.053300,0.085194,0.029835,-0.027724,-0.006928,0.030078,-0.013794,-0.019593,-0.002882,-0.023590,0.054692,0.029282,0.017771,0.025882,0.006974,0.009952,-0.032951,0.082346,0.015653,0.009686,0.012522,-0.005167,0.038970,0.015908,0.018497,0.031193,0.021272,0.004461,0.010464,0.034266,-0.017325,0.022140,0.008829,-0.001188,0.057551,0.028889,0.013529,0.069784,0.071359,-0.015526,-0.027273,0.003726,-0.013825,0.044567,0.022039,-0.018945,-0.005153,0.051485,0.000918,0.034578,0.014166,-0.008746,0.005559,0.009257,0.040935,0.061952,0.052455,-0.010232,0.017299,-0.026543,-0.023634,-0.019490,0.023117,0.026429,-0.001155,0.019507,-0.047282,0.012378,-0.016763,-0.007759,0.005960,0.001087,0.047633,-0.003618,0.015380,0.032545,-0.056805,-0.005884,0.010000,0.018916,0.034806,0.019766,-0.026032,0.048940,0.075010,0.044678,0.016490,-0.041577,-0.020423,0.012465,-0.028678,0.047773,0.010927,-0.000181,-0.016863,0.055816,0.054865,-0.045073,0.009244,0.046278,0.006143,0.005165,-0.013203,-0.013243,0.034500,0.027908,-0.033832,0.017245,-0.026447,0.021592,-0.011740,0.036045,-0.003044,0.010147,0.005811,0.011984,0.006134,0.021132,-0.105466,0.047046,0.014979,-0.068953,-0.003148,-0.014556,0.022234,0.003244,0.011328,0.005089,-0.013523,0.008503,0.042933,0.028319,-0.043529,0.014085,0.019649,-0.009889,0.025350,0.003294,-0.029230,-0.024965,0.012191,-0.042620,0.114711,0.028304,-0.027942,0.013737,-0.019508,0.006396,-0.041824,-0.014567,0.058068,-0.014409,-0.037301,-0.046403,-0.035904,-0.016236,-0.002658,-0.036032,0.001355,0.050768,0.040460,-0.002260,0.068155,-0.026631,-0.027672,0.080583,0.035867,0.008350,-0.021356,0.028140,-0.026117,-0.000079,-0.055337,0.004148,-0.019308,0.017964,0.079309,0.020528,0.013154,-0.013982,-0.003958,0.000007,0.048169,-0.015539,0.056744,0.019484,0.019481,-0.033948,0.017495,0.025018,-0.009443,0.053944,0.027356,0.023065,-0.009034,0.010072,0.039321,-0.007595,0.001611,-0.023400,-0.007233,0.018537,0.009796,-0.018976,0.023117,-0.030582,0.025985,0.011359,-0.007927,0.037359,0.005268,0.305947,-0.045613,0.020252,0.020008,0.018538,0.025305,0.004811,-0.005313,0.038858,-0.024120,0.086450,0.017488,0.041435,-0.013359,-0.005951,-0.033099,-0.041039,-0.028954,0.022451,-0.050332,0.024396,0.043625,0.022647,0.002632,-0.029170,-0.039413,0.007244,0.000064,-0.000698,0.004493,0.028810,-0.016187,-0.005577,0.010622,0.010000,0.028195,-0.003386,0.013236,0.001119,-0.001776,-0.021163,-0.033132,-0.005485,0.023174,0.020475,0.066819,-0.034116,0.025183,0.002978,-0.086830,-0.015581,0.019232,0.020770,-0.011777,-0.029796,0.010994,-0.026426,0.024178,-0.011762,0.000137,0.057194,-0.003719,-0.030203,0.025134,0.010328,0.052211,0.021659,0.023888,0.001962,0.004810,0.038092,-0.004370,-0.042059,-0.020694,0.032847,-0.033702,-0.037017,-0.026919,0.010891,0.014977,0.050288,0.060409,-0.010712,0.015606,0.021623,-0.014144,-0.075818,0.043081,0.024918,0.014119,0.014633,0.000178,-0.060471,0.009420,0.027279,0.023181,0.039646,-0.018155,0.062752,-0.020754,-0.002237,0.053178,-0.101795,-0.016670,-0.064308,0.007804,0.020434,0.009515,-0.024542,-0.002074,0.029978,-0.134861,-0.018313,0.019357,-0.017530,-0.024103,0.020650,0.012583,0.035333,0.023301,-0.008000,-0.016613,0.016373,0.003907,-0.034281,0.022118,0.006887,-0.017422,0.023300,0.050447,0.007258,0.009827,-0.029896,-0.023177,0.073104,-0.029062,0.028379,0.110340,-0.015334,0.048853,-0.007958,0.009261,0.034582,-0.018205,0.026576,-0.017639,0.008863,0.038150,-0.048760,0.011728,0.010840,-0.046394,0.034754,0.026401,-0.004471,-0.068539,0.055828,-0.021705,0.050863,0.076150,-0.006002
francese,-0.015666,0.022006,0.071398,-0.041097,0.043437,0.003019,0.046707,0.013675,0.006728,0.027268,0.019828,0.048711,-0.004320,0.004935,0.039387,0.044265,0.075869,-0.054429,-0.007969,0.052053,0.048257,0.035994,-0.049897,0.007539,-0.196258,0.010638,-0.011247,-0.010444,-0.000231,-0.021064,0.037834,-0.003033,0.029932,-0.018450,0.027363,0.007045,-0.030936,-0.017957,-0.028159,0.043356,0.022192,-0.024318,0.016542,0.073802,0.051851,0.032842,-0.004839,-0.017262,0.009395,0.009415,0.033264,0.005945,-0.004194,0.035015,0.093668,-0.045620,0.069458,-0.030993,0.028884,0.012884,-0.014678,-0.050389,0.024872,-0.015403,0.008861,0.007529,0.026635,0.016218,-0.003920,0.014566,-0.026602,-0.022102,0.001209,-0.040364,0.017437,-0.022851,-0.013857,-0.016164,0.035244,-0.033554,-0.011460,-0.000021,-0.017857,0.000279,-0.015822,0.034658,-0.029442,0.059923,-0.003887,0.008031,-0.005655,0.021404,0.050046,-0.029592,0.006631,-0.034358,0.002491,0.021067,-0.022019,0.061088,0.024316,0.019725,0.000452,-0.023114,-0.099505,0.013540,-0.046607,0.002221,-0.078739,-0.019888,-0.058897,0.025615,0.003019,0.094812,-0.008258,0.026568,0.000745,0.046265,0.004142,0.021014,-0.010293,-0.011237,-0.010021,0.010498,0.020690,0.014193,0.026483,-0.030749,0.014666,0.003463,-0.026720,0.095874,-0.010150,0.001613,0.027814,0.034668,-0.026478,-0.000460,0.031929,0.000580,-0.014442,0.038639,0.025298,0.021558,0.003876,-0.020519,-0.024358,0.061803,-0.056897,0.041845,0.015005,-0.005085,0.071127,-0.004062,-0.012047,0.028402,0.054243,-0.010679,0.025200,0.013934,0.019348,0.012298,0.023605,0.043215,-0.036503,0.073927,0.083039,-0.041072,0.156141,-0.004617,-0.085061,0.016153,0.014413,0.009157,0.011848,-0.007687,0.030758,-0.008407,-0.006606,-0.012946,0.013175,-0.014814,0.010611,0.007303,-0.036106,0.028703,0.012635,-0.004604,-0.032135,-0.052456,0.038693,-0.000467,-0.016176,-0.014832,-0.001778,0.015726,0.072870,-0.004266,-0.022757,0.005596,0.044044,0.062415,0.072872,-0.030968,-0.020699,-0.020903,0.032369,0.042495,-0.011084,0.037231,-0.036826,-0.036177,0.036631,-0.013761,-0.016103,-0.053770,-0.013480,0.105238,0.004990,0.032720,0.051160,-0.006932,0.047952,0.016883,0.019042,-0.025100,0.023134,-0.015011,0.036732,0.018509,-0.004231,0.005495,-0.014196,0.026217,0.006548,0.032474,-0.034263,0.012404,-0.079259,0.019150,0.038637,0.038667,-0.026897,0.015099,0.028904,0.051401,-0.010817,0.082474,-0.002456,-0.009143,0.027038,-0.023150,-0.052483,0.067600,0.024496,0.025057,0.005412,-0.021042,-0.029425,0.017971,0.033559,0.019563,0.023143,0.026330,0.005158,-0.013938,-0.022843,-0.031689,0.001210,0.016458,-0.013385,-0.027154,0.016493,0.043697,0.004391,0.090208,0.070051,-0.007564,-0.010108,0.033125,0.033467,-0.026269,0.012034,0.046906,0.007019,-0.037688,0.037215,-0.002039,0.009289,-0.036113,-0.004637,-0.035591,-0.015574,0.038361,0.007815,-0.014951,0.000071,-0.041528,-0.003370,-0.004967,0.027805,0.002336,0.027388,0.023182,-0.018686,0.039193,-0.044275,-0.004821,0.029533,0.042794,0.011342,0.018435,0.037147,-0.033237,-0.004740,0.030164,-0.010963,0.018039,0.018833,0.093019,0.046730,0.019268,-0.000919,-0.016560,0.025139,-0.022758,0.021525,-0.027259,0.041517,-0.015261,0.035237,0.009347,-0.027614,0.032563,-0.005341,0.005296,-0.031243,0.047895,-0.035502,-0.027038,0.008085,0.045015,0.024613,-0.025312,0.038391,-0.006801,0.003772,-0.013658,0.015743,-0.020608,0.054434,0.011701,0.012607,-0.014124,0.033827,0.019923,-0.007378,-0.064772,-0.053884,-0.007867,0.013550,-0.016008,0.008766,0.024136,-0.046535,0.010590,-0.017077,-0.002363,0.012915,-0.042424,0.000857,0.006312,-0.009219,-0.002556,-0.059799,0.010672,-0.017771,0.003314,0.013294,0.005101,0.059114,0.005775,0.013587,0.018676,0.002830,0.022608,-0.013044,0.017394,0.036065,-0.000338,0.015059,0.000317,0.046807,0.034004,0.009526,-0.140614,-0.051924,0.086320,0.036063,-0.007989,0.004554,0.026918,-0.013535,-0.012376,0.002975,-0.039796,0.063380,0.037072,0.005344,0.025441,0.015787,0.001711,-0.034660,0.079150,0.016396,0.020823,0.013464,-0.004079,0.037171,0.005605,0.025378,0.030016,0.019291,0.001677,0.014065,0.038256,-0.006626,0.024788,0.011549,0.005248,0.070950,0.033463,0.009611,0.066690,0.052393,-0.021262,-0.031197,0.019811,-0.011003,0.040497,0.024863,-0.019164,-0.006901,0.052434,0.009758,0.025294,0.006932,-0.007306,0.004661,0.006470,0.040827,0.057109,0.045649,-0.007840,0.006123,-0.020271,-0.028665,-0.022927,0.034953,0.026501,0.004504,0.021464,-0.046693,0.017234,-0.014942,-0.002631,0.012377,0.002020,0.049188,0.006070,0.022714,0.029782,-0.053202,-0.011386,0.003593,0.027200,0.032071,-0.002231,-0.027454,0.062994,0.068309,0.043593,0.014957,-0.028230,-0.018056,0.007287,-0.025207,0.040511,0.000603,0.002562,-0.030929,0.056538,0.056769,-0.043514,0.011484,0.049106,0.007858,0.004100,-0.016610,-0.005620,0.022933,0.021431,-0.035552,0.016130,-0.022469,0.005034,-0.002867,0.026955,0.010124,0.005306,0.008504,0.014073,0.006060,0.031885,-0.100405,0.055173,0.021045,-0.069486,0.007162,-0.027403,0.035390,0.002716,0.020778,0.005947,-0.013451,0.009646,0.027041,0.034194,-0.046416,0.018266,0.021649,0.000935,0.019358,-0.004250,-0.026014,-0.024524,0.006772,-0.047248,0.112827,0.024693,-0.027786,0.005251,-0.019796,0.011633,-0.047509,-0.012170,0.061595,-0.022920,-0.028239,-0.053249,-0.044242,-0.019103,-0.006129,-0.040110,0.007531,0.023937,0.060855,-0.000609,0.074885,-0.028019,-0.009773,0.071057,0.030971,-0.000302,-0.022789,0.027788,-0.015065,-0.029976,-0.040675,0.005329,-0.016865,0.012638,0.074483,0.013413,0.022084,-0.009841,0.009102,-0.012722,0.058232,-0.012431,0.059924,0.023628,0.011022,-0.032444,0.021708,0.018397,-0.016556,0.039066,0.016014,0.023606,-0.012690,0.014338,0.036735,-0.000222,0.003300,-0.027618,0.009069,0.022522,0.012294,-0.021685,0.020941,-0.027799,0.029521,0.011695,-0.006791,0.033540,0.011493,0.290479,-0.046520,0.022143,0.028115,0.024866,0.041667,0.003800,-0.003502,0.042706,-0.020879,0.064447,0.022312,0.036666,-0.018430,-0.009997,-0.030958,-0.037923,-0.025624,0.024514,-0.040912,0.024185,0.043667,0.032110,-0.012121,-0.026040,-0.036633,0.005557,-0.004573,0.007783,0.016072,0.010767,-0.000685,-0.006940,-0.000237,0.011006,0.034760,0.015796,0.014641,-0.000848,0.007694,-0.037830,-0.030933,-0.006777,0.027201,0.023301,0.061841,-0.032702,0.023691,-0.000239,-0.083467,-0.025895,0.017744,0.035880,-0.019106,-0.031785,0.011206,-0.029009,0.022352,-0.003801,-0.001699,0.056164,-0.008591,-0.019177,0.031506,0.008875,0.048916,0.015616,0.010771,-0.004922,-0.001281,0.033975,-0.007583,-0.047462,-0.034851,0.031036,-0.033630,-0.042763,-0.029903,0.012835,0.036168,0.054236,0.059746,0.004459,0.024789,0.021302,-0.014552,-0.075118,0.043586,0.021216,0.019636,-0.001053,0.013579,-0.062654,0.008758,0.042362,0.022378,0.041708,-0.027417,0.067984,-0.020516,-0.009007,0.045039,-0.107179,-0.025978,-0.068393,0.006522,0.006766,0.011026,-0.028463,-0.006241,0.041903,-0.130733,-0.010607,0.016176,-0.020437,-0.032773,0.026167,0.012198,0.025474,0.032449,-0.001353,-0.008070,0.025592,0.012728,-0.038180,0.019278,0.011343,-0.005812,0.011977,0.040702,0.013075,0.006489,-0.033870,-0.018399,0.071495,-0.026341,0.027342,0.118272,-0.015556,0.051337,-0.022710,0.005138,0.035541,-0.011757,0.032151,-0.019530,0.013135,0.038632,-0.042529,0.007271,0.015678,-0.041536,0.048806,0.027982,0.003430,-0.072392,0.042448,-0.025071,0.055616,0.079544,0.004997
catalano,-0.008300,0.020533,0.075902,-0.041964,0.050916,0.003312,0.050871,0.027366,0.008859,0.030796,0.023780,0.046815,0.001494,-0.004148,0.036977,0.041545,0.077021,-0.047789,-0.007463,0.054825,0.046367,0.048563,-0.042638,0.013317,-0.194453,0.009621,-0.007457,-0.005477,-0.007147,-0.030812,0.032084,0.002413,0.027056,-0.014871,0.021156,0.006328,-0.021925,-0.018052,-0.033586,0.054102,0.007511,-0.014811,0.013759,0.077411,0.050389,0.032441,-0.016660,-0.018426,-0.005807,0.027573,0.025498,0.004138,-0.008846,0.033537,0.106974,-0.052086,0.075253,-0.022429,0.019611,0.014763,-0.013655,-0.053806,0.031395,-0.007157,0.008966,-0.002310,0.023179,0.010034,-0.009476,0.016368,-0.025422,-0.014025,-0.003436,-0.040669,0.014245,-0.017696,-0.007085,-0.022256,0.034388,-0.029734,-0.006972,0.009716,-0.011248,0.025430,-0.014097,0.038685,-0.032724,0.049944,0.004452,0.003827,0.004382,0.020686,0.048128,-0.030492,0.021505,-0.031161,0.003102,0.010676,-0.020477,0.065165,0.026209,0.016033,0.008752,-0.018783,-0.094358,0.005781,-0.045313,0.002710,-0.078796,-0.017711,-0.059206,0.031192,0.005375,0.091908,0.005392,0.030371,-0.005279,0.034583,0.003319,0.015019,-0.011322,-0.002513,-0.020784,0.008423,0.021823,0.018363,0.026657,-0.023728,0.014775,-0.005053,-0.032880,0.102497,-0.013039,0.009184,0.026440,0.029857,-0.019854,0.008842,0.041461,-0.001874,-0.019577,0.039403,0.025512,0.027022,0.001895,-0.019627,-0.019597,0.058114,-0.052394,0.053481,0.018298,-0.008288,0.066824,-0.009790,-0.001447,0.040341,0.054090,-0.011952,0.025235,0.006786,0.016764,0.021193,0.023393,0.029264,-0.032321,0.074731,0.081982,-0.042578,0.154170,-0.017399,-0.077247,0.009211,0.008576,0.011389,0.011303,-0.014429,0.020543,-0.005070,0.005257,-0.008034,0.012018,-0.021284,0.010330,-0.004115,-0.030444,0.038051,0.015250,-0.007380,-0.023398,-0.043136,0.029699,-0.000071,-0.023306,-0.023127,-0.002857,0.009835,0.074089,-0.008754,-0.027417,-0.004155,0.044849,0.047840,0.075758,-0.020783,-0.031811,-0.020468,0.032645,0.040254,-0.012916,0.041947,-0.032855,-0.038400,0.044554,-0.012561,-0.011445,-0.056311,-0.016389,0.103232,0.012743,0.045943,0.052241,-0.005861,0.050875,0.010893,0.005993,-0.011817,0.027437,-0.018426,0.035551,0.017416,0.000792,0.000029,0.005337,0.016318,0.015886,0.039345,-0.029892,0.016207,-0.079943,0.014143,0.036677,0.036881,-0.021148,0.007505,0.027850,0.055844,-0.011035,0.079704,-0.002970,-0.009781,0.027004,-0.029857,-0.052796,0.061058,0.023215,0.019892,-0.002560,-0.031667,-0.026594,0.018961,0.032593,0.023410,0.023652,0.026583,0.001765,-0.009394,-0.026809,-0.031429,0.003568,0.013544,-0.011806,-0.016988,0.013551,0.035599,0.014890,0.086301,0.072054,-0.002097,-0.012502,0.030063,0.043628,-0.026844,0.014190,0.054771,0.005347,-0.036647,0.028241,-0.003065,0.011013,-0.039790,-0.002481,-0.031607,-0.017776,0.036231,0.010361,-0.018729,-0.008762,-0.034810,-0.000800,-0.007166,0.037900,0.000307,0.025931,0.016631,-0.010990,0.047411,-0.048542,-0.006783,0.030242,0.047966,0.015055,0.016743,0.033020,-0.030925,-0.009422,0.034482,-0.009425,0.010831,0.026294,0.072082,0.055716,0.024696,-0.006201,-0.010325,0.020865,-0.026540,0.015003,-0.023454,0.045604,-0.005040,0.035418,0.022026,-0.031387,0.028415,-0.013045,-0.005921,-0.042303,0.046383,-0.034398,-0.018281,0.005549,0.050726,0.024145,-0.023360,0.042112,-0.011109,-0.001642,-0.012857,0.032392,-0.024269,0.051744,0.015738,0.010963,-0.010957,0.028310,0.011037,-0.011733,-0.067315,-0.052482,-0.005564,0.026062,-0.020746,0.014072,0.021200,-0.049066,0.002918,-0.023780,-0.002211,0.010923,-0.038163,0.006422,0.007058,-0.006540,-0.015024,-0.062143,0.004648,-0.017344,-0.004796,0.015275,0.004169,0.046223,0.002471,0.013963,0.013815,0.000841,0.025517,-0.006331,0.017480,0.036396,0.005191,0.026940,-0.000506,0.045474,0.038118,0.001518,-0.143517,-0.053332,0.087291,0.030639,-0.022954,-0.001550,0.027815,-0.015597,-0.017779,-0.002647,-0.025493,0.063433,0.037863,0.016758,0.023758,0.000467,0.001118,-0.034982,0.077613,0.017155,0.017311,0.000026,-0.006574,0.033608,0.015523,0.019589,0.034097,0.015560,0.006759,0.006385,0.026651,-0.023015,0.027778,0.008926,0.001778,0.058678,0.032382,0.010027,0.067590,0.062093,-0.024352,-0.028861,0.016123,-0.011185,0.037763,0.027175,-0.016582,-0.005167,0.047460,0.002644,0.037424,0.003743,-0.010465,0.002982,-0.001947,0.043702,0.066005,0.051052,-0.007270,0.005164,-0.028213,-0.023776,-0.018824,0.035670,0.027396,0.001911,0.025747,-0.048007,0.023556,-0.019238,-0.008987,0.010040,0.002846,0.051816,-0.000864,0.024817,0.027227,-0.054931,-0.005822,0.007193,0.022700,0.032149,0.010938,-0.026289,0.054104,0.076938,0.039769,0.009264,-0.037768,-0.018301,0.017610,-0.030647,0.043592,0.017935,0.007669,-0.026759,0.048917,0.060313,-0.047809,0.003105,0.050151,0.000894,-0.001447,-0.015905,-0.011476,0.029102,0.022455,-0.038496,0.011212,-0.029078,0.000257,-0.005840,0.029978,-0.012736,0.014148,0.007639,0.016234,0.002677,0.016186,-0.099916,0.050602,0.019660,-0.073452,0.002021,-0.014536,0.026464,0.002483,0.018223,-0.000013,-0.011036,0.011267,0.040186,0.028394,-0.036748,0.017257,0.018487,0.003261,0.021702,0.003902,-0.029710,-0.024755,0.007812,-0.037313,0.114717,0.032880,-0.021934,0.016699,-0.023205,0.005956,-0.045109,-0.012641,0.061119,-0.015186,-0.033729,-0.057869,-0.046489,-0.015748,-0.000035,-0.036261,0.014114,0.043603,0.037202,-0.008268,0.060441,-0.028454,-0.014959,0.077902,0.033563,0.000891,-0.008322,0.021974,-0.010826,-0.010602,-0.044991,0.003160,-0.016905,0.015632,0.068098,0.019815,0.017885,-0.009476,0.004888,-0.006006,0.050505,-0.012680,0.060508,0.020331,0.011168,-0.030102,0.016943,0.024741,-0.011201,0.052833,0.025263,0.019068,-0.009027,0.013058,0.039557,-0.009461,0.003285,-0.044339,0.001003,0.014000,0.009497,-0.020186,0.023139,-0.028900,0.020651,0.011047,-0.010890,0.038060,0.006794,0.301175,-0.051538,0.023483,0.015668,0.025382,0.032373,0.004940,0.002369,0.040952,-0.028231,0.075948,0.018426,0.039968,-0.009500,-0.004417,-0.033414,-0.035678,-0.024711,0.024403,-0.040259,0.022268,0.034954,0.021725,0.004610,-0.025280,-0.036586,0.007188,0.002395,0.004401,0.008389,0.023387,-0.000631,-0.006267,0.004912,0.005656,0.032449,0.011443,0.012868,0.003573,0.002754,-0.030207,-0.036456,-0.008814,0.029477,0.026651,0.058569,-0.033967,0.022919,0.000710,-0.085638,-0.021100,0.019988,0.027812,-0.011229,-0.033139,0.007296,-0.025351,0.027813,-0.010165,0.002836,0.056752,-0.007904,-0.024953,0.026261,0.009039,0.050510,0.019065,0.013169,-0.002704,-0.000680,0.041858,-0.013163,-0.043735,-0.022724,0.035828,-0.036976,-0.029601,-0.031360,0.008754,0.024434,0.051669,0.066402,-0.011651,0.022327,0.025253,-0.013006,-0.077927,0.044971,0.030216,0.022434,0.018660,0.001408,-0.059479,0.013134,0.025902,0.022226,0.038835,-0.019432,0.072535,-0.020812,-0.010798,0.045190,-0.099996,-0.023826,-0.070389,0.004097,0.022602,0.006103,-0.019450,-0.000829,0.034607,-0.130985,-0.024505,0.015076,-0.016649,-0.029473,0.019154,0.022253,0.031012,0.029519,-0.004022,-0.014265,0.012726,0.008284,-0.034312,0.026501,0.015028,-0.012538,0.017577,0.040795,0.006891,-0.001956,-0.031094,-0.024823,0.069074,-0.032305,0.027073,0.108640,-0.018610,0.052020,-0.026359,0.010254,0.035350,-0.012053,0.029480,-0.015096,0.002332,0.039646,-0.044240,0.011256,0.013587,-0.042524,0.047783,0.035114,0.002437,-0.063673,0.060244,-0.025308,0.058629,0.069822,-0.009933
tedesco,-0.006839,0.037576,0.077622,-0.044793,0.048412,-0.002110,0.021315,0.017149,0.006671,0.024436,-0.000161,0.052635,-0.013339,0.004365,0.040867,0.047041,0.075281,-0.044504,-0.007588,0.041397,0.042356,0.036773,-0.047204,0.015367,-0.205168,0.009652,-0.014720,-0.007624,0.020241,-0.022728,0.031107,0.004825,0.020914,-0.020401,0.024521,0.012076,-0.022187,-0.019824,-0.035327,0.040170,0.020520,-0.018338,0.010550,0.074709,0.059472,0.044041,-0.024321,-0.004180,0.010824,0.018886,0.023090,0.007545,-0.010298,0.016640,0.100116,-0.053215,0.064735,-0.033929,0.016996,0.013808,-0.023521,-0.054544,0.032242,0.023608,0.003717,0.001414,0.019115,0.029755,-0.000140,0.010992,-0.021617,-0.007962,-0.011729,-0.033793,0.012656,-0.003406,-0.017014,-0.038567,0.037120,-0.029848,-0.007952,0.005026,-0.028860,-0.014261,0.002345,0.037897,-0.029025,0.057062,0.005663,0.018035,-0.020244,0.033696,0.021691,-0.030482,0.013412,-0.030714,0.017486,0.045446,-0.016189,0.073693,0.023388,0.009428,0.010569,-0.024632,-0.102169,-0.002418,-0.043053,-0.004631,-0.082634,-0.006504,-0.060973,0.030821,0.008254,0.074339,0.000653,0.026985,0.002776,0.045306,0.010605,0.010035,0.000666,-0.015032,-0.011105,0.002936,0.017911,0.031016,0.040326,-0.029233,0.014380,0.006448,-0.021780,0.091713,-0.020841,0.014293,0.029729,0.029854,-0.033588,0.011849,0.026990,0.012188,0.000469,0.037847,0.023843,0.028782,-0.000625,-0.028103,-0.013312,0.040358,-0.045367,0.048907,-0.011628,-0.012788,0.058280,-0.010513,-0.006801,0.007000,0.044672,-0.018511,0.044646,0.007344,0.041116,0.031635,0.026837,0.059351,-0.032645,0.076135,0.070444,-0.033400,0.102815,-0.019035,-0.064943,0.005427,0.014894,-0.001246,0.013423,0.002995,0.016840,-0.002191,-0.002042,-0.009052,0.018330,-0.012104,0.001894,0.000379,-0.053980,0.037272,0.007950,-0.002869,-0.024322,-0.039377,0.036699,0.001668,-0.021687,-0.024414,-0.003500,0.015159,0.077686,-0.004308,-0.017223,-0.018305,0.040668,0.060641,0.048676,-0.018556,-0.040396,-0.028245,0.014414,0.032546,-0.011547,0.041233,-0.036316,-0.040004,0.032148,-0.022168,-0.004448,-0.049778,-0.016561,0.097653,0.021093,0.031088,0.052246,-0.018043,0.040962,0.027542,-0.000583,-0.031260,0.017206,-0.025826,0.042457,0.010104,-0.010843,0.019990,-0.008924,0.010984,0.017608,0.035680,-0.038315,0.014034,-0.071442,0.016852,0.048463,0.043219,-0.026652,0.014664,0.024325,0.050760,-0.019571,0.078671,0.009316,-0.005144,0.035726,-0.020755,-0.065843,0.056379,0.017386,0.010924,-0.006306,-0.023866,-0.030684,0.028106,0.032105,0.032289,0.021557,0.020554,0.001625,-0.013287,-0.031976,-0.032193,-0.001226,0.025478,-0.008521,-0.005660,0.027547,0.058986,0.004607,0.074055,0.066519,-0.003936,-0.011064,0.021158,0.030619,-0.014937,0.012283,0.044199,0.011742,-0.027437,0.026218,0.001206,0.008047,-0.040415,0.008599,-0.023256,-0.005440,0.024712,0.004092,-0.006993,0.007397,-0.049510,-0.008191,-0.004733,0.041187,-0.007984,0.020212,0.030199,-0.011807,0.029962,-0.052340,-0.001813,0.038407,0.038666,0.020548,0.033361,0.040754,-0.038526,-0.002349,0.041887,-0.016253,0.018769,0.037433,0.091989,0.030652,0.006742,-0.000076,-0.021009,0.015260,-0.030235,0.014366,-0.016452,0.024507,-0.006389,0.038307,0.014024,-0.019523,0.032269,-0.009030,0.022004,-0.049005,0.041770,-0.030447,-0.030337,-0.002128,0.022394,0.026712,-0.014885,0.050092,0.002710,0.007823,-0.034703,0.027541,-0.023481,0.054579,0.015925,0.013613,-0.003806,0.043433,0.011636,-0.004734,-0.070123,-0.052089,-0.000479,0.008572,-0.015678,0.030987,-0.012963,-0.042507,0.008971,-0.022021,-0.008453,0.011993,-0.049847,0.015363,0.002363,-0.003534,0.001590,-0.027672,0.012004,-0.021981,-0.010570,0.017840,0.017134,0.064479,0.020989,0.015784,0.030286,0.000009,0.024872,-0.010065,0.005222,0.035234,0.009516,0.021598,-0.001414,0.027694,0.037586,0.001082,-0.128572,-0.059695,0.069248,0.033631,-0.027483,0.025319,0.014952,-0.012468,-0.007463,0.003144,-0.048809,0.064916,0.035059,0.014666,0.030537,0.007810,0.004599,-0.020540,0.073368,0.013383,0.021508,0.019665,-0.003304,0.041614,0.001271,0.019376,0.045879,0.013381,0.001411,0.015070,0.050819,0.002928,0.039195,0.025439,0.014356,0.073714,0.034754,0.010584,0.066134,0.045490,-0.014726,-0.022496,0.010935,-0.003454,0.038049,0.029264,-0.024409,-0.004118,0.061972,-0.016202,0.035150,0.011485,-0.015831,0.007345,0.021830,0.041358,0.059533,0.046287,-0.006289,0.019588,-0.026000,-0.014649,-0.018305,0.027512,0.038780,-0.004790,0.031046,-0.049198,0.006810,-0.016698,0.016785,0.016392,-0.000373,0.042074,0.007722,-0.002006,0.005109,-0.058150,-0.002601,-0.002850,0.028496,0.028172,-0.012901,-0.031321,0.048830,0.081142,0.043772,0.005440,-0.021178,-0.023918,0.014806,-0.014348,0.036323,0.005635,0.008741,-0.012550,0.056056,0.077009,-0.046387,0.014219,0.029393,0.010334,0.000093,-0.011131,0.002943,0.027246,0.033661,-0.040574,0.023068,-0.021148,-0.000489,-0.008823,0.033169,-0.014773,0.016588,-0.006128,0.007787,0.006957,0.016464,-0.105866,0.026258,0.032773,-0.060280,0.002290,-0.029867,0.036131,0.000187,0.016879,-0.012809,-0.016039,0.004325,0.013790,0.034390,-0.034558,0.009899,0.036016,0.000442,0.026407,-0.005884,-0.024177,-0.033970,0.005299,-0.025749,0.120047,0.019755,-0.025527,-0.006374,-0.018778,0.004442,-0.062320,0.001513,0.053013,-0.027623,-0.035406,-0.035166,-0.035593,-0.012018,-0.000775,-0.049088,-0.003968,0.039231,0.064993,-0.010624,0.060131,-0.040332,-0.010238,0.071971,0.062445,0.006749,-0.024403,0.034810,-0.010334,-0.050992,-0.045385,0.017242,-0.026530,0.016357,0.074044,0.021031,0.009248,-0.009540,-0.004067,-0.000355,0.054842,-0.004541,0.068549,0.022758,0.029142,-0.035504,0.010922,0.017424,-0.012153,0.048015,0.026050,0.027437,-0.015509,0.012406,0.037539,-0.001306,0.018911,-0.025644,-0.003989,0.043519,0.006875,-0.023790,0.017997,-0.030609,0.026400,0.006915,-0.015411,0.026920,0.010340,0.284879,-0.054191,0.011422,0.016038,0.011297,0.049293,-0.006890,-0.000630,0.045874,-0.023222,0.051657,0.003408,0.033223,0.005804,-0.011295,-0.016522,-0.039699,-0.021631,0.021776,-0.051742,0.020573,0.045980,0.011813,-0.013175,-0.031605,-0.033547,-0.004706,-0.005526,0.023693,0.008791,-0.027422,-0.011005,-0.002446,0.004172,-0.007816,0.038854,0.013762,-0.009385,0.012702,-0.000444,-0.027586,-0.030094,-0.010095,0.037379,0.017258,0.070686,-0.026863,0.023339,0.016178,-0.083856,-0.023900,0.009653,0.032528,-0.024837,-0.032233,-0.003956,-0.027916,0.035644,-0.021025,0.003278,0.067666,-0.006478,-0.014211,0.055285,0.015339,0.041623,0.015705,0.003988,-0.008109,0.013021,0.046684,-0.017576,-0.039486,-0.027745,0.037738,-0.031851,-0.045572,-0.028910,0.024018,0.017201,0.067830,0.067700,0.008448,0.020571,0.028895,-0.012873,-0.076658,0.055665,0.021203,0.015441,0.012708,0.004026,-0.073365,0.012884,0.026282,0.020160,0.037202,-0.027808,0.071196,-0.008941,0.002304,0.042763,-0.101367,-0.014829,-0.059412,-0.007158,0.003400,0.006841,-0.028485,-0.005271,0.050627,-0.135126,-0.019932,0.035185,-0.002791,-0.036177,0.014142,0.015919,0.025358,0.039917,0.050400,-0.021042,0.002315,0.005738,-0.028409,0.015539,0.010841,-0.008334,0.009891,0.040311,0.012261,0.023512,-0.047518,-0.020848,0.084217,-0.028345,0.017400,0.108568,-0.010474,0.043529,-0.027145,-0.007424,0.025929,-0.019689,0.038151,-0.022802,0.011363,0.035764,-0.037198,-0.006565,0.037960,-0.043644,0.052924,0.024480,0.015508,-0.074470,0.038677,-0.015206,0.064324,0.089408,0.004785
inglese,-0.005729,0.023049,0.074676,-0.041067,0.045505,0.000675,0.047495,0.018122,0.011273,0.021808,0.027514,0.049098,-0.022654,-0.003360,0.044467,0.040672,0.080943,-0.050872,0.006681,0.048495,0.054507,0.047661,-0.039346,0.010818,-0.199319,-0.001284,-0.009954,-0.012569,0.012318,-0.018276,0.025492,0.002750,0.010460,-0.025535,0.008738,0.009605,-0.021392,-0.019783,-0.045837,0.058281,0.010590,-0.017703,0.015869,0.090205,0.074994,0.040117,-0.019133,-0.002163,-0.010136,0.021779,0.021864,0.007438,-0.012806,0.010601,0.108227,-0.049252,0.061076,-0.036443,0.019687,0.014746,-0.016860,-0.051227,0.028352,-0.003303,0.006181,-0.001303,0.012874,0.027729,-0.000607,0.013623,-0.024978,-0.012370,-0.001794,-0.039855,0.009406,-0.007704,-0.007843,-0.032699,0.036921,-0.027170,-0.011491,0.006417,-0.023175,-0.008321,-0.001468,0.041543,-0.029400,0.040630,0.008497,0.005148,-0.010991,0.024469,0.038490,-0.022132,0.009651,-0.022010,0.007375,0.043359,-0.018574,0.071648,0.013559,0.010355,0.020673,-0.015596,-0.094214,-0.007485,-0.038358,0.000802,-0.085073,-0.017816,-0.058858,0.036928,0.018800,0.084457,-0.006919,0.022731,0.001153,0.039277,0.007000,0.006977,-0.000969,-0.010383,-0.011118,0.004803,0.032524,0.022232,0.032048,-0.025369,0.010339,0.000566,-0.017093,0.083345,-0.017069,0.015645,0.029305,0.032955,-0.025892,0.003835,0.030343,0.010264,-0.011814,0.041581,0.024124,0.032847,-0.003363,-0.024734,-0.012799,0.061141,-0.046724,0.044410,0.012527,0.003997,0.065618,-0.003596,0.006309,0.018293,0.052375,-0.017564,0.044786,0.006000,0.031565,0.020503,0.021632,0.047035,-0.035093,0.084348,0.072585,-0.028575,0.137945,-0.026668,-0.078815,0.004327,0.012836,0.006952,0.008640,-0.009018,0.013764,0.005452,-0.002549,-0.009350,0.004583,-0.015304,0.003937,-0.008360,-0.048553,0.032073,0.005451,-0.014259,-0.017873,-0.043013,0.031530,-0.002783,-0.015974,-0.024919,-0.006573,0.012016,0.081138,-0.009424,-0.026463,-0.001814,0.038354,0.053404,0.048686,-0.022243,-0.037171,-0.025684,0.025804,0.037305,-0.026239,0.041503,-0.035356,-0.035460,0.039394,-0.027001,-0.004668,-0.048419,-0.017933,0.095208,0.015938,0.034497,0.048230,-0.012418,0.040038,0.021146,-0.006185,-0.017941,0.025077,-0.021886,0.032646,0.022291,-0.014509,0.011071,-0.019509,0.003665,0.007255,0.039457,-0.037523,0.030672,-0.074472,0.012119,0.056095,0.048815,-0.032971,0.014591,0.020030,0.061426,-0.023952,0.084899,-0.001140,-0.003726,0.029845,-0.019050,-0.060331,0.054143,0.020569,0.019191,-0.002828,-0.025661,-0.030924,0.026003,0.032166,0.033377,0.023632,0.007651,0.011749,-0.006490,-0.028494,-0.025622,-0.003955,0.019501,-0.008392,-0.015316,0.017683,0.030771,0.002395,0.071049,0.072047,-0.005344,-0.014646,0.028869,0.035166,-0.022860,0.031049,0.034199,-0.000877,-0.024429,0.035669,-0.003574,0.006599,-0.038573,0.003182,-0.029288,-0.012204,0.044160,0.000958,-0.004665,0.006132,-0.052506,-0.011344,-0.011941,0.036761,-0.002199,0.019233,0.018273,-0.012067,0.017841,-0.050977,-0.009643,0.043149,0.040832,0.023771,0.031591,0.041057,-0.030318,-0.000567,0.031372,-0.015982,0.012926,0.039304,0.084684,0.037836,0.009084,0.016993,-0.021520,0.015821,-0.027038,0.012723,-0.007942,0.039252,-0.021791,0.039025,0.022838,-0.021077,0.029723,-0.003222,0.009150,-0.051182,0.034999,-0.030690,-0.030952,0.015432,0.018321,0.019476,-0.022318,0.041434,-0.001713,0.012544,-0.031407,0.016022,-0.027309,0.056505,0.011758,0.011428,-0.004987,0.038095,0.020870,0.008377,-0.065482,-0.054162,0.000880,0.007166,-0.005875,0.021379,-0.009244,-0.043199,0.016816,-0.026251,0.005994,0.010178,-0.034620,0.024925,0.004834,-0.000558,-0.011632,-0.038006,0.034567,-0.023497,-0.000591,0.009814,0.009866,0.049386,0.019256,0.016102,0.009785,0.010275,0.029329,-0.015249,0.010319,0.034033,0.010165,0.035023,-0.006119,0.026946,0.037737,-0.002248,-0.140192,-0.058010,0.078521,0.046452,-0.025116,0.011877,0.020768,-0.007059,-0.011486,0.012782,-0.036750,0.063695,0.044077,0.021135,0.033797,0.015626,0.012198,-0.036558,0.079992,0.028204,0.018905,0.017966,0.001172,0.035994,0.001402,0.013411,0.039656,0.022007,0.003195,0.018036,0.043777,-0.002438,0.037234,0.022313,0.009658,0.073725,0.037083,0.011287,0.066464,0.045472,-0.020756,-0.021577,0.017651,-0.009502,0.031401,0.020542,-0.029041,-0.007276,0.067791,-0.009417,0.030777,0.013092,-0.005899,0.016617,0.013373,0.045466,0.059743,0.057168,0.000213,0.017560,-0.039475,-0.029050,-0.016484,0.024495,0.043716,-0.003495,0.037717,-0.050708,0.012928,-0.016460,-0.004690,0.018590,-0.001695,0.030903,0.000177,0.006794,0.020035,-0.043878,-0.002832,-0.004085,0.030314,0.022483,0.003930,-0.031991,0.058126,0.093353,0.039851,0.009552,-0.041454,-0.028110,0.014900,-0.016719,0.039690,0.004974,0.006407,-0.031257,0.053890,0.069805,-0.045723,0.009572,0.039778,0.002914,-0.002888,-0.009702,-0.005365,0.034523,0.030789,-0.039221,0.018940,-0.023000,-0.004035,-0.008424,0.038775,-0.001792,0.024156,-0.000323,0.012232,0.002324,0.013554,-0.104024,0.024068,0.031042,-0.077276,0.002383,-0.020721,0.020969,0.001457,0.025854,-0.016583,-0.007608,0.018185,0.028998,0.030232,-0.045181,0.009859,0.031753,-0.007160,0.026736,-0.000456,-0.029400,-0.028953,0.008161,-0.038482,0.111433,0.011196,-0.017786,-0.004267,-0.021413,0.015385,-0.048898,-0.008069,0.051083,-0.006649,-0.041009,-0.046173,-0.047513,-0.021035,-0.001743,-0.039543,0.006378,0.061549,0.034966,-0.006585,0.058648,-0.038364,-0.017097,0.072501,0.054674,0.004239,-0.017294,0.026835,-0.039501,-0.049428,-0.046951,0.008225,-0.025912,0.013010,0.065348,0.029005,0.006785,0.005178,0.001894,-0.010194,0.045078,-0.012464,0.071818,0.011771,0.013802,-0.046327,0.020942,0.028921,-0.010501,0.040883,0.019762,0.013592,-0.012255,0.013765,0.037705,0.005287,0.012443,-0.007168,-0.000242,0.025048,0.006985,-0.018093,0.019225,-0.026597,0.020711,0.007068,-0.004965,0.041301,0.020234,0.287936,-0.038330,0.014522,0.007546,0.017920,0.038789,0.002156,0.007453,0.043122,-0.023439,0.063597,0.016211,0.033670,0.003625,-0.009127,-0.020936,-0.032450,-0.024341,0.019603,-0.040977,0.016839,0.035063,0.009382,-0.002277,-0.023877,-0.034441,-0.005772,0.000300,0.016737,0.020131,0.003258,-0.030439,0.002520,0.002470,-0.005425,0.039552,0.015075,0.013305,0.006820,0.000976,-0.031112,-0.029076,-0.010020,0.038210,0.028812,0.070644,-0.024491,0.023892,0.011315,-0.083234,-0.027522,0.003872,0.027292,-0.014432,-0.029003,-0.007169,-0.034674,0.020345,-0.011212,0.004480,0.052675,-0.014001,-0.015198,0.024566,0.023904,0.043289,0.017715,0.003243,-0.007211,0.007747,0.041121,-0.021686,-0.044880,-0.027125,0.036353,-0.027847,-0.042284,-0.028960,0.020058,0.005237,0.054520,0.076385,-0.010083,0.018976,0.028216,-0.009970,-0.082936,0.055542,0.024036,0.007203,0.025942,-0.001998,-0.062195,0.011963,0.019016,0.005669,0.036704,-0.017447,0.069296,-0.012002,-0.008337,0.047340,-0.101634,-0.017474,-0.064954,-0.010346,0.016649,0.009569,-0.025605,-0.000856,0.039074,-0.136634,-0.022898,0.025695,0.002766,-0.032610,0.016001,0.030815,0.035272,0.034027,0.018220,-0.026666,0.004479,0.013414,-0.034438,0.015974,0.009890,-0.008914,0.009854,0.040290,-0.001688,0.024555,-0.038071,-0.027859,0.086459,-0.028886,0.023299,0.107726,-0.007111,0.049115,-0.005362,0.001009,0.024810,-0.020482,0.038361,-0.018938,0.015061,0.034723,-0.041988,-0.006419,0.025776,-0.038083,0.053777,0.044080,0.001364,-0.068775,0.031264,-0.021478,0.058342,0.070244,-0.006282
