,0,1,2,3,4,5,6,7,8,9,10,11,12,13,14,15,16,17,18,19,20,21,22,23,24,25,26,27,28,29,30,31,32,33,34,35,36,37,38,39,40,41,42,43,44,45,46,47,48,49,50,51,52,53,54,55,56,57,58,59,60,61,62,63,64,65,66,67,68,69,70,71,72,73,74,75,76,77,78,79,80,81,82,83,84,85,86,87,88,89,90,91,92,93,94,95,96,97,98,99,100,101,102,103,104,105,106,107,108,109,110,111,112,113,114,115,116,117,118,119,120,121,122,123,124,125,126,127,128,129,130,131,132,133,134,135,136,137,138,139,140,141,142,143,144,145,146,147,148,149,150,151,152,153,154,155,156,157,158,159,160,161,162,163,164,165,166,167,168,169,170,171,172,173,174,175,176,177,178,179,180,181,182,183,184,185,186,187,188,189,190,191,192,193,194,195,196,197,198,199,200,201,202,203,204,205,206,207,208,209,210,211,212,213,214,215,216,217,218,219,220,221,222,223,224,225,226,227,228,229,230,231,232,233,234,235,236,237,238,239,240,241,242,243,244,245,246,247,248,249,250,251,252,253,254,255,256,257,258,259,260,261,262,263,264,265,266,267,268,269,270,271,272,273,274,275,276,277,278,279,280,281,282,283,284,285,286,287,288,289,290,291,292,293,294,295,296,297,298,299,300,301,302,303,304,305,306,307,308,309,310,311,312,313,314,315,316,317,318,319,320,321,322,323,324,325,326,327,328,329,330,331,332,333,334,335,336,337,338,339,340,341,342,343,344,345,346,347,348,349,350,351,352,353,354,355,356,357,358,359,360,361,362,363,364,365,366,367,368,369,370,371,372,373,374,375,376,377,378,379,380,381,382,383
veneto,-0.021644,0.132953,-0.018575,-0.008097,-0.019406,-0.068120,0.086005,0.018405,0.011941,0.013626,0.078751,0.018366,0.031992,0.002316,-0.039095,-0.021899,-0.039818,0.030504,-0.037746,0.011222,0.070723,-0.043420,0.032676,-0.008765,0.018630,-0.043134,-0.042937,-0.010989,0.010114,-0.044841,-0.035789,0.010834,-0.013399,0.032015,-0.024302,0.058229,-0.051111,0.005897,-0.024782,0.044927,-0.010067,0.015196,0.014396,0.050572,0.018861,-0.011340,0.047392,0.024786,-0.090810,0.003522,0.003266,-0.033871,-0.091865,-0.035924,0.000494,-0.035547,0.076655,0.052246,-0.055014,0.069356,0.032210,-0.012452,-0.093616,0.007537,-0.066090,-0.091001,0.011451,0.002175,-0.034338,0.132700,0.053497,-0.075558,-0.041638,-0.025970,0.014370,0.000802,-0.015169,0.008165,-0.078769,-0.054302,0.131004,0.007646,-0.009137,0.003578,-0.013408,0.022749,0.015020,0.024404,0.083555,-0.077051,0.066739,-0.059798,0.060399,0.022686,0.116188,0.072575,0.027032,0.020276,0.039622,0.072225,0.024149,0.000530,0.041858,0.030472,-0.000530,0.000493,0.026324,-0.047602,-0.011867,-0.046679,-0.062048,0.006747,0.031799,-0.041863,-0.063098,-0.052359,-0.026712,0.049756,-0.085674,0.023355,-0.014099,-0.096385,0.071173,-0.000674,0.040283,-0.038411,0.014509,0.053659,-0.015872,-0.021006,0.044233,-0.014323,-0.049271,-0.004020,-0.035709,-0.018551,0.055179,-0.004095,-0.061760,-0.006215,-0.047972,0.035911,0.048533,0.053475,0.016739,0.017081,-0.008972,-0.044547,0.033829,0.004575,0.049793,-0.056911,0.087578,0.021787,-0.030997,-0.008125,-0.045387,0.042960,0.053299,0.013212,-0.114815,0.024776,-0.004059,0.053344,0.009900,0.058764,-0.009360,-0.010666,0.020595,0.008052,0.007335,-0.000289,0.060056,0.047146,-0.065702,-0.035238,-0.103495,0.024934,-0.017721,0.026883,-0.010322,0.043134,-0.000814,0.077783,-0.050055,0.081610,0.020778,0.024788,0.069051,0.031002,-0.025666,0.033788,0.082720,0.002952,-0.059917,-0.036473,-0.002964,0.101401,-0.014658,-0.004618,-0.128773,0.024920,-0.020222,-0.037319,0.022660,-0.013230,0.050177,-0.079747,-0.040438,0.046935,-0.005352,-0.003329,-0.022544,-0.000658,0.071892,0.002255,-0.052571,0.044354,-0.049362,0.056196,0.006786,-0.105582,-0.023251,-0.156692,-0.047261,-0.003683,-0.035701,0.025664,-0.025248,0.014449,-0.079169,-0.042871,-0.006915,-0.020530,-0.064339,-0.099763,0.158026,0.057770,0.027089,-0.040994,0.026635,-0.041557,-0.044861,0.016307,-0.008544,-0.034888,-0.011880,0.035605,-0.063868,0.088713,0.004583,-0.095473,-0.068652,0.016877,0.005507,-0.018297,-0.021150,0.064522,-0.034537,0.107561,0.036069,0.009455,-0.111509,0.022807,-0.041415,-0.005513,-0.013187,0.041786,0.018335,0.007114,-0.024692,0.018149,0.010181,-0.111663,0.151870,-0.019988,0.001518,-0.088467,-0.024735,0.046453,-0.017298,-0.069380,0.023904,-0.063397,0.076682,-0.019759,-0.026391,0.019103,0.010651,-0.010207,-0.065995,0.080503,0.056301,0.040282,0.063432,-0.012055,-0.018187,0.000492,-0.012309,0.058848,-0.046517,-0.002883,-0.064063,-0.105292,0.026042,-0.101569,0.002786,0.015370,0.111067,-0.046956,-0.026854,-0.108822,-0.008884,0.007525,0.094102,0.019806,0.005811,0.068688,0.110368,-0.172876,0.014083,-0.060954,-0.056924,0.034685,0.060133,-0.033550,0.026087,-0.069831,-0.000738,0.032792,-0.039275,0.114385,-0.030329,-0.036736,0.042349,0.118070,-0.015743,0.030526,-0.010549,0.044010,0.055222,0.097951,-0.024633,-0.093348,-0.028143,0.031955,-0.030450,0.007026,0.013240,-0.050531,0.040105,0.022168,-0.070564,-0.008298,-0.015627,-0.012523,-0.053320,-0.034656,0.021282,-0.073133,0.055367,-0.071166,0.041243,0.105218,-0.004699,0.029769,-0.032115,0.026769,-0.060743,0.088362,-0.004299,0.013177,0.033335,-0.018748,-0.011294,-0.024591,0.011648,0.016137,-0.005427,0.005765,-0.024640,0.047975,0.055388,0.002099
siciliano,-0.010726,0.072645,-0.003538,0.038492,-0.018671,-0.075428,0.048360,-0.006463,0.031221,-0.003342,0.096428,-0.016442,0.030901,0.016013,-0.028874,-0.019276,-0.090237,-0.014581,-0.004437,0.032067,0.061181,-0.012912,-0.010829,0.027033,0.005776,-0.025831,-0.048439,-0.043874,0.011021,-0.061696,-0.042995,0.002072,-0.035640,0.054342,-0.014585,0.049592,-0.018063,0.033649,0.035751,0.055368,-0.018501,0.043830,0.074562,0.009575,0.046944,-0.023841,0.002258,0.006975,-0.047745,-0.012483,0.003629,-0.000581,-0.057165,-0.050710,0.038593,-0.076976,0.056597,-0.018872,-0.037205,0.059715,0.029370,0.031097,-0.066477,0.000008,-0.059008,-0.115077,0.030418,-0.021533,0.023587,0.117922,0.028864,-0.022702,-0.032413,-0.005123,0.027343,0.028326,-0.019850,0.033820,-0.082909,-0.080655,0.054405,0.025209,-0.017665,0.026373,-0.031750,0.044141,-0.000184,-0.007745,0.044439,-0.062558,0.088823,-0.052987,0.074966,0.048927,0.170292,0.038883,0.016654,0.009854,-0.006849,0.039496,0.016707,-0.005922,-0.003079,-0.024907,0.018472,-0.009258,0.008161,-0.091896,-0.001360,-0.041319,-0.003758,0.015745,0.018655,-0.011401,-0.055271,-0.064006,-0.056124,0.020827,-0.144788,0.041721,-0.030686,-0.119753,0.087388,-0.017811,0.049924,-0.070822,0.009454,0.031368,0.001845,-0.041557,0.002994,-0.049498,0.012856,-0.043043,-0.012377,-0.025699,0.070861,0.020672,-0.057629,-0.016720,-0.081776,0.066280,0.058064,0.026434,0.016946,-0.008197,-0.012127,-0.039968,0.008078,0.073665,0.043087,-0.064186,0.058364,0.044644,-0.019667,-0.012934,-0.031574,0.075501,0.086442,0.004501,-0.026596,0.067000,0.001223,0.041857,0.046956,0.010866,-0.031600,0.006839,0.030757,0.020033,0.004588,0.019249,0.054247,0.015425,-0.043930,-0.041827,-0.129531,0.028879,-0.042175,0.036917,-0.008487,0.014355,0.016941,0.017594,-0.049252,0.023770,0.009699,0.065860,0.054677,-0.028833,-0.036449,-0.014065,0.027106,0.022195,-0.038743,-0.034150,0.018495,0.071050,-0.051311,-0.015976,-0.221293,-0.026308,-0.012719,-0.043124,0.044447,-0.000624,0.025975,-0.053283,-0.019118,0.054324,-0.008917,0.002215,-0.001644,0.018059,0.065618,0.003968,-0.034046,-0.009210,-0.031252,0.077678,0.078308,-0.137410,-0.036048,-0.153546,-0.037087,-0.026737,-0.053800,0.062506,-0.051842,-0.011437,-0.046281,0.045501,-0.058101,-0.035345,-0.093073,-0.010300,0.102067,-0.004796,0.015223,-0.055091,0.020660,-0.014841,-0.046201,0.002363,0.021742,-0.030532,0.024177,0.032375,-0.009251,0.154624,-0.020952,-0.126177,-0.067003,-0.003041,0.054671,-0.011594,-0.011895,0.069191,-0.023041,0.057920,0.037057,0.017571,-0.070824,-0.024533,-0.011367,-0.007145,-0.009015,0.082198,-0.048556,-0.012297,-0.044903,0.042847,0.007857,-0.118508,0.123194,-0.035414,0.021232,-0.086420,-0.013328,-0.005548,0.012591,-0.032823,0.029486,-0.043518,0.052759,0.002582,-0.026686,-0.031838,0.006532,0.001425,-0.033464,0.069782,0.016126,0.007489,0.085037,-0.034199,-0.006965,0.018372,-0.001300,0.053171,-0.073221,0.008040,0.003230,-0.045923,-0.032006,-0.074378,-0.023861,0.050678,0.122532,0.001652,-0.026442,-0.081780,0.028334,0.022783,0.105017,-0.019693,0.041062,0.064722,0.107173,-0.177000,0.020545,-0.022290,-0.113255,0.066789,0.057303,0.014277,0.061351,-0.023587,0.015500,0.011626,-0.035017,0.096067,-0.038365,-0.037515,0.050126,0.078889,0.005580,0.009889,-0.018322,-0.011842,0.009833,0.080563,0.017158,-0.067378,-0.056905,0.032240,-0.037351,0.010272,0.037349,0.001206,-0.025522,0.022852,-0.104326,-0.021613,0.005111,0.028688,-0.058772,-0.043742,0.081434,-0.065980,0.078456,-0.080601,0.037421,0.099180,0.012315,0.017446,-0.041085,0.027023,-0.055924,0.095767,0.046387,0.019364,0.009440,0.010332,-0.034503,-0.047597,-0.001555,-0.000242,-0.024684,0.032134,0.021432,0.048264,0.041751,0.063371
lombardo,-0.013084,0.094283,-0.002441,0.014718,-0.003510,-0.079314,0.087519,0.002547,0.017845,-0.023301,0.080100,-0.000127,0.008171,0.000328,-0.044815,-0.015105,-0.078073,-0.013543,-0.019655,0.027620,0.069089,-0.001341,0.004625,0.012819,-0.027353,-0.029591,-0.059741,-0.049211,0.000859,-0.058992,-0.027559,-0.016925,-0.042470,0.050255,-0.019591,0.039941,-0.024002,0.036579,0.017935,0.039702,0.004049,0.013257,0.049341,0.024022,0.031784,-0.003003,0.004788,0.010996,-0.062920,-0.025436,0.011467,-0.031451,-0.084897,-0.032828,0.023658,-0.040412,0.077182,-0.002712,-0.034186,0.064743,0.020355,0.028910,-0.086933,0.026025,-0.021791,-0.113362,0.026277,-0.004223,-0.035060,0.143931,0.046487,-0.028503,-0.019230,-0.016748,0.038335,0.031317,-0.001829,0.016166,-0.058188,-0.061685,0.073530,0.036131,-0.022397,0.023782,-0.047098,0.047000,0.002921,-0.014600,0.058392,-0.064089,0.066679,-0.086315,0.073017,0.041112,0.161251,0.061535,0.027715,0.002765,-0.007820,0.056623,0.000329,-0.012547,0.003032,-0.025900,0.029680,-0.016066,-0.010914,-0.055696,0.011045,-0.065612,-0.006853,0.023300,0.047396,-0.003573,-0.054355,-0.076801,-0.060672,0.029107,-0.122103,0.034287,0.000845,-0.083599,0.065713,-0.019411,0.020989,-0.076454,0.010569,0.042872,-0.008317,-0.046127,0.000772,-0.055923,0.008491,-0.038332,-0.029436,0.001343,0.073933,0.034939,-0.040071,-0.043476,-0.091934,0.071637,0.007621,0.042787,0.005068,-0.002145,0.002715,-0.060000,0.000726,0.057619,0.032197,-0.065657,0.069425,0.037542,-0.054375,-0.007874,-0.050405,0.080033,0.059970,0.017876,-0.031727,0.061678,0.014252,0.026877,0.055813,0.031598,-0.008539,-0.001375,0.060897,0.018765,0.038125,0.000809,0.022785,0.006207,-0.068403,-0.029096,-0.114568,0.057279,-0.003219,0.038289,0.017725,0.005631,0.034253,0.051734,-0.050562,0.027970,0.024543,0.065762,0.054553,-0.015754,0.002716,0.015509,0.049705,0.025030,-0.060964,-0.042149,-0.011047,0.087409,-0.048856,-0.002536,-0.186559,-0.031382,-0.019953,-0.026433,0.053299,-0.022159,0.032017,-0.088553,-0.027615,0.055031,-0.011192,-0.006278,-0.039264,0.021072,0.057485,-0.000376,-0.014085,0.014363,-0.034309,0.040301,0.048469,-0.124908,-0.030310,-0.187268,-0.049114,-0.023990,-0.047470,0.076870,-0.037437,0.005196,-0.058328,0.019636,-0.046403,-0.025045,-0.091072,-0.023280,0.078434,0.003727,0.031803,-0.043831,0.008340,-0.029256,-0.032428,0.012990,0.038218,-0.025240,0.013469,0.045611,-0.015169,0.118571,0.004917,-0.113279,-0.082081,0.007367,0.028807,-0.000734,-0.015228,0.091350,-0.021385,0.064784,0.048059,-0.002226,-0.068132,-0.042575,-0.013280,-0.008025,-0.009218,0.102794,-0.036125,-0.011226,-0.039725,0.041485,0.040669,-0.087580,0.121373,-0.033436,0.027763,-0.093100,-0.028778,0.019224,0.019877,-0.055733,0.043737,-0.025776,0.072042,-0.009086,-0.030241,-0.025952,0.033096,-0.017486,-0.043896,0.089600,0.030091,0.026978,0.065052,-0.003290,-0.006704,0.007235,-0.015819,0.071998,-0.041302,-0.032207,-0.026014,-0.060595,-0.029591,-0.064871,0.008612,0.031397,0.110236,-0.031934,-0.032155,-0.057260,-0.009918,0.019596,0.085443,-0.016313,0.004970,0.058919,0.116783,-0.200273,0.025138,-0.034370,-0.094325,0.051590,0.083839,0.015769,0.045257,-0.041708,0.004969,0.019073,-0.035107,0.096113,-0.036622,-0.037465,0.071579,0.096386,-0.032443,-0.014794,-0.054931,-0.015315,0.021079,0.078459,0.026456,-0.089610,-0.046358,0.013573,-0.029816,0.044949,0.016004,-0.003624,-0.023199,0.038923,-0.122638,-0.000711,0.001268,0.023668,-0.046508,-0.023297,0.078313,-0.062383,0.059624,-0.074166,0.050706,0.128549,-0.027356,0.018631,-0.029578,0.034104,-0.063634,0.080003,0.038143,0.029252,0.026469,0.003655,-0.022683,-0.048553,0.005910,-0.000725,-0.034276,0.025373,-0.006984,0.033713,0.069175,0.050429
sardo,-0.006362,0.078151,-0.012624,0.018914,-0.012645,-0.086784,0.118734,0.016870,-0.001053,-0.017184,0.070970,-0.016226,0.009586,0.022006,-0.020532,-0.035661,-0.037211,0.011288,0.007360,0.048294,0.077916,-0.014535,0.004583,0.023194,-0.030381,-0.042101,-0.051951,-0.042166,-0.002777,-0.047931,-0.033853,-0.003119,-0.032296,0.046227,-0.014002,0.027865,-0.027359,0.029771,0.021339,0.046302,-0.014020,0.025428,0.036132,0.008931,0.029455,-0.029198,-0.002200,0.008769,-0.056885,-0.038937,-0.014522,-0.019006,-0.058194,-0.036744,0.016466,-0.055626,0.067085,0.000427,-0.045921,0.059804,0.039762,0.018251,-0.082913,-0.012784,-0.020453,-0.101942,0.037294,0.035496,-0.048737,0.136273,0.069502,-0.029148,-0.017985,0.037463,0.054257,0.014896,-0.006125,0.013311,-0.091753,-0.074524,0.027005,0.002299,-0.044490,0.002340,-0.052277,0.035884,0.001584,-0.020222,0.070933,-0.047386,0.066872,-0.069136,0.095910,0.020521,0.149120,0.052463,0.012545,-0.005802,-0.014148,0.080958,-0.000195,0.001312,-0.005428,-0.040784,0.028509,-0.004869,0.012734,-0.079495,0.000403,-0.041149,-0.022378,0.016617,0.031501,-0.011982,-0.053789,-0.073486,-0.065055,0.034027,-0.103576,0.034181,-0.004434,-0.083528,0.081959,0.015289,0.063355,-0.078321,0.000205,0.060250,-0.017421,-0.037697,0.016490,-0.025087,-0.002700,-0.026861,-0.028772,-0.009431,0.081370,0.029559,-0.033618,-0.000339,-0.059117,0.094970,0.040506,0.059320,0.026517,0.016605,0.005568,-0.055921,-0.008434,0.064499,0.023404,-0.059627,0.062915,0.044175,-0.038603,-0.019931,-0.042691,0.075271,0.052428,0.023165,-0.048912,0.057427,0.010542,0.027784,0.050331,0.024497,-0.022053,0.014923,0.041423,0.020557,0.060854,0.010733,0.011077,0.025170,-0.048477,-0.051540,-0.122753,0.016201,-0.016245,0.020771,0.015770,0.028147,0.029678,0.033781,-0.076995,0.037061,0.018892,0.045743,0.046489,-0.019014,-0.031083,-0.008813,0.040518,0.039031,-0.060334,-0.049395,-0.000626,0.093720,-0.042621,-0.003914,-0.176486,-0.042602,-0.027066,-0.055233,0.049664,0.003679,0.036045,-0.068140,-0.011198,0.036400,-0.013692,0.012121,-0.025336,0.021533,0.054276,-0.011434,-0.015646,0.041119,-0.017469,0.027067,0.035273,-0.124914,-0.032495,-0.182022,-0.074609,-0.027064,-0.051975,0.061954,-0.042645,-0.014428,-0.065360,0.014921,-0.030904,-0.089192,-0.133059,-0.022950,0.117926,0.005885,-0.009996,-0.024194,0.007296,-0.014452,-0.055116,0.000859,0.004060,0.007890,0.042548,0.041147,-0.028734,0.133141,-0.034350,-0.116678,-0.083595,-0.002865,0.041626,0.006714,-0.022273,0.067344,-0.048645,0.037194,0.023396,0.017188,-0.070811,0.022208,0.002716,0.005415,-0.003887,0.094178,-0.014603,-0.005897,-0.059845,0.019689,0.024919,-0.104034,0.111470,-0.042853,0.014223,-0.088368,-0.036431,-0.000431,0.016267,-0.048664,0.030694,-0.036333,0.078805,-0.014405,-0.014081,-0.004114,0.005821,-0.008777,-0.059876,0.096502,0.037892,0.015552,0.072198,-0.038874,0.010176,0.011654,-0.018813,0.091145,-0.040507,-0.031262,0.006459,-0.061010,-0.044005,-0.062608,-0.021454,0.048481,0.097820,-0.024747,-0.003765,-0.040281,0.034107,0.015056,0.098807,-0.000458,0.045057,0.059802,0.112610,-0.175773,0.025711,-0.048275,-0.088809,0.086519,0.057365,0.027715,0.011118,-0.071158,0.005220,0.024705,-0.020807,0.096979,-0.060446,-0.022968,0.061435,0.082468,-0.011342,0.036126,-0.060848,0.017860,0.021876,0.082800,0.022656,-0.085345,-0.059949,0.026074,-0.031108,0.001426,0.039469,-0.004116,-0.038949,0.038771,-0.119392,0.004988,0.057046,0.011406,-0.056157,-0.009405,0.057376,-0.062381,0.057880,-0.083363,0.024307,0.090097,-0.034143,-0.009987,-0.039580,0.027291,-0.040353,0.101840,0.021752,0.022839,0.032649,0.012804,-0.033858,-0.047851,0.024543,-0.002866,-0.023688,0.031908,0.014938,0.036350,0.063172,0.061187
ligure,-0.009467,0.092166,0.001374,0.013143,0.005196,-0.090786,0.072395,0.012435,0.022458,-0.012692,0.088767,-0.013448,0.014545,0.007235,-0.020911,-0.018939,-0.044710,-0.003391,0.007560,0.032075,0.084427,-0.014083,0.001645,0.022595,-0.016310,-0.030456,-0.057283,-0.033719,-0.007612,-0.063511,-0.023441,-0.020794,-0.024858,0.050491,-0.015616,0.049578,-0.009437,0.020288,0.016971,0.051260,-0.025261,0.020405,0.033098,0.026707,0.028430,-0.007304,0.009005,0.016309,-0.078675,-0.027543,0.017639,-0.023194,-0.094291,-0.013087,0.021349,-0.024381,0.050164,0.001611,-0.033032,0.061106,0.026999,0.020396,-0.085793,0.001660,-0.037901,-0.090271,0.027449,0.003839,-0.033717,0.131206,0.049662,-0.043022,-0.017749,0.011047,0.040521,0.021654,-0.009522,0.019921,-0.055162,-0.062421,0.053038,0.014734,-0.032087,0.007632,-0.040209,0.034251,0.015938,-0.002555,0.062594,-0.046838,0.065502,-0.081114,0.075067,0.037043,0.139477,0.056973,0.013766,0.014886,0.012714,0.099160,0.017019,0.001039,-0.002374,-0.012763,0.030337,-0.007544,0.002742,-0.071264,0.004380,-0.067389,-0.024239,0.011073,0.041047,-0.010076,-0.067747,-0.072557,-0.050870,0.033995,-0.087517,0.029543,-0.012587,-0.077215,0.074897,-0.002695,0.044731,-0.077229,0.002029,0.059897,-0.014551,-0.044101,0.014486,-0.053332,-0.014557,-0.037831,-0.046073,-0.002920,0.075122,0.021982,-0.051287,-0.027485,-0.053310,0.086158,0.048288,0.059003,0.015585,0.014157,-0.005201,-0.059379,0.006525,0.048642,0.032866,-0.066680,0.086381,0.030243,-0.043439,-0.018446,-0.050484,0.065300,0.034944,0.013224,-0.066143,0.055538,0.017094,0.031614,0.064572,0.021571,-0.027123,-0.000544,0.037882,0.021779,0.029669,0.005119,0.052087,0.004625,-0.040817,-0.036729,-0.133183,0.044098,-0.017227,0.015486,0.006675,0.011255,0.015335,0.038757,-0.063214,0.046913,0.021784,0.045172,0.057553,0.005449,-0.009442,-0.005486,0.061791,0.035473,-0.066143,-0.043611,0.008778,0.102167,-0.018930,-0.018850,-0.162865,-0.024063,-0.027070,-0.036728,0.035808,-0.021717,0.048833,-0.077683,-0.046605,0.050352,-0.011807,-0.012829,-0.021841,0.025304,0.059723,-0.010566,-0.038766,0.017936,-0.043117,0.037407,0.031462,-0.136227,-0.012351,-0.184403,-0.041810,-0.020744,-0.043048,0.051097,-0.050037,0.010199,-0.055944,0.007808,-0.055983,-0.036939,-0.112652,-0.037949,0.123608,0.005068,0.026948,-0.040556,0.008469,-0.021605,-0.045193,0.006387,0.012389,-0.028334,0.011781,0.057954,-0.024021,0.135820,-0.008585,-0.100973,-0.105245,0.004356,0.027302,-0.002914,-0.019625,0.074766,-0.054657,0.083107,0.022966,0.006997,-0.076730,-0.010784,-0.023359,0.024891,0.001914,0.082563,-0.029783,-0.005698,-0.069567,0.040982,0.034053,-0.103535,0.115217,-0.035130,0.032967,-0.094879,-0.028814,0.010695,-0.005588,-0.059607,0.040254,-0.031848,0.092658,-0.024882,-0.016615,0.008550,0.047689,-0.026878,-0.049358,0.113085,0.036606,0.038409,0.096334,-0.017722,-0.013694,0.008790,-0.025893,0.090403,-0.040837,-0.014530,-0.018071,-0.046063,-0.020095,-0.066893,-0.002734,0.034818,0.112758,-0.019929,-0.043970,-0.064860,0.014625,0.025517,0.093689,0.015556,0.020345,0.056049,0.100046,-0.206036,0.016963,-0.022232,-0.060277,0.058507,0.067902,0.002227,0.039520,-0.072847,-0.010436,0.018363,-0.036193,0.102391,-0.046028,-0.034020,0.072720,0.090725,-0.022105,-0.003783,-0.053357,0.022362,0.026208,0.078278,0.003514,-0.096249,-0.041956,0.030117,-0.038679,0.024413,0.010183,-0.008897,-0.022385,0.036699,-0.098793,-0.008015,0.012840,0.017190,-0.049761,-0.031808,0.036998,-0.078222,0.063997,-0.100585,0.030657,0.112240,-0.011025,0.020083,-0.048499,0.009103,-0.061072,0.096965,0.032495,0.026279,0.018508,0.005780,-0.032700,-0.045854,0.001621,-0.002830,-0.039083,0.023596,0.009123,0.039689,0.072676,0.045577
friulano,0.003393,0.085792,0.002467,0.021301,0.010889,-0.093192,0.071949,0.006794,0.003070,-0.008919,0.074119,-0.010018,0.008677,0.000624,-0.035978,0.001087,-0.067744,-0.016808,-0.014710,0.038132,0.062255,0.004218,-0.004117,0.017895,-0.040872,-0.029565,-0.092418,-0.044321,0.011071,-0.066715,-0.024522,-0.023512,-0.035007,0.037065,-0.002534,0.043005,-0.015575,0.028539,0.017939,0.056095,0.004766,0.022486,0.043315,0.024150,0.033205,-0.008619,-0.003896,0.013879,-0.062843,-0.033455,0.010230,-0.031522,-0.077376,-0.040562,0.004209,-0.048227,0.050094,-0.014234,-0.037375,0.051692,0.033497,0.015681,-0.089014,0.015662,-0.019836,-0.095606,0.027746,0.002567,-0.000304,0.119045,0.035703,-0.014145,-0.027388,-0.009371,0.033648,0.044266,0.003664,0.011275,-0.079983,-0.066689,0.041282,0.010235,-0.024565,0.024915,-0.044391,0.033354,0.005698,-0.004432,0.038391,-0.053128,0.064677,-0.097894,0.069626,0.048525,0.143188,0.085770,0.027999,0.000005,0.032744,0.047410,0.010759,-0.019148,0.003719,-0.022222,0.034583,-0.016536,-0.009820,-0.090831,0.022537,-0.070609,0.005270,0.011628,0.055137,-0.007924,-0.063380,-0.068226,-0.060864,0.042404,-0.097395,0.038283,-0.024153,-0.092691,0.095458,-0.011651,0.046494,-0.064782,0.003130,0.059443,-0.020552,-0.076192,-0.007626,-0.056873,0.014229,-0.052156,-0.039780,-0.002388,0.081274,0.046477,-0.042915,-0.014126,-0.062238,0.082250,0.044420,0.051666,0.012898,-0.012370,-0.010793,-0.064173,-0.021314,0.035133,0.020866,-0.072349,0.086422,0.031771,-0.033450,-0.009366,-0.038226,0.077073,0.058213,0.021272,-0.046551,0.078874,0.033976,0.060227,0.052374,0.028474,-0.013540,-0.004714,0.050328,0.017650,0.039120,0.002955,0.041260,-0.015087,-0.054384,-0.017259,-0.149253,0.051184,0.005765,0.032049,0.030448,0.007635,0.028319,0.044143,-0.060502,0.023490,0.011110,0.052384,0.060659,0.003110,-0.010935,0.005726,0.050761,0.046549,-0.071936,-0.031799,-0.003949,0.076560,-0.042069,-0.005012,-0.169127,-0.035541,-0.030145,-0.032232,0.031987,-0.010751,0.048311,-0.070761,-0.013041,0.057328,-0.000172,-0.021683,-0.022731,0.004911,0.059355,-0.012583,-0.011661,-0.002834,-0.034799,0.034077,0.038485,-0.119095,-0.019235,-0.193539,-0.050918,-0.017794,-0.032840,0.038980,-0.043115,0.030653,-0.052083,0.045638,-0.073760,-0.035581,-0.104182,-0.008305,0.093299,0.013906,0.012779,-0.064469,0.010686,-0.012626,-0.039888,-0.006224,0.021153,0.001098,0.025359,0.031340,-0.018743,0.123458,-0.016435,-0.111411,-0.097332,0.001250,0.026865,0.005302,-0.018175,0.081988,-0.030743,0.057379,0.043453,0.004925,-0.066277,-0.043820,-0.017581,-0.006046,0.029780,0.092389,-0.026564,-0.011439,-0.046150,0.039154,0.009628,-0.114819,0.111100,-0.019583,0.006905,-0.071628,-0.023162,0.031369,0.022474,-0.062503,0.047227,-0.043217,0.077600,-0.028587,-0.030157,-0.021086,0.050055,-0.014045,-0.049207,0.080966,0.026715,0.023700,0.073025,-0.013420,-0.023857,0.007625,-0.003728,0.079742,-0.058587,-0.005867,-0.036824,-0.044617,-0.043790,-0.058546,0.016410,0.050191,0.118904,-0.024732,-0.030750,-0.069405,0.001298,0.035417,0.110552,-0.020251,0.032308,0.071391,0.118922,-0.193480,0.024129,-0.041038,-0.093929,0.058356,0.069273,0.022278,0.042216,-0.029292,-0.004988,0.009381,-0.047237,0.092911,-0.039784,-0.018066,0.069938,0.070370,-0.017187,-0.010576,-0.052409,0.002211,0.010141,0.094092,0.018632,-0.058468,-0.026491,0.025019,-0.025274,0.023777,0.033331,0.008150,-0.021550,0.028087,-0.126965,-0.001369,0.016358,0.027784,-0.055996,-0.020111,0.053066,-0.064672,0.074776,-0.088701,0.052519,0.113731,-0.026443,0.015016,-0.041750,0.033759,-0.032129,0.097831,0.050006,0.011337,0.022040,-0.012779,-0.021780,-0.056564,0.006842,-0.021778,-0.026611,0.027650,-0.004889,0.029938,0.051990,0.057757
ladino,-0.024346,0.092742,0.019395,0.015769,0.014729,-0.075047,0.125965,0.011197,0.019223,0.007792,0.093955,-0.047712,-0.007929,0.015293,-0.023905,-0.015461,-0.040741,0.011836,0.005701,0.026643,0.115338,0.020160,-0.003458,0.018253,-0.042334,-0.025073,-0.046038,-0.022622,0.021722,-0.052711,-0.013999,0.009070,-0.034707,0.066700,-0.013837,0.034936,-0.042001,-0.007942,-0.000190,0.035179,-0.022002,0.008032,0.026886,0.026926,0.045110,-0.001710,0.009380,0.004403,-0.061853,-0.027736,-0.004227,-0.043739,-0.090116,-0.030504,0.038989,-0.019373,0.082893,0.014832,-0.046945,0.080526,0.045612,0.028258,-0.118203,0.006762,-0.040188,-0.092489,0.028293,0.006697,-0.060595,0.093749,0.047143,-0.044324,-0.008510,-0.006328,0.045154,0.026472,0.000189,-0.003741,-0.100898,-0.074356,0.063753,0.016390,-0.031237,0.011020,-0.028222,0.052456,-0.000701,-0.009294,0.065003,-0.054756,0.067763,-0.080700,0.062746,0.033846,0.160464,0.052784,0.009121,-0.031485,-0.005638,0.118743,-0.000727,0.007893,0.000850,-0.002895,0.007676,0.001222,0.017699,-0.040755,0.008807,-0.037658,-0.028047,0.009195,0.042555,-0.024301,-0.081491,-0.085228,-0.036090,0.021366,-0.078063,0.017451,-0.001123,-0.072951,0.064708,0.003981,0.034637,-0.108557,0.008134,0.048364,-0.021114,-0.008196,0.023754,-0.047616,0.002088,-0.032979,-0.048967,0.000592,0.076251,0.022207,-0.068258,-0.046093,-0.106481,0.067890,0.042455,0.015299,0.015329,-0.020994,-0.004139,-0.061655,-0.007790,0.045338,0.025032,-0.067138,0.065250,0.033497,-0.045512,-0.030022,-0.010666,0.067450,0.059364,0.033446,-0.061634,0.049337,0.005334,0.024616,0.032371,0.042699,-0.018854,0.021185,0.035121,0.023937,0.031002,-0.001435,0.039395,0.048885,-0.035803,-0.037828,-0.085649,0.025897,-0.008603,0.009041,-0.013541,0.021223,0.022036,0.043200,-0.062558,0.051882,-0.014768,0.055228,0.052987,-0.006511,0.009075,0.000193,0.038969,0.037538,-0.053547,-0.041653,0.010350,0.080981,-0.050436,0.014171,-0.137051,-0.016179,-0.032521,-0.040218,0.054838,-0.008272,0.056608,-0.059805,-0.055947,0.038712,-0.011340,0.005722,-0.030165,0.034445,0.064849,-0.014201,-0.005338,0.018123,-0.062681,0.057354,0.053428,-0.149239,-0.014772,-0.176871,-0.037363,-0.007614,-0.066296,0.063606,-0.028422,-0.019834,-0.068826,0.024007,-0.021847,-0.046662,-0.122267,-0.016312,0.114080,0.006876,0.043056,-0.036558,0.002996,-0.023701,-0.051621,0.045328,0.002825,-0.016586,0.024124,0.065405,-0.012703,0.109711,-0.018175,-0.079823,-0.068222,-0.005480,0.056090,-0.019329,-0.021002,0.065476,-0.041070,0.038053,0.046232,-0.010507,-0.103378,0.008534,0.003930,0.015085,-0.014056,0.079336,-0.029912,-0.008969,-0.058715,-0.009068,0.022990,-0.100815,0.147619,-0.039386,0.024432,-0.085976,-0.020533,0.027091,0.014904,-0.052149,0.002659,-0.025228,0.091718,0.018845,-0.029658,-0.017637,0.017448,-0.012314,-0.052489,0.073451,0.049687,0.021532,0.064675,-0.007943,-0.025532,0.003043,-0.019284,0.061428,-0.033495,-0.002819,-0.015054,-0.070707,-0.023611,-0.078554,0.009327,0.036068,0.109777,-0.024803,-0.013754,-0.049053,-0.002349,0.020028,0.062713,0.005954,0.016020,0.073513,0.101562,-0.191329,0.006167,-0.056203,-0.116806,0.045371,0.065476,0.006024,0.027432,-0.079682,0.014150,0.005406,-0.021553,0.092802,-0.086620,-0.005636,0.069793,0.101276,-0.027090,0.008921,-0.038304,-0.019473,0.036757,0.067886,0.013495,-0.103525,-0.038918,0.021160,-0.051294,0.010729,0.023889,-0.022515,-0.007030,0.047503,-0.126282,-0.006532,0.015438,0.033985,-0.028797,-0.022291,0.055266,-0.033795,0.077695,-0.069390,0.040183,0.115834,-0.033929,0.008120,-0.021107,0.023117,-0.051054,0.088134,0.006484,0.003268,0.029787,0.020866,-0.028428,-0.042883,0.001145,-0.006247,-0.060573,0.040648,0.027368,0.037078,0.049453,0.071733
italiano,0.036551,0.037216,-0.012574,0.018180,0.059372,-0.061076,-0.023556,0.001126,0.025251,0.027264,0.058672,0.043058,0.040187,0.033586,0.010853,-0.002524,-0.017542,-0.076102,-0.036641,0.037638,0.012866,-0.068529,-0.002712,0.046520,-0.003391,-0.017169,-0.045697,-0.044738,-0.025764,-0.050056,-0.064274,-0.029406,-0.004142,0.022321,-0.010314,0.050092,0.003263,0.031095,0.036066,0.047306,-0.005186,0.012570,0.070360,0.013253,0.026705,0.014155,0.018746,0.022508,-0.100655,-0.024788,0.041957,-0.020712,-0.083584,-0.016539,-0.019171,-0.025083,-0.000691,-0.050486,-0.047777,-0.000521,0.039425,-0.031499,0.025651,-0.023503,0.012927,-0.032562,-0.005250,0.017337,0.009293,0.099523,-0.015253,0.005762,-0.030803,-0.021338,0.021108,-0.005394,0.005803,0.070715,-0.011824,-0.022561,0.101814,0.054530,-0.018123,0.000405,-0.064456,-0.016149,0.001471,0.012185,0.023857,-0.063844,0.038142,0.009264,0.065348,0.046883,0.038836,0.039701,0.007595,0.001321,0.034656,-0.011484,0.018396,0.029291,-0.020826,-0.033398,0.065676,0.002393,-0.045245,-0.111544,-0.005131,-0.023599,-0.010189,0.014243,0.021130,0.008705,-0.077389,-0.027303,-0.050663,0.030688,-0.055291,0.063977,-0.059761,-0.150176,0.102149,-0.027086,0.103008,-0.033888,-0.044794,0.008610,-0.022592,-0.114355,-0.013223,-0.049662,-0.027200,-0.025000,-0.027708,-0.055640,0.054559,-0.014685,-0.029725,0.059977,0.074054,0.134182,0.146450,0.091673,0.001230,0.079863,-0.024567,-0.029404,0.007904,-0.026525,0.101563,-0.018218,0.103325,-0.011018,-0.019157,0.003376,-0.035435,-0.004931,-0.009724,0.042393,-0.028647,0.060730,0.010333,0.058108,0.003182,0.017338,-0.014935,-0.050876,0.034289,0.010864,0.008480,-0.019517,0.011054,-0.052124,-0.007792,-0.041138,-0.167076,0.075276,-0.042557,-0.021734,0.006833,-0.048714,0.027215,0.006320,-0.023266,-0.004837,0.023661,-0.013587,0.045539,0.016090,-0.050610,0.006281,0.145476,0.041651,-0.032912,0.000578,0.014788,0.073435,0.014029,-0.033910,-0.175276,-0.006984,-0.035277,-0.039886,0.020256,-0.047182,0.111597,-0.045979,-0.007030,0.062739,0.019796,0.005068,-0.015257,-0.001022,0.047352,-0.010883,-0.083583,0.046063,-0.071820,0.056171,-0.004298,-0.046015,-0.010321,-0.120163,-0.100866,-0.024843,-0.030622,0.019647,-0.034864,0.017537,-0.044199,-0.059100,-0.081390,0.010654,-0.177475,-0.070161,0.099138,0.031725,-0.017410,-0.083645,0.002712,-0.011834,-0.044841,-0.021240,0.046528,0.015366,-0.042711,-0.036371,-0.033561,0.081190,-0.024833,-0.161346,-0.087397,-0.045800,-0.058515,0.024064,-0.033538,0.020497,-0.038518,0.133419,0.019437,0.040802,-0.023591,0.060523,0.011864,0.008664,0.022606,-0.024096,-0.013471,0.018579,-0.011478,0.033427,-0.018518,-0.091448,0.111822,-0.032892,-0.031197,-0.025559,0.007664,0.043901,-0.014040,-0.020355,0.043453,-0.038339,0.060385,-0.095530,-0.023405,0.042432,0.054514,-0.016604,-0.025354,0.110785,0.034394,0.033615,0.050302,-0.071511,-0.057830,0.030152,-0.005138,0.114346,0.022975,0.041698,-0.033723,-0.010869,0.012781,-0.019633,0.061933,0.059055,0.087783,-0.004267,-0.050781,-0.168315,-0.025567,0.047780,0.077121,-0.019968,-0.029003,0.022395,0.055306,-0.120055,0.018906,0.009553,-0.000760,0.052739,0.009037,0.001331,0.098911,0.004841,-0.031251,0.001109,-0.048201,0.097691,0.012013,-0.035162,0.020373,0.088282,-0.027568,0.006363,-0.010084,0.080220,0.061162,0.076639,-0.036704,-0.023306,0.020698,0.025117,0.034490,0.086602,-0.007454,-0.033042,-0.012068,-0.012136,-0.057550,-0.014675,0.057058,-0.041737,-0.059778,-0.024461,0.003489,-0.105583,0.036008,-0.071560,0.021509,0.079250,0.031615,-0.001451,-0.073424,0.004226,-0.052353,0.056117,0.007034,-0.011228,0.003222,-0.003773,0.027484,-0.009213,0.017869,0.016442,0.031616,0.046877,0.006598,0.066385,0.028482,0.012204
spagnolo,0.037930,0.039828,-0.012801,0.015297,0.048047,-0.063527,-0.017905,0.007498,0.016991,0.022309,0.057800,0.048549,0.038565,0.032602,0.013829,0.003814,-0.018450,-0.074476,-0.040281,0.032401,0.009814,-0.075120,-0.001784,0.043173,0.000246,-0.017518,-0.042581,-0.041272,-0.024785,-0.058402,-0.063399,-0.022796,-0.009261,0.018440,-0.007794,0.056006,0.000157,0.025357,0.040695,0.045677,0.002560,0.015105,0.066503,0.013356,0.028108,0.009532,0.022160,0.023143,-0.097808,-0.024753,0.038549,-0.027610,-0.071912,-0.026609,-0.024879,-0.021069,0.002465,-0.050484,-0.050189,-0.008953,0.038638,-0.033419,0.024351,-0.029217,0.011095,-0.039438,-0.004813,0.021768,0.010063,0.095909,-0.008632,0.001211,-0.030550,-0.015997,0.023889,-0.005448,0.004652,0.074563,-0.016615,-0.022535,0.099159,0.056585,-0.021162,-0.000737,-0.057401,-0.023221,0.004741,0.001912,0.025715,-0.061997,0.044687,0.006698,0.062498,0.045673,0.042299,0.039815,0.012575,0.003291,0.035527,-0.021109,0.029002,0.034620,-0.020025,-0.034262,0.060653,0.004264,-0.047477,-0.110113,-0.000881,-0.021524,-0.007624,0.012511,0.022015,0.006150,-0.076472,-0.022656,-0.057504,0.036251,-0.060538,0.060766,-0.066519,-0.154088,0.105295,-0.023911,0.101120,-0.034349,-0.041346,0.007778,-0.017641,-0.113696,-0.009926,-0.050736,-0.024870,-0.026870,-0.027276,-0.052984,0.060041,-0.020726,-0.043461,0.066272,0.079108,0.131889,0.144395,0.095647,-0.001485,0.081123,-0.027901,-0.031064,0.008901,-0.026812,0.096231,-0.008705,0.104141,-0.008238,-0.016528,0.013007,-0.042294,-0.004431,-0.010655,0.041874,-0.029500,0.063960,0.009262,0.066010,-0.000920,0.018668,-0.015145,-0.045721,0.031954,0.008319,0.011439,-0.016053,0.006192,-0.054209,-0.004963,-0.040985,-0.165837,0.076570,-0.046421,-0.025336,0.010564,-0.043250,0.033087,0.010303,-0.028298,0.000069,0.027734,-0.017250,0.051626,0.011938,-0.049376,0.009495,0.144563,0.042301,-0.032584,-0.000575,0.015912,0.077064,0.013045,-0.033197,-0.176981,-0.012533,-0.034889,-0.045385,0.013627,-0.052713,0.106949,-0.039200,-0.000484,0.058210,0.022586,0.005277,-0.007876,-0.000054,0.046731,-0.011580,-0.087164,0.047673,-0.070384,0.050489,-0.003413,-0.039680,-0.005214,-0.118942,-0.099955,-0.022942,-0.023735,0.010470,-0.032127,0.019340,-0.039319,-0.057286,-0.078608,0.005048,-0.177292,-0.068669,0.099799,0.030769,-0.018365,-0.087711,0.009418,-0.009159,-0.041466,-0.013858,0.046612,0.018208,-0.043672,-0.037842,-0.032622,0.079138,-0.021557,-0.163286,-0.092383,-0.044629,-0.057966,0.025229,-0.033427,0.030519,-0.039503,0.138599,0.010519,0.042525,-0.014579,0.064595,0.011576,0.004731,0.022714,-0.020135,-0.012278,0.018044,-0.012864,0.032510,-0.023947,-0.091265,0.106423,-0.033542,-0.029519,-0.023171,0.009351,0.042757,-0.015141,-0.018856,0.042303,-0.042089,0.067284,-0.105492,-0.026639,0.044681,0.051705,-0.019518,-0.020025,0.113416,0.032422,0.031965,0.049900,-0.071265,-0.057198,0.036130,-0.004667,0.117242,0.017803,0.037179,-0.037377,-0.010986,0.006108,-0.025671,0.052446,0.054089,0.088548,0.000694,-0.051186,-0.168283,-0.022361,0.053911,0.075103,-0.017432,-0.020533,0.019164,0.054736,-0.117360,0.019616,0.009241,0.002720,0.053737,0.012121,-0.002345,0.092556,0.003915,-0.029028,0.017397,-0.049001,0.097548,0.010570,-0.031434,0.021986,0.081649,-0.024368,0.016052,-0.008665,0.078036,0.060322,0.075583,-0.042009,-0.025528,0.024628,0.026792,0.033793,0.088459,-0.010515,-0.034480,-0.013081,-0.016404,-0.058833,-0.015761,0.055805,-0.041410,-0.060800,-0.023964,0.000261,-0.112730,0.033178,-0.057054,0.023002,0.070628,0.027303,-0.001880,-0.072501,-0.001951,-0.046606,0.058601,0.004361,-0.011411,0.003230,-0.007012,0.027098,-0.007524,0.019775,0.014606,0.027292,0.048944,0.002249,0.065687,0.023324,0.011776
francese,0.036809,0.037894,-0.012178,0.017378,0.055834,-0.064518,-0.023990,0.001317,0.027518,0.022403,0.061888,0.050963,0.041873,0.038682,0.005612,-0.000059,-0.026238,-0.075162,-0.040670,0.030768,0.008679,-0.069058,-0.004392,0.050265,0.001724,-0.012262,-0.049172,-0.043124,-0.028641,-0.051181,-0.066541,-0.032287,-0.010867,0.026749,-0.007864,0.056295,0.005946,0.027803,0.034257,0.042692,-0.002360,0.010833,0.072917,0.011777,0.033989,0.019668,0.026553,0.021635,-0.087193,-0.024993,0.036366,-0.024998,-0.080702,-0.026272,-0.015816,-0.033223,-0.000925,-0.051192,-0.049298,0.001986,0.037327,-0.033756,0.030845,-0.017937,0.008520,-0.037299,-0.003032,0.019899,0.002067,0.106122,-0.011206,-0.000105,-0.031132,-0.014198,0.019152,-0.008457,0.003664,0.061621,-0.012103,-0.016452,0.100772,0.048833,-0.017705,0.000130,-0.059706,-0.025207,-0.000256,0.001027,0.025531,-0.066223,0.036245,0.005840,0.073724,0.044631,0.046528,0.044360,0.012706,0.002494,0.031578,-0.012598,0.024018,0.025964,-0.016165,-0.040628,0.065925,0.003084,-0.048356,-0.107196,0.002566,-0.023670,-0.012310,0.011016,0.025059,0.004251,-0.080726,-0.028155,-0.056842,0.030279,-0.064571,0.064435,-0.059560,-0.156324,0.102196,-0.027212,0.103893,-0.033834,-0.037295,0.012876,-0.014390,-0.114423,-0.011575,-0.046168,-0.028973,-0.027042,-0.027182,-0.051728,0.053064,-0.012054,-0.033244,0.058280,0.067730,0.135934,0.139833,0.091294,-0.003400,0.075745,-0.025498,-0.027055,0.006503,-0.030691,0.105482,-0.012698,0.107542,-0.009418,-0.019698,0.005953,-0.026292,-0.001843,-0.009333,0.036803,-0.017704,0.062413,0.003661,0.056772,0.004934,0.017501,-0.020672,-0.052181,0.034226,0.011614,0.004300,-0.022498,0.014510,-0.046866,-0.009989,-0.038294,-0.167211,0.069682,-0.043417,-0.021963,0.002063,-0.040130,0.033594,0.012026,-0.026760,0.000933,0.021809,-0.015417,0.047911,0.015779,-0.044503,0.005992,0.141750,0.031250,-0.026649,0.002680,0.012540,0.073341,0.018364,-0.031922,-0.174558,-0.011492,-0.030453,-0.042220,0.022585,-0.053301,0.108211,-0.045585,-0.005734,0.062978,0.016573,0.014235,-0.013552,0.006175,0.043930,-0.008975,-0.091848,0.044670,-0.076936,0.058886,0.006827,-0.050668,-0.019461,-0.119708,-0.098247,-0.029172,-0.028923,0.020932,-0.027642,0.015421,-0.046418,-0.056052,-0.079150,0.015797,-0.172343,-0.070560,0.095856,0.028642,-0.012498,-0.079214,0.007079,-0.017570,-0.042111,-0.014448,0.046219,0.015837,-0.045811,-0.033946,-0.035214,0.084245,-0.027268,-0.162245,-0.085989,-0.041794,-0.057074,0.027849,-0.029489,0.030581,-0.038854,0.132542,0.014918,0.034054,-0.021863,0.050172,0.007132,0.006875,0.019260,-0.018725,-0.013993,0.016446,-0.020402,0.034749,-0.016549,-0.091526,0.111203,-0.031623,-0.033110,-0.033089,0.005333,0.037354,-0.011077,-0.018191,0.043455,-0.040108,0.059328,-0.100399,-0.026257,0.050748,0.050242,-0.018285,-0.018704,0.118554,0.030812,0.038386,0.050824,-0.069758,-0.066166,0.031993,-0.003546,0.120309,0.017903,0.044152,-0.035174,-0.015850,0.011363,-0.027616,0.059102,0.059272,0.084660,-0.004985,-0.053781,-0.162399,-0.023243,0.052920,0.079684,-0.022164,-0.026108,0.026236,0.060612,-0.120702,0.018068,0.011276,-0.000285,0.053113,0.010524,-0.006133,0.099545,0.013644,-0.031622,0.002328,-0.051354,0.099076,0.005303,-0.037691,0.019264,0.083173,-0.036024,0.005499,-0.005346,0.077892,0.057021,0.079703,-0.037595,-0.025016,0.021068,0.026294,0.036786,0.080151,-0.004813,-0.032061,-0.007144,-0.010381,-0.060975,-0.013548,0.060583,-0.044061,-0.063090,-0.027307,0.006456,-0.112352,0.035471,-0.057424,0.022842,0.077334,0.031758,-0.000621,-0.071323,0.004330,-0.056790,0.055930,0.009823,-0.010012,0.001401,-0.009069,0.026871,-0.009591,0.013426,0.015854,0.031446,0.049246,0.017146,0.064251,0.030180,0.005692
catalano,0.036744,0.034321,-0.005952,0.019461,0.051955,-0.064654,-0.030878,-0.002999,0.024468,0.020023,0.060698,0.045287,0.040991,0.038200,0.009691,0.001205,-0.024526,-0.067772,-0.037409,0.032947,0.003444,-0.075513,-0.006272,0.048469,0.008500,-0.011794,-0.045839,-0.041217,-0.028996,-0.057041,-0.067011,-0.033675,-0.011297,0.027957,-0.006052,0.055563,0.000843,0.026948,0.033232,0.043553,-0.003882,0.013932,0.070026,0.014139,0.033301,0.013482,0.023363,0.017896,-0.085198,-0.030803,0.040563,-0.025429,-0.081507,-0.020198,-0.024002,-0.035108,-0.002306,-0.052439,-0.050857,-0.002346,0.032297,-0.033441,0.031754,-0.018674,0.005369,-0.034397,-0.003224,0.018945,0.003890,0.093514,-0.016522,0.002192,-0.033085,-0.014669,0.023721,0.004388,0.004587,0.067356,-0.013028,-0.017740,0.095497,0.047006,-0.025626,0.005313,-0.060232,-0.016323,0.000153,0.001257,0.020830,-0.068108,0.040957,0.003516,0.063913,0.052969,0.043399,0.039535,0.016643,0.004322,0.034451,-0.017609,0.027807,0.023605,-0.011235,-0.036698,0.069090,0.001380,-0.039536,-0.110667,0.005330,-0.031880,-0.005937,0.009424,0.029202,0.002554,-0.080499,-0.033940,-0.060080,0.037364,-0.064091,0.062414,-0.062506,-0.156212,0.099021,-0.023463,0.108022,-0.039065,-0.042431,0.015835,-0.007888,-0.111287,-0.011160,-0.046754,-0.020936,-0.027412,-0.025726,-0.052568,0.053701,-0.009652,-0.037817,0.060686,0.065062,0.138827,0.145478,0.089057,-0.004653,0.073596,-0.028194,-0.027036,0.003286,-0.026552,0.099255,-0.011198,0.107251,-0.009109,-0.021486,0.011162,-0.033501,0.001616,-0.014548,0.034288,-0.023544,0.068168,0.011391,0.060414,0.008499,0.016085,-0.019204,-0.046243,0.033109,0.007393,0.002302,-0.022001,0.012592,-0.054634,-0.001595,-0.038651,-0.171849,0.076165,-0.040808,-0.018402,-0.004485,-0.038495,0.036129,0.012064,-0.028670,-0.003950,0.027400,-0.017549,0.053465,0.009730,-0.043601,0.004171,0.143904,0.037077,-0.030049,0.007508,0.010615,0.074623,0.020590,-0.040129,-0.173422,-0.014423,-0.030790,-0.040208,0.024012,-0.054456,0.111302,-0.046856,-0.007613,0.063768,0.012259,0.008935,-0.010557,0.005563,0.047528,-0.006235,-0.089620,0.035754,-0.071535,0.057644,0.004266,-0.048057,-0.014117,-0.119999,-0.098772,-0.035536,-0.027196,0.019599,-0.028242,0.016789,-0.036030,-0.045664,-0.086838,0.021515,-0.175587,-0.065873,0.095863,0.030440,-0.005183,-0.079223,0.010078,-0.007974,-0.040722,-0.012829,0.043549,0.022537,-0.052750,-0.038296,-0.027221,0.083020,-0.026161,-0.154910,-0.089482,-0.042653,-0.061913,0.023334,-0.028204,0.026688,-0.041115,0.133393,0.015049,0.032532,-0.022666,0.040655,0.003281,0.002940,0.020972,-0.011114,-0.015637,0.014093,-0.019788,0.040240,-0.024547,-0.087510,0.109186,-0.035158,-0.026651,-0.029977,0.008985,0.036642,-0.020917,-0.018953,0.040597,-0.041858,0.071934,-0.103366,-0.028265,0.050115,0.055897,-0.018138,-0.024099,0.117781,0.020256,0.037042,0.052705,-0.071039,-0.064303,0.033639,0.003452,0.120088,0.016881,0.047475,-0.036393,-0.011995,0.003134,-0.027411,0.054322,0.057749,0.090972,0.000027,-0.050904,-0.155187,-0.024894,0.052316,0.085110,-0.021311,-0.018864,0.028326,0.056109,-0.123218,0.022746,0.014262,0.002148,0.047201,0.014207,-0.002794,0.103053,0.010844,-0.027337,0.012145,-0.043963,0.097731,0.002793,-0.035913,0.019660,0.080621,-0.031305,0.008156,-0.004437,0.074865,0.055310,0.077198,-0.034108,-0.028056,0.028852,0.026992,0.035596,0.088022,-0.002048,-0.037032,-0.009053,-0.018217,-0.065485,-0.013022,0.058847,-0.035959,-0.065730,-0.025418,0.004174,-0.107400,0.031998,-0.066247,0.028406,0.069440,0.031375,0.001774,-0.073548,-0.001028,-0.055227,0.057592,0.012591,-0.019584,-0.003106,-0.008612,0.028804,-0.010006,0.012637,0.018376,0.029031,0.051903,0.010803,0.066017,0.024328,0.010466
tedesco,0.042373,0.040321,-0.013253,0.025519,0.064127,-0.058545,-0.020506,-0.002562,0.024588,0.022426,0.061025,0.050317,0.041463,0.032514,0.011783,0.008577,-0.014925,-0.067247,-0.036304,0.031320,0.005411,-0.073240,-0.002695,0.052713,0.002972,-0.010933,-0.050855,-0.040402,-0.030426,-0.056236,-0.063858,-0.026632,-0.006958,0.025327,-0.004404,0.053920,0.003242,0.029116,0.031355,0.043257,-0.005376,0.017504,0.075875,0.019527,0.028311,0.013288,0.020850,0.016553,-0.094019,-0.024451,0.033811,-0.026895,-0.079371,-0.023363,-0.015933,-0.026663,-0.001497,-0.041698,-0.053986,0.001834,0.033332,-0.034845,0.023481,-0.013817,0.006550,-0.033647,-0.005298,0.023505,-0.000063,0.097331,-0.012758,0.004118,-0.030947,-0.017485,0.023125,-0.001330,0.002406,0.065533,-0.018691,-0.021495,0.096198,0.039203,-0.022808,-0.001308,-0.055058,-0.018600,-0.001886,-0.001804,0.017320,-0.067489,0.038995,0.001280,0.073243,0.046221,0.049944,0.043988,0.010245,0.004584,0.034096,-0.009853,0.027393,0.026044,-0.013489,-0.035145,0.059005,-0.003782,-0.044665,-0.109108,-0.001184,-0.023823,-0.006709,0.013563,0.024417,0.003113,-0.077560,-0.034167,-0.054164,0.033107,-0.058673,0.066076,-0.064052,-0.147344,0.100287,-0.024085,0.101771,-0.040300,-0.039250,0.013597,-0.016375,-0.112273,-0.007398,-0.047095,-0.026237,-0.030529,-0.032366,-0.061672,0.058312,-0.008308,-0.032874,0.058790,0.067481,0.138420,0.148745,0.084242,-0.004497,0.069938,-0.025006,-0.029718,0.005820,-0.026078,0.095532,-0.012740,0.103721,-0.010466,-0.023925,0.009910,-0.027290,0.001572,-0.012939,0.038375,-0.029573,0.061554,0.003616,0.056130,0.001051,0.013902,-0.019225,-0.046495,0.028164,0.010991,0.001222,-0.021733,0.020594,-0.045716,-0.009325,-0.040546,-0.165245,0.072898,-0.041973,-0.023010,0.003489,-0.040535,0.029671,0.005238,-0.025080,0.001320,0.024499,-0.015807,0.047675,0.020866,-0.046283,0.005648,0.146106,0.036643,-0.031687,0.005257,0.005407,0.072134,0.016177,-0.031568,-0.176897,-0.004248,-0.029971,-0.042678,0.019605,-0.047772,0.115234,-0.051023,0.000651,0.061695,0.014175,0.011217,-0.012902,0.000052,0.045182,-0.008505,-0.090738,0.044780,-0.078872,0.064035,0.005378,-0.051562,-0.017653,-0.125062,-0.097375,-0.028736,-0.028522,0.025699,-0.026555,0.015316,-0.040042,-0.057500,-0.076003,0.017631,-0.177692,-0.072679,0.092462,0.032093,-0.009548,-0.089094,0.007709,-0.015009,-0.044635,-0.012592,0.051880,0.016073,-0.047511,-0.031572,-0.034688,0.084371,-0.027505,-0.159179,-0.078870,-0.046803,-0.057528,0.024003,-0.025909,0.032189,-0.036638,0.130413,0.012080,0.028104,-0.026438,0.058405,0.007144,0.006422,0.017298,-0.018567,-0.014273,0.020157,-0.022531,0.031181,-0.025856,-0.093040,0.106903,-0.033761,-0.031717,-0.029920,0.004426,0.037377,-0.010100,-0.021341,0.048461,-0.037221,0.063503,-0.104748,-0.024651,0.048786,0.056643,-0.014375,-0.021358,0.112769,0.034417,0.031859,0.050136,-0.071129,-0.068050,0.027118,-0.002093,0.119703,0.022699,0.049530,-0.037689,-0.014365,0.015751,-0.034701,0.061322,0.059530,0.084122,-0.006555,-0.056758,-0.162301,-0.023294,0.053566,0.084170,-0.019388,-0.018470,0.028833,0.060747,-0.126881,0.017482,0.006398,-0.006861,0.051426,0.012424,0.000386,0.096148,0.006620,-0.030293,0.004173,-0.045408,0.097532,-0.000529,-0.036128,0.024292,0.090638,-0.035962,0.002305,-0.000765,0.081914,0.060934,0.080207,-0.038765,-0.026343,0.021621,0.033023,0.029110,0.084431,-0.005098,-0.033868,-0.010756,-0.014332,-0.064874,-0.012302,0.054976,-0.042721,-0.059951,-0.018651,0.008819,-0.104233,0.034260,-0.062532,0.017230,0.078308,0.028757,-0.006150,-0.068641,0.005163,-0.058879,0.056100,0.007858,-0.010847,0.002538,-0.006690,0.028503,-0.008817,0.014308,0.011586,0.025948,0.045119,0.017936,0.071997,0.026247,0.015365
inglese,0.043062,0.023138,-0.005752,0.028239,0.053750,-0.063174,-0.033255,-0.004651,0.021663,0.024651,0.055227,0.043029,0.035404,0.046617,0.019545,-0.003426,-0.011481,-0.074890,-0.036843,0.028485,-0.003586,-0.074783,-0.007190,0.052079,-0.007122,-0.012648,-0.038424,-0.037842,-0.032240,-0.044118,-0.063034,-0.021375,-0.006127,0.028175,-0.013096,0.066958,-0.000195,0.023804,0.033305,0.047837,-0.002541,0.024503,0.081406,0.009039,0.032169,0.012242,0.026237,0.017824,-0.090740,-0.023675,0.039571,-0.026318,-0.078656,-0.028865,-0.027106,-0.022465,-0.005801,-0.049841,-0.056204,-0.002194,0.037786,-0.041137,0.048593,-0.025371,0.006044,-0.035214,-0.009376,0.023989,0.011532,0.081909,-0.021286,-0.000218,-0.036193,-0.009945,0.022214,-0.004500,0.004882,0.073067,-0.008656,-0.011314,0.095854,0.038094,-0.022056,-0.010983,-0.054546,-0.023698,-0.003025,0.001485,0.020900,-0.063213,0.054026,0.011032,0.062887,0.053825,0.031982,0.043553,0.012365,0.002944,0.024091,-0.024393,0.037470,0.029151,-0.011456,-0.022711,0.075312,0.007245,-0.035867,-0.107426,0.005341,-0.016786,-0.011675,0.022356,0.023361,0.007100,-0.090904,-0.027323,-0.048703,0.033371,-0.066828,0.069815,-0.062881,-0.163952,0.098754,-0.024467,0.102291,-0.030340,-0.050863,0.008936,-0.016221,-0.121496,-0.007355,-0.045593,-0.026311,-0.030521,-0.028945,-0.058161,0.045644,-0.013676,-0.039521,0.048037,0.074181,0.135650,0.145243,0.086041,-0.009216,0.073414,-0.036022,-0.028830,-0.000368,-0.025160,0.102526,-0.016130,0.104284,-0.011283,-0.018919,0.005270,-0.026593,-0.010945,-0.018892,0.035303,-0.030390,0.061982,-0.001624,0.060920,0.003643,0.015586,-0.022071,-0.050403,0.029371,0.002370,-0.007358,-0.019108,0.017276,-0.051749,-0.004923,-0.029307,-0.169083,0.070170,-0.048857,-0.029294,0.012075,-0.044649,0.029181,0.003492,-0.012935,-0.007154,0.030233,-0.022842,0.055327,0.017393,-0.044213,0.003538,0.142538,0.029121,-0.019984,0.013557,0.013429,0.070420,0.022839,-0.035785,-0.163429,-0.002777,-0.021328,-0.049499,0.010108,-0.056453,0.119958,-0.037300,0.001043,0.069996,0.016378,0.016061,-0.018788,0.005260,0.047492,-0.001006,-0.081419,0.038259,-0.071874,0.058839,-0.004590,-0.041378,-0.012490,-0.104903,-0.105960,-0.037214,-0.018601,0.024936,-0.023995,0.013224,-0.033228,-0.060064,-0.077239,0.019130,-0.172867,-0.065636,0.097773,0.026123,0.004104,-0.078967,-0.000934,-0.008964,-0.042665,-0.017809,0.038675,0.013049,-0.060102,-0.047239,-0.037676,0.074953,-0.026908,-0.160686,-0.081649,-0.037587,-0.056603,0.017254,-0.025770,0.025867,-0.042252,0.135089,0.004588,0.032225,-0.020115,0.055137,0.011953,0.006929,0.028989,-0.026589,-0.014353,0.014400,-0.018137,0.045042,-0.024204,-0.092356,0.118911,-0.025261,-0.037647,-0.019780,0.008433,0.038356,-0.019410,-0.009537,0.034887,-0.039473,0.058768,-0.104456,-0.028457,0.055178,0.054331,-0.022130,-0.019605,0.107411,0.024522,0.034230,0.055784,-0.070061,-0.069690,0.037109,0.006427,0.120108,0.027127,0.054045,-0.036934,-0.008657,0.008140,-0.022178,0.057179,0.058699,0.076191,-0.006546,-0.059600,-0.161924,-0.030545,0.047246,0.080829,-0.021013,-0.028134,0.026365,0.063443,-0.107179,0.020154,0.009994,0.006333,0.053832,-0.002050,-0.007553,0.105016,0.013742,-0.026680,0.008781,-0.059046,0.099680,0.005687,-0.032649,0.013258,0.078703,-0.031809,0.015633,0.006529,0.084518,0.050183,0.069530,-0.043109,-0.009078,0.025183,0.023463,0.034603,0.096074,0.001351,-0.040910,-0.001954,-0.019990,-0.050112,-0.016472,0.063872,-0.049316,-0.055332,-0.034281,0.004430,-0.103884,0.029205,-0.077800,0.023631,0.063415,0.034443,0.002834,-0.069919,-0.002025,-0.060248,0.063908,0.011767,-0.014205,-0.000397,-0.016993,0.029146,-0.002343,0.011680,0.016008,0.037572,0.051159,0.012281,0.061410,0.022837,0.000426
greco,0.045336,0.045014,-0.006153,0.015344,0.049134,-0.063279,-0.004324,0.005208,0.030907,0.021777,0.063770,0.027325,0.044686,0.029225,0.008778,0.005129,-0.026315,-0.062145,-0.051399,0.019136,0.010321,-0.073628,-0.004414,0.045832,0.000087,-0.007907,-0.039454,-0.040089,-0.030911,-0.043929,-0.060632,-0.035625,-0.000333,0.023216,-0.002677,0.059245,0.001085,0.028305,0.036546,0.054200,-0.008835,0.007213,0.070427,0.019543,0.022373,0.013242,0.022900,0.010753,-0.095280,-0.033784,0.037546,-0.026662,-0.081517,-0.022032,-0.018123,-0.037945,0.008478,-0.055599,-0.052518,-0.002576,0.038936,-0.032218,0.015922,-0.019595,-0.000410,-0.033801,0.001778,0.021659,0.011038,0.101926,-0.015750,0.006636,-0.037228,-0.015917,0.022639,-0.004370,0.005171,0.072642,-0.006971,-0.013789,0.109001,0.050568,-0.022743,-0.001101,-0.057796,-0.008140,0.002457,0.005847,0.024321,-0.071320,0.040064,0.002010,0.066459,0.044900,0.045920,0.043532,0.009602,0.001448,0.043335,0.005024,0.026356,0.034474,-0.017589,-0.036463,0.060444,0.008493,-0.051033,-0.117391,-0.000370,-0.023088,-0.016322,0.003709,0.021216,0.008269,-0.074756,-0.024540,-0.052567,0.036644,-0.063483,0.063814,-0.065008,-0.159459,0.090462,-0.019091,0.112614,-0.047161,-0.047615,0.008801,-0.011651,-0.112914,-0.006084,-0.049714,-0.023275,-0.022544,-0.027180,-0.060619,0.059107,-0.000794,-0.035483,0.052070,0.065732,0.133328,0.123059,0.084644,0.006178,0.085105,-0.033260,-0.030417,0.010019,-0.021639,0.096615,-0.013002,0.105974,-0.004654,-0.016033,0.010366,-0.028355,-0.000856,-0.013013,0.033318,-0.033089,0.059076,0.011354,0.059073,0.000775,0.018206,-0.018760,-0.045485,0.033889,0.009918,0.002244,-0.016543,0.023856,-0.042545,-0.004624,-0.039585,-0.160535,0.068842,-0.046811,-0.015307,0.006622,-0.036113,0.030886,0.010524,-0.033649,-0.005668,0.026926,-0.019059,0.048724,0.019023,-0.052375,0.006248,0.148291,0.020465,-0.036535,-0.000660,0.015863,0.075215,0.015785,-0.028477,-0.174616,-0.010331,-0.038380,-0.043216,0.014839,-0.050109,0.113467,-0.047851,-0.012728,0.054923,0.024197,0.000884,-0.017000,0.006952,0.046279,-0.006305,-0.092891,0.045204,-0.081440,0.047824,0.000684,-0.047659,-0.015923,-0.125527,-0.092579,-0.026547,-0.032835,0.010057,-0.027452,0.018830,-0.036465,-0.048838,-0.077165,0.008705,-0.173047,-0.069392,0.092652,0.029519,-0.013481,-0.081641,0.009754,-0.017783,-0.047273,-0.014819,0.045160,0.017250,-0.047014,-0.025211,-0.040042,0.090834,-0.011124,-0.168142,-0.086806,-0.034005,-0.051097,0.029028,-0.035338,0.030478,-0.038441,0.115696,0.019707,0.031420,-0.025319,0.051797,0.012115,0.008254,0.026681,-0.016532,-0.010328,0.010843,-0.004305,0.032796,-0.019260,-0.101931,0.109887,-0.044775,-0.019373,-0.019155,0.018125,0.049646,-0.021705,-0.032646,0.042280,-0.039154,0.055702,-0.105235,-0.027831,0.046574,0.054747,-0.010851,-0.024565,0.118754,0.039571,0.039280,0.053748,-0.072973,-0.063624,0.037943,-0.009022,0.125509,0.017014,0.041838,-0.035988,-0.018072,0.012007,-0.027744,0.049295,0.055421,0.094158,-0.001233,-0.047338,-0.167165,-0.013926,0.039157,0.080757,-0.009814,-0.020947,0.024620,0.065086,-0.132106,0.023112,0.007017,-0.000696,0.048113,0.015438,0.002482,0.098222,0.000138,-0.029859,0.006683,-0.056814,0.098226,-0.003417,-0.052456,0.020091,0.083801,-0.038010,0.007738,-0.008048,0.076779,0.049705,0.059634,-0.041314,-0.023678,0.021148,0.033630,0.040338,0.078891,-0.010015,-0.031013,-0.006558,-0.008929,-0.054472,-0.015554,0.048718,-0.040209,-0.057229,-0.027019,0.006511,-0.116504,0.040135,-0.056075,0.027576,0.086611,0.029616,-0.000996,-0.064272,0.004137,-0.056217,0.055843,0.004584,-0.004310,0.000825,0.000223,0.027304,-0.003303,0.014677,0.017656,0.031135,0.046878,0.020277,0.064637,0.028106,0.001595
arabo,0.038232,0.048690,-0.009950,0.020450,0.054152,-0.059897,-0.018803,-0.002013,0.023922,0.026573,0.058238,0.046241,0.042498,0.041150,0.008029,0.002130,-0.018052,-0.065707,-0.041415,0.028836,0.012162,-0.072467,0.000725,0.046731,0.010023,-0.005002,-0.042687,-0.037946,-0.028874,-0.052664,-0.061376,-0.022865,0.008287,0.031449,-0.008934,0.058206,-0.002024,0.027493,0.034044,0.045516,-0.000733,0.011049,0.076535,0.014449,0.025285,0.015738,0.027456,0.016279,-0.092896,-0.025275,0.037652,-0.023043,-0.077403,-0.017182,-0.022383,-0.033436,-0.008890,-0.055033,-0.052271,-0.015716,0.036743,-0.028848,0.033857,-0.012888,0.006470,-0.038108,-0.008527,0.020563,0.009613,0.075679,-0.013276,0.000183,-0.029711,-0.012699,0.012775,-0.001429,0.010386,0.067504,-0.012126,-0.018988,0.102056,0.053098,-0.018088,0.002386,-0.057244,-0.016164,0.009526,-0.002266,0.016991,-0.068818,0.039425,0.012350,0.082509,0.040462,0.037934,0.026562,0.007603,-0.001427,0.037794,-0.017749,0.024463,0.029853,-0.013862,-0.039991,0.064330,-0.000577,-0.044039,-0.109202,-0.004047,-0.021218,-0.013222,0.004708,0.019240,0.006982,-0.071702,-0.023254,-0.056993,0.027355,-0.067245,0.068463,-0.070186,-0.156199,0.092585,-0.029551,0.108838,-0.026370,-0.042258,0.011446,-0.015087,-0.114292,-0.015684,-0.047392,-0.024015,-0.021260,-0.026737,-0.057536,0.051219,-0.011428,-0.038907,0.066802,0.072819,0.144815,0.138838,0.096424,-0.008957,0.072379,-0.018066,-0.034476,0.009394,-0.025436,0.099632,-0.018863,0.108063,-0.002687,-0.013421,0.002837,-0.016459,0.001821,-0.015032,0.040070,-0.020214,0.060843,0.004820,0.060568,0.006646,0.018530,-0.024535,-0.046165,0.034993,0.011792,0.010181,-0.026505,0.013580,-0.037886,-0.007711,-0.044986,-0.165468,0.078758,-0.041468,-0.018737,-0.008023,-0.037771,0.022244,0.008905,-0.025145,-0.002139,0.023121,-0.014093,0.039326,0.021571,-0.042093,0.011156,0.151309,0.030717,-0.027407,0.008486,0.013136,0.075620,0.021367,-0.039261,-0.172555,-0.012534,-0.043505,-0.046012,0.016186,-0.057328,0.108404,-0.042367,-0.009321,0.065703,0.021366,0.016477,-0.019116,0.007599,0.049585,-0.015817,-0.092303,0.049584,-0.069106,0.057129,0.007012,-0.052187,-0.016399,-0.125711,-0.094991,-0.025036,-0.031617,0.016821,-0.029133,0.016062,-0.044272,-0.048034,-0.084697,0.004361,-0.178553,-0.066343,0.105823,0.031450,-0.011947,-0.075794,0.010760,-0.013421,-0.042116,-0.017351,0.047726,0.013689,-0.050417,-0.028673,-0.032443,0.096382,-0.016184,-0.160725,-0.090974,-0.043303,-0.061822,0.021633,-0.035508,0.031379,-0.029386,0.124341,0.015420,0.029661,-0.025975,0.049953,0.005406,0.000076,0.020010,-0.008996,-0.014576,0.013915,-0.025591,0.032166,-0.020233,-0.094478,0.108470,-0.034718,-0.023981,-0.028004,0.003017,0.044193,-0.010993,-0.021206,0.031500,-0.042582,0.055834,-0.100201,-0.029756,0.053656,0.050049,-0.011585,-0.018908,0.110011,0.031940,0.030084,0.056400,-0.066654,-0.064262,0.042173,0.001673,0.120347,0.015892,0.050669,-0.034369,-0.006139,-0.000024,-0.027955,0.056547,0.052390,0.082622,-0.007262,-0.055591,-0.163548,-0.015424,0.049640,0.085199,-0.008561,-0.031674,0.025060,0.054988,-0.132704,0.016240,0.002310,0.001719,0.052681,0.012343,0.007010,0.099450,0.004776,-0.033024,-0.001826,-0.050451,0.099849,-0.001480,-0.032785,0.022910,0.072497,-0.022698,-0.000049,-0.009122,0.076447,0.057210,0.076300,-0.042132,-0.025565,0.021373,0.031784,0.037511,0.086567,-0.008829,-0.031054,-0.007987,-0.017839,-0.072582,-0.008185,0.051493,-0.047109,-0.054744,-0.025080,0.003645,-0.112328,0.033024,-0.069654,0.024428,0.073277,0.035595,-0.002230,-0.071366,-0.008414,-0.044163,0.054890,0.011009,-0.011578,0.004927,-0.003869,0.032122,-0.003104,0.010956,0.019348,0.029561,0.049437,0.012480,0.063920,0.017534,0.009914
sloveno,0.041214,0.043951,-0.005417,0.022442,0.052529,-0.069593,-0.023071,0.005242,0.022296,0.018722,0.061303,0.048887,0.043972,0.034798,0.006347,0.006219,-0.022195,-0.067278,-0.040247,0.030882,0.004990,-0.067339,-0.009070,0.046387,0.001852,-0.012376,-0.054944,-0.037389,-0.028414,-0.054856,-0.072863,-0.041093,-0.012886,0.024421,-0.008453,0.055675,0.005833,0.028002,0.038110,0.042739,-0.006247,0.013862,0.075455,0.019219,0.023900,0.006786,0.020274,0.019256,-0.088643,-0.021348,0.039452,-0.021151,-0.077576,-0.024629,-0.016542,-0.033241,-0.004163,-0.046189,-0.053301,-0.005744,0.033335,-0.033346,0.034690,-0.017971,0.010325,-0.034735,-0.009386,0.021867,0.008176,0.104183,-0.018431,0.000297,-0.034674,-0.009578,0.016618,-0.004197,0.003615,0.066953,-0.017028,-0.020338,0.086479,0.047654,-0.018958,0.002381,-0.055337,-0.016936,-0.002017,0.003044,0.020004,-0.062520,0.042281,0.007670,0.074607,0.045728,0.042048,0.040350,0.010261,0.005784,0.029973,-0.025329,0.030391,0.025569,-0.016002,-0.037862,0.065363,0.002011,-0.048544,-0.116390,-0.007596,-0.027624,-0.010026,0.013300,0.025896,0.007039,-0.084000,-0.029203,-0.058578,0.033156,-0.062275,0.065820,-0.063977,-0.151899,0.098257,-0.026225,0.102206,-0.034349,-0.030733,0.008485,-0.014264,-0.111509,-0.006914,-0.051562,-0.025787,-0.032708,-0.026079,-0.054175,0.053092,-0.016435,-0.030475,0.065955,0.069012,0.138140,0.146136,0.089211,0.004201,0.072987,-0.030368,-0.033067,0.003675,-0.026046,0.102336,-0.015441,0.103874,-0.009682,-0.024139,0.008444,-0.028120,0.002162,-0.006260,0.035516,-0.021474,0.069024,0.010581,0.058761,0.006816,0.014536,-0.020700,-0.047317,0.028508,0.010732,0.008526,-0.015151,0.013249,-0.047674,-0.013538,-0.038685,-0.171411,0.076445,-0.043770,-0.015419,-0.001796,-0.039452,0.026294,0.004894,-0.022590,0.000550,0.016718,-0.017764,0.050193,0.022504,-0.036473,-0.004210,0.144814,0.034834,-0.029519,0.007696,0.007927,0.078497,0.017191,-0.038895,-0.172418,-0.013627,-0.022112,-0.041366,0.021015,-0.054462,0.114788,-0.054812,-0.001181,0.062890,0.012531,0.013168,-0.006544,-0.004100,0.045160,-0.012177,-0.083848,0.050962,-0.069855,0.058370,0.002640,-0.047557,-0.018722,-0.121097,-0.093854,-0.029119,-0.022419,0.022965,-0.033360,0.013503,-0.037467,-0.063701,-0.081008,0.012431,-0.172400,-0.069856,0.099632,0.029031,-0.009267,-0.080637,0.005511,-0.013700,-0.048470,-0.017525,0.052533,0.015952,-0.041046,-0.030418,-0.038066,0.085369,-0.032344,-0.162240,-0.087374,-0.043128,-0.060401,0.025210,-0.024952,0.032977,-0.042752,0.124311,0.010672,0.038800,-0.024243,0.053496,0.011565,0.001699,0.020878,-0.018029,-0.017469,0.010574,-0.017204,0.034010,-0.022030,-0.088308,0.110551,-0.033707,-0.028076,-0.027133,0.006486,0.041317,-0.012936,-0.023483,0.044526,-0.039181,0.060396,-0.101080,-0.025149,0.051858,0.056424,-0.017892,-0.020132,0.118129,0.028713,0.030976,0.046984,-0.070916,-0.058109,0.031268,0.001351,0.118604,0.016443,0.045157,-0.041234,-0.009397,0.007621,-0.025907,0.057902,0.059568,0.082683,-0.005633,-0.053093,-0.160245,-0.020338,0.053834,0.084283,-0.012277,-0.021273,0.024116,0.054667,-0.119066,0.017333,0.011220,-0.001643,0.050686,0.008914,0.001687,0.099897,0.006832,-0.029626,0.007799,-0.048403,0.102214,0.004843,-0.041936,0.022125,0.082516,-0.032725,0.000794,-0.006477,0.076887,0.056605,0.078468,-0.036043,-0.019677,0.020704,0.031485,0.031174,0.087469,-0.008886,-0.028664,-0.009894,-0.018214,-0.060480,-0.012182,0.061656,-0.041448,-0.059031,-0.026398,0.005478,-0.106927,0.038665,-0.066513,0.019842,0.080550,0.036772,-0.005779,-0.070072,0.005168,-0.053327,0.056043,0.013439,-0.013000,-0.000491,-0.003894,0.022592,-0.010782,0.015026,0.015978,0.023015,0.054000,0.017448,0.067317,0.031632,0.008410
