,0,1,2,3,4,5,6,7,8,9,10,11,12,13,14,15,16,17,18,19,20,21,22,23,24,25,26,27,28,29,30,31,32,33,34,35,36,37,38,39,40,41,42,43,44,45,46,47,48,49,50,51,52,53,54,55,56,57,58,59,60,61,62,63,64,65,66,67,68,69,70,71,72,73,74,75,76,77,78,79,80,81,82,83,84,85,86,87,88,89,90,91,92,93,94,95,96,97,98,99,100,101,102,103,104,105,106,107,108,109,110,111,112,113,114,115,116,117,118,119,120,121,122,123,124,125,126,127,128,129,130,131,132,133,134,135,136,137,138,139,140,141,142,143,144,145,146,147,148,149,150,151,152,153,154,155,156,157,158,159,160,161,162,163,164,165,166,167,168,169,170,171,172,173,174,175,176,177,178,179,180,181,182,183,184,185,186,187,188,189,190,191,192,193,194,195,196,197,198,199
nap,-0.034403,0.267799,0.128649,-0.437831,-0.394807,0.297974,0.206235,0.190224,0.110875,-0.614263,-0.562516,0.660229,-0.553230,-0.259552,-0.463214,-0.306591,-0.013857,0.057187,-0.336484,0.119580,0.028737,0.056998,0.698607,0.403724,0.239535,-0.067229,-0.133532,0.088089,0.134984,0.223728,0.190524,0.337361,0.189344,-0.087443,-0.196813,-0.034783,-0.215429,0.048561,0.056898,0.375733,0.669019,-0.092162,0.201635,0.000531,0.079263,0.262433,-0.088423,-0.139286,0.618686,-0.028343,0.057117,0.099859,0.225688,-0.004605,0.312216,-0.119473,0.444045,0.182335,0.082783,-0.172674,-0.130365,0.813724,0.050696,-0.574712,-0.051244,0.092834,-0.222503,-0.273695,0.195367,0.444737,-0.551313,0.344286,0.580079,-0.177608,-0.359651,0.323370,-0.235965,0.237174,0.397339,0.008846,0.607612,-0.100018,0.474574,0.498765,-0.327562,-0.081261,-0.132665,0.262244,-0.474928,-0.656121,0.220356,-0.317855,0.091279,0.495970,0.118501,-0.177721,-0.174685,-0.179749,0.108451,0.128975,0.139208,0.249651,0.144101,0.401876,-0.566072,0.103626,-0.007634,0.577793,-0.268760,-0.001486,0.332444,-0.255347,0.055726,-0.366237,0.014463,0.741433,-0.086263,0.177651,0.151233,0.369917,-0.369500,0.032647,0.021605,-0.286814,-0.006837,-0.036240,-0.071460,-0.177554,-0.160913,0.096295,-0.123970,0.159281,0.364660,0.159707,-0.618418,-0.186610,-0.103975,-0.068192,-0.085069,-0.116459,-0.349822,0.064727,-0.376048,-0.165254,0.012624,0.249623,0.367906,-0.053912,-0.101049,0.053006,0.354324,-0.156409,0.002270,0.041966,0.068203,-0.078809,-0.084936,-0.107880,-0.115543,-0.502907,0.278045,-0.158044,0.445742,0.187446,0.162758,0.113791,-0.182649,0.377557,-0.141749,-0.067752,0.472245,0.012158,0.051607,-0.005065,-0.027714,-0.222894,0.200866,0.529681,-0.248654,-0.857969,0.328879,0.218261,-0.095206,0.129553,-0.177663,-0.318431,-0.004968,-0.011963,0.319163,0.659471,0.096009,-0.151694,0.202650,-0.104908,-0.793884,0.116965,0.205215,0.230225,0.031138,0.359638
scn,-0.009684,0.159417,0.052569,-0.025751,-0.378094,0.483654,-0.104396,0.103220,-0.093425,-0.530561,-0.552425,0.736275,-0.278178,-0.235248,-0.053206,-0.401211,-0.034046,0.083051,-0.515937,0.010167,-0.079662,0.397110,0.852677,0.490722,0.263698,-0.247713,-0.455066,0.448627,0.110183,0.151049,0.137459,0.230639,-0.271269,0.056059,-0.270035,0.113688,-0.236595,0.142661,0.074083,0.345214,0.567014,-0.185477,0.247563,0.032249,0.002914,-0.034875,-0.291045,0.028805,0.538687,-0.128440,-0.154125,0.000505,0.051944,0.240453,-0.052015,-0.210420,0.591309,0.096240,0.117427,-0.230370,0.134522,0.449237,0.169749,-0.468524,-0.179586,0.113732,-0.205122,0.018091,0.280731,0.238864,-0.388700,0.295044,0.656999,0.089851,-0.004790,0.093467,-0.539476,0.343095,0.116589,-0.111197,0.520688,-0.133701,0.121472,0.466837,-0.060824,0.000057,-0.298309,0.417994,-0.501136,-0.436400,0.521024,-0.017819,0.248769,0.552980,-0.051789,0.136449,-0.337715,-0.012835,-0.057922,0.306175,-0.140549,0.259721,0.224905,-0.263515,-0.544973,0.107157,-0.155715,0.391908,-0.370625,0.045770,0.197340,-0.259387,-0.121346,0.020257,0.151325,0.689798,0.015173,0.428045,-0.077540,0.190126,0.086490,0.044216,0.113140,0.052810,0.074119,-0.233707,0.040566,-0.294197,-0.203241,0.066628,0.245250,0.026429,0.230388,0.104116,-0.529422,-0.380003,-0.497402,0.346027,-0.000867,0.008467,-0.232625,0.158207,-0.130500,-0.025354,-0.228350,0.293467,0.320555,0.337631,-0.281052,0.017314,0.352513,-0.174257,0.100125,0.161489,-0.140598,-0.027476,0.297087,0.022711,-0.303066,-0.079972,0.256911,-0.145571,0.397593,0.354518,0.472780,0.178246,-0.086779,0.174403,-0.120978,0.146434,0.189933,-0.119794,0.136244,-0.010185,0.106616,-0.258105,0.288837,0.915836,-0.055270,-0.849033,-0.177656,0.477438,-0.316993,-0.155032,0.104939,-0.476562,-0.288953,-0.274274,0.277041,0.676216,0.224034,-0.049215,-0.058032,-0.012277,-0.919441,0.162715,0.205221,0.244143,0.135248,0.463709
vec,0.272376,0.130087,-0.098107,-0.035110,-0.355211,0.334955,-0.000064,0.189630,-0.318336,-0.375713,-0.545312,0.586015,-0.355875,-0.043742,-0.127179,-0.271508,-0.110162,0.046809,-0.187328,0.186554,0.167542,0.185649,0.177639,-0.002129,-0.070690,0.011686,-0.283876,0.392934,-0.201992,0.191561,0.070335,0.001094,-0.057464,-0.384670,-0.146501,0.168746,0.011201,0.094208,0.027713,0.413435,0.539018,-0.007370,0.392108,0.169272,-0.286343,0.037912,0.022847,-0.076920,0.426737,-0.337731,0.244320,-0.086530,-0.121580,-0.027229,0.136851,0.151682,0.423058,-0.051928,0.441936,-0.415132,-0.086729,0.740024,0.049942,-0.608326,-0.121680,0.152844,-0.555186,-0.243937,0.298843,-0.001795,-0.473684,0.333687,0.443557,-0.115032,-0.230231,0.207040,-0.154340,0.296481,0.388513,0.128907,0.192991,-0.358961,0.336549,0.438110,-0.222921,-0.216415,-0.256129,0.228334,-0.398266,-0.384749,0.027823,0.015206,-0.041551,0.554962,0.008205,-0.154048,-0.125231,-0.319772,0.288280,0.235459,-0.220223,0.450853,0.238856,-0.061065,-0.352796,0.076867,-0.069629,0.454466,-0.324766,0.012120,0.330581,0.024528,0.168197,-0.230858,-0.054790,0.793250,-0.183610,0.263994,0.304129,0.174941,-0.339652,0.063023,0.166410,-0.268810,-0.007933,-0.171090,-0.047493,-0.033386,-0.126963,0.203437,-0.019365,-0.006945,-0.161678,0.081500,-0.469806,-0.160011,-0.399169,0.096169,0.238830,0.119696,0.060078,0.060080,-0.081257,-0.112125,-0.267872,0.227246,0.553612,0.138004,-0.380692,-0.049099,-0.023817,0.159282,0.050199,0.052282,0.072942,-0.100142,0.145693,0.070664,-0.233539,-0.221343,0.206345,0.032592,0.102673,0.195686,0.270322,0.097231,0.053089,0.285006,-0.078531,-0.222748,0.476410,-0.018901,0.176487,0.011336,0.002036,-0.361933,0.178968,0.382656,-0.188793,-0.498179,0.068056,0.005830,-0.087007,-0.107271,0.069233,-0.242164,0.064845,-0.145081,-0.111458,0.518822,0.020870,-0.195030,0.026489,0.017188,-0.524920,0.211611,0.228207,0.172925,0.262315,0.140495
lmo,0.319175,0.065014,0.124679,-0.089689,-0.302314,0.466969,0.045987,0.230678,-0.044063,-0.357232,-0.496028,0.560152,-0.465352,0.052869,-0.055879,-0.237546,-0.190921,0.029447,-0.147551,0.137952,-0.013596,0.389150,0.212916,-0.032548,-0.174825,-0.055710,-0.437033,0.508702,-0.168246,0.212851,0.202379,0.240192,0.003203,-0.172393,-0.182314,0.052859,0.135989,0.081247,0.130436,0.348660,0.605086,-0.030015,0.403454,0.125353,-0.052213,0.136063,0.169465,-0.100108,0.299660,-0.519650,0.143589,-0.108088,-0.010873,-0.238732,-0.101632,0.109146,0.306062,0.028397,0.362605,-0.328129,-0.074537,0.734687,0.140281,-0.496239,-0.220257,0.132019,-0.601071,-0.379949,0.508346,0.112679,-0.549854,0.297301,0.322828,0.082384,-0.224192,0.235839,-0.142625,0.396716,0.421343,0.054793,0.131428,-0.292490,0.330228,0.282419,-0.247440,-0.132554,-0.275015,0.228020,-0.236180,-0.375641,-0.023360,0.064658,0.019911,0.411741,0.031155,0.036184,-0.092155,-0.277779,0.258485,0.217320,-0.047725,0.314053,0.280379,0.111447,-0.289113,0.071312,-0.116007,0.358248,-0.172052,-0.044093,0.258499,0.150043,0.189742,-0.211649,-0.116975,0.580617,-0.142718,0.291573,0.221484,0.301082,-0.157355,0.095143,0.095583,-0.089161,-0.084820,-0.255564,-0.053634,-0.089821,-0.204007,0.392332,0.079012,0.005084,-0.303024,0.006608,-0.495808,-0.008325,-0.264999,0.080954,0.339547,0.090374,-0.028768,0.012482,0.033651,-0.214863,-0.176832,0.109556,0.433147,0.204590,-0.337389,-0.129440,-0.144741,0.205276,0.247724,0.034168,0.154932,-0.131194,0.099511,0.170604,-0.355085,-0.288590,0.323587,-0.027191,-0.051633,0.134758,0.219831,0.136941,-0.079628,0.149249,-0.165451,-0.162854,0.438404,0.035902,0.063565,0.052055,0.191905,-0.343880,0.261410,0.408357,-0.212553,-0.566645,-0.122367,0.109111,-0.093629,-0.075565,0.141764,-0.176183,0.170782,-0.094586,0.004475,0.447444,0.048811,-0.066113,-0.204117,-0.048962,-0.462515,0.202669,0.179706,0.173830,0.139592,0.166235
sc,0.186134,0.185975,0.181610,0.149515,-0.457133,0.954317,-0.105626,0.165423,-0.396380,-0.274563,-0.635562,0.510016,-0.380427,0.106944,-0.274372,-0.515094,-0.009906,0.059638,-0.280577,0.057820,0.482688,0.312227,0.437194,0.036302,0.012406,-0.113641,-0.232444,0.469254,-0.262185,0.009122,-0.004874,0.144066,-0.023519,0.059266,0.103261,0.211433,-0.097996,-0.096238,0.086245,0.169556,0.490233,-0.041289,0.667849,0.106815,-0.391633,0.477873,-0.452695,-0.052143,0.516643,-0.200178,0.294319,-0.304247,0.336903,-0.114838,-0.057216,-0.277260,0.404487,0.191185,0.176245,-0.266199,0.100095,0.726737,0.111108,-0.323750,-0.344041,0.288323,-0.043124,-0.423118,0.222673,0.022758,-0.731148,0.217168,0.407704,0.137261,-0.065329,0.141097,-0.005910,0.604810,0.147921,0.060516,0.191355,-0.422931,0.132748,0.198017,-0.049653,-0.058781,-0.281099,0.396668,-0.486252,-0.139110,0.017251,0.380423,0.055517,0.669703,-0.262563,0.244933,-0.278080,-0.244919,0.305755,-0.019283,0.462837,0.538475,0.218150,-0.000511,-0.397909,-0.038974,0.088308,0.257052,-0.155865,0.145104,0.189637,-0.009799,0.163871,-0.023988,0.067194,0.440446,-0.251444,0.424901,-0.013983,-0.130994,-0.015724,-0.081796,0.017920,-0.041846,0.046691,-0.305618,0.089462,-0.156994,-0.236986,0.014734,0.101706,0.007073,-0.178819,-0.185267,-0.324062,-0.213755,-0.552529,0.425930,0.467228,0.177273,-0.150320,0.299000,-0.046873,-0.011075,-0.149939,0.283690,0.243422,-0.046830,-0.382611,0.122977,-0.133615,-0.029319,0.049219,-0.166056,-0.142474,0.030867,0.098666,0.326810,-0.459605,-0.310867,0.461480,-0.203409,0.311523,0.578415,0.588334,0.489299,0.052736,0.182649,-0.434791,-0.251442,0.734887,0.001603,0.019769,0.023845,-0.000138,-0.420337,0.012954,0.302810,-0.102311,-0.471878,-0.169182,0.354303,-0.016860,-0.241257,-0.105664,-0.375676,-0.061892,0.138090,-0.144931,0.533501,-0.005093,-0.124332,0.148392,-0.117189,-0.890515,0.389252,0.200210,0.394147,0.370456,0.322885
ita,0.202894,0.244536,0.028736,0.049712,-0.349858,0.228739,0.213420,0.231158,-0.240311,-0.425197,-0.625032,0.524525,-0.490189,-0.187252,-0.240605,-0.285635,-0.040302,0.015215,-0.369189,0.048159,0.199801,0.246409,0.266277,0.195268,0.065258,-0.152832,-0.517199,0.283442,-0.070010,0.152973,0.014799,0.222567,0.063148,-0.282533,-0.165282,0.128946,-0.232309,0.025130,0.091397,0.319405,0.433612,-0.163013,0.356677,-0.003050,-0.028040,0.102305,0.060479,-0.084347,0.520610,-0.296574,0.087218,-0.004606,0.151082,0.049724,0.006221,0.179436,0.458511,0.007818,0.361436,-0.441023,0.100794,0.751372,0.050709,-0.715500,-0.076574,0.191683,-0.433472,-0.327644,0.241113,0.080066,-0.629057,0.576639,0.524734,-0.164269,-0.242923,0.264042,-0.219246,0.262438,0.292039,0.068237,0.415201,-0.242646,0.474416,0.294983,-0.346877,-0.149911,-0.249486,0.199739,-0.463869,-0.557820,0.275738,-0.085085,0.166550,0.723868,-0.133173,-0.047995,-0.246742,-0.128341,0.104928,0.319399,-0.029453,0.260134,0.096112,0.084627,-0.230258,0.093457,-0.075446,0.481840,-0.334408,-0.047423,0.383101,0.070176,0.093242,-0.228508,0.057726,0.931550,-0.037597,0.464226,0.044957,0.352338,-0.270723,0.028015,0.124406,-0.184542,0.092143,-0.114270,0.016126,-0.148326,-0.110881,0.093774,-0.085834,-0.099374,0.015992,0.110169,-0.578287,-0.282675,-0.389472,0.035550,0.209149,0.237792,-0.118223,0.072077,-0.242080,-0.122148,-0.175256,0.210646,0.525326,0.041832,-0.318274,-0.068209,-0.016488,0.043619,0.252440,0.061132,-0.071357,0.021941,0.010734,0.087209,-0.234015,-0.263459,0.127632,-0.113221,0.112118,0.228598,0.169476,0.099812,-0.124107,0.248316,0.006521,0.023064,0.267279,-0.011100,-0.016376,0.012865,0.126393,-0.191728,0.158394,0.575853,-0.145788,-0.423563,0.075319,0.071090,-0.169533,0.038752,0.165037,-0.333541,-0.009694,-0.113144,-0.175720,0.643717,0.086715,-0.186132,0.056126,-0.080893,-0.601318,0.101071,0.220851,0.190785,0.132410,0.331230
es,0.335751,0.095604,0.004108,0.069452,-0.362351,0.416378,-0.160755,0.196070,-0.293879,-0.212984,-0.586358,0.661308,-0.057652,0.324321,-0.296027,-0.424571,0.028774,0.046072,-0.292850,0.306429,0.268316,0.223490,0.311661,-0.209725,-0.163908,0.212983,-0.097700,0.381743,-0.266175,-0.001775,0.177298,0.242779,0.134679,-0.268846,0.270646,0.227900,-0.148708,0.202241,-0.079426,0.310060,0.698694,-0.273703,0.678360,0.152620,-0.393330,0.252547,-0.096276,-0.098839,0.305624,-0.232946,0.255924,-0.257394,0.096207,-0.152017,0.031254,0.151610,0.291759,0.094600,0.272080,-0.329775,0.052561,0.916421,0.326229,-0.449921,-0.204894,0.316840,-0.490567,-0.466029,0.359027,0.206299,-0.576828,0.222306,0.369143,0.051914,-0.330988,0.269494,0.045365,0.409012,0.534491,0.109429,0.093488,-0.411350,0.076267,0.109159,0.041848,-0.162898,-0.199909,0.146981,-0.600524,-0.378298,-0.061341,0.248767,-0.198960,0.588945,-0.000659,0.021755,-0.343337,-0.201828,0.504367,0.268398,-0.054679,0.473260,0.163672,0.032466,-0.069041,0.136464,-0.051731,0.325177,-0.246315,0.193654,0.196375,0.189000,0.460829,-0.129876,-0.321059,0.604944,-0.283107,0.322599,0.153989,0.138662,-0.262277,0.017013,0.148544,-0.161709,-0.152313,-0.328308,0.174075,-0.146283,-0.442891,0.308887,-0.111700,-0.001092,-0.299798,-0.100079,-0.344571,0.279264,-0.238743,0.269098,0.444909,0.061077,-0.135922,0.161583,0.036543,-0.021983,-0.340391,0.160751,0.849482,0.190038,-0.550537,-0.174147,-0.353024,0.143447,0.174701,-0.238908,0.209968,0.064335,0.000889,0.470633,-0.215834,-0.537113,0.285660,0.296208,-0.092442,0.351398,0.264732,0.367812,-0.112560,0.263911,-0.308295,-0.229588,0.628446,-0.137573,0.267392,0.136211,0.248811,-0.511622,0.036811,0.035748,-0.035369,-0.407942,-0.124614,0.056959,0.047381,-0.033747,0.155973,-0.179270,0.189612,-0.002858,-0.058441,0.502603,-0.005710,-0.190517,0.052253,-0.021631,-0.346457,0.617513,0.088009,0.254625,0.262312,0.046255
fr,0.101992,0.207038,0.106303,0.288296,-0.245995,0.139789,0.175804,0.356651,0.042915,-0.324360,-0.679601,0.181736,-0.369134,0.287283,-0.360681,-0.434219,-0.086420,0.126997,-0.161871,0.144391,0.224770,0.325903,0.129315,-0.227550,0.000764,0.036339,-0.670199,0.426064,-0.248407,0.442562,-0.078705,-0.064530,-0.137034,-0.187937,0.162820,-0.023900,-0.046750,-0.250859,0.116327,0.421399,0.327969,0.019984,0.174022,-0.224704,0.185366,-0.303154,0.106085,-0.141917,0.329647,-0.505348,0.292148,-0.151192,0.644422,-0.062364,0.110616,-0.261405,0.210256,-0.206698,0.266502,0.029946,-0.215211,0.791287,0.230792,-0.473127,-0.478724,0.127442,-0.418404,-0.141605,0.527655,0.443431,-0.670697,0.257534,0.318916,-0.139901,-0.070098,0.217037,0.215321,0.042707,0.446833,0.173063,0.344472,-0.150687,0.332529,0.106849,-0.126439,-0.392247,-0.202191,0.048854,-0.474955,-0.059382,-0.061026,0.415123,-0.159463,0.377310,0.317400,0.202048,-0.180224,-0.230224,0.192703,-0.076926,0.179672,0.619247,0.273072,0.004402,-0.783225,0.028129,0.093024,0.481485,-0.291573,-0.358832,0.397297,0.204710,0.108687,-0.251200,-0.022201,0.828188,-0.099547,0.596749,0.577882,0.090834,-0.377432,0.022143,-0.052500,-0.074782,-0.128236,-0.293842,-0.240128,-0.113618,-0.238634,0.233344,0.224605,-0.411992,-0.272303,-0.434684,-0.554937,0.245616,-0.481656,0.180122,0.425633,0.360359,-0.096584,0.062734,-0.172421,0.135916,-0.132559,0.002544,0.748234,0.270482,-0.506649,-0.280396,-0.641408,0.085931,0.446715,0.092353,0.130260,-0.118335,-0.161265,0.317624,-0.426071,-0.259079,0.134003,-0.060347,0.226106,0.849934,0.390268,0.186374,-0.041626,0.135183,-0.165181,-0.528417,0.797247,0.376361,0.464852,0.161858,0.259000,-0.214203,0.338806,0.067972,0.048665,-0.184100,0.050132,0.155195,0.023604,-0.314819,0.129164,-0.012211,0.199871,-0.092588,0.029041,0.312449,0.263730,0.031493,0.192879,-0.244148,-0.484978,0.325973,-0.068588,0.230042,0.101961,0.002307
ca,0.456664,-0.063227,0.120125,0.063418,-0.380786,0.422288,-0.256745,0.204293,-0.029690,-0.223730,-0.508074,0.539140,-0.236635,0.372585,-0.230108,-0.479910,-0.066921,0.073826,-0.162647,0.183839,0.022199,0.277501,0.347299,-0.276910,-0.330248,0.107043,-0.362864,0.635894,-0.343268,0.262776,0.070186,0.273673,-0.093391,-0.257572,0.074636,0.152288,0.139827,0.123730,0.026227,0.512835,0.786146,-0.058455,0.465257,0.187149,-0.286381,0.163505,0.075527,0.062381,0.212439,-0.461713,0.190180,-0.252288,0.051901,-0.072678,-0.039279,0.013016,0.232031,-0.003344,0.336151,-0.311600,0.030178,0.792274,0.306257,-0.356947,-0.406021,0.366340,-0.704139,-0.596989,0.660839,0.005283,-0.532746,0.157539,0.496274,0.174423,-0.069599,0.044951,-0.084764,0.489285,0.566546,-0.022863,0.065621,-0.348431,0.277071,0.073291,-0.019864,-0.186041,-0.284866,0.091852,-0.603562,-0.019151,-0.009415,0.434537,-0.084772,0.500472,0.071153,0.303363,-0.366341,-0.230560,0.470057,0.131984,-0.012187,0.567524,0.464126,-0.066306,-0.140225,0.143199,0.087463,0.358992,-0.135850,-0.078655,0.196876,0.159951,0.271998,-0.170292,-0.181686,0.638811,-0.210114,0.249303,0.335654,0.136442,-0.253044,-0.002032,0.107851,-0.066618,-0.114779,-0.369503,-0.113673,-0.050076,-0.332061,0.157821,0.139633,0.035366,-0.301615,-0.304519,-0.411433,0.184568,-0.224779,0.281454,0.434382,0.090329,-0.112265,0.162534,0.296746,-0.215569,-0.130224,0.100133,0.744057,0.261000,-0.616876,-0.103440,-0.325855,0.050748,0.207684,-0.188638,0.087036,-0.047587,-0.060022,0.263579,-0.326425,-0.432570,0.471567,0.303438,-0.197163,0.237263,0.172664,0.370620,0.006085,-0.043829,-0.370580,-0.448174,0.833224,0.167464,0.359806,0.175385,0.424672,-0.502085,0.285611,0.165726,0.110225,-0.493992,-0.277571,0.057580,-0.054028,-0.129239,0.134729,-0.114671,0.136784,-0.173141,0.192387,0.271405,-0.118984,0.112618,-0.296616,-0.102936,-0.371558,0.418362,0.097484,0.269950,0.195671,0.071180
de,0.097706,-0.258792,-0.065893,0.231575,-0.300202,0.116193,0.757960,0.298214,-0.356481,-0.391245,-0.678690,0.347047,-0.750418,0.189196,0.136347,-0.196917,-0.454113,-0.159170,-0.154379,-0.038510,0.268337,0.401130,0.802088,-0.189912,-0.342456,-0.045697,-0.555421,0.393892,-0.320644,0.066773,0.762667,0.334490,0.124260,0.100209,-0.077643,0.181793,-0.243679,0.000851,-0.068616,0.162408,0.666686,-0.267237,0.353811,-0.423302,-0.030500,-0.563149,-0.343132,-0.537841,1.223450,-0.230218,0.376989,-0.061976,0.855723,-0.297917,-0.064554,-0.061508,0.470872,0.118017,-0.025509,0.164310,-0.027485,0.539648,0.155181,-0.353326,-0.309614,-0.397915,-0.049754,-0.131624,0.350917,0.249731,-0.755040,0.371740,0.200191,0.129493,-0.094025,0.155073,0.344939,0.192500,-0.303163,0.001356,0.555039,-0.154861,0.269562,-0.020830,-0.346358,0.267897,-0.380473,0.307058,-0.204541,-0.479284,0.012774,-0.018548,0.580820,0.411455,0.132460,-0.082071,-0.065270,-0.187571,0.090925,-0.162340,0.499387,-0.248877,0.298824,-0.241258,-0.484387,0.170091,-0.111235,0.369482,-0.083120,0.282315,0.091985,-0.064499,0.814294,-0.222959,-0.389360,0.546498,-0.158434,0.482079,0.054827,0.357462,-0.090095,-0.102651,-0.694635,0.000695,-0.131610,0.223339,0.558636,-0.002333,-0.418302,0.608663,-0.153522,-0.275973,-0.440389,-0.497613,-0.704167,0.120551,0.078422,-0.208778,0.268557,0.069164,-0.275347,0.048186,-0.130867,-0.334046,0.104559,-0.444530,-0.040944,0.650906,-0.285476,-0.440855,-0.745354,0.193446,0.298894,0.106096,0.266658,-0.113190,0.050167,-0.107799,-0.721644,-0.008443,0.096508,-0.594723,-0.055317,0.316883,0.867511,0.098388,0.220301,0.555216,-0.768044,-0.211826,0.152717,0.621023,0.361475,-0.252268,-0.221574,-0.148173,0.447051,0.474297,-0.468850,-0.391777,0.394286,0.490735,-0.613858,0.050188,0.616264,0.166269,0.619545,0.248812,-0.058073,0.461044,0.554700,-0.154113,0.427586,0.133780,-0.409492,0.029636,0.089375,0.194202,0.139168,0.250197
el,-0.330235,-0.175491,-0.127740,0.178641,-0.650659,0.353136,-0.164184,0.438529,0.536868,-0.240362,-0.072157,0.272617,-0.379194,-0.250305,0.162501,-0.154706,0.235390,0.278238,-0.131578,0.144108,0.284296,0.344452,0.234981,0.254520,-0.122527,-0.207669,0.126958,0.119219,0.240516,0.014842,-0.303259,0.382808,-0.287307,0.059106,0.026195,-0.298408,0.407742,0.759193,0.299895,1.422038,0.829496,0.519211,0.017618,0.087680,0.103694,0.062244,-0.186786,0.089392,0.398891,-0.297949,0.753603,0.003900,0.293653,-0.496118,-0.222722,-0.032586,0.179170,-0.081798,0.303646,0.394471,-1.108078,1.108903,0.657393,-0.015454,-0.530751,-0.408908,-0.072256,-0.860768,0.194014,0.603436,0.098891,0.701343,-0.061724,-0.406373,-0.324736,-0.502822,-0.119884,0.063960,0.813249,0.333476,0.071989,-0.137700,-0.455622,-0.653565,-0.951774,-0.241289,0.182210,-0.087183,-0.257846,-0.378579,-0.190420,-0.072686,0.563938,0.050676,0.354254,-0.135610,-0.630709,0.029449,-0.422027,0.162468,-0.036818,1.079877,0.637645,0.255881,-0.725181,0.458789,-0.150716,0.919802,0.305111,-0.181769,-0.017265,0.274883,0.282741,-0.930191,-0.528294,0.885683,0.731766,0.865593,0.576829,0.610586,0.126243,0.071958,-0.462326,-0.155798,-0.255393,-0.404435,-0.121277,-0.748242,-0.623895,0.268018,0.321862,0.850462,-0.057214,-0.421262,-0.533981,0.163263,0.058722,0.354678,-0.334418,-0.564717,-0.289665,0.168894,-0.231200,0.162375,0.084013,-0.075507,0.286544,-0.430277,-0.222773,0.297725,-0.245912,0.224069,0.348599,-0.166972,-0.221846,0.289678,0.255630,0.331811,-0.191400,0.516504,0.177722,-0.395431,-0.005461,0.357646,0.569003,0.380538,-0.452330,0.019695,-0.976423,0.134192,1.018071,-0.370513,0.500116,0.209740,-0.633609,-0.500983,-0.284145,0.096048,0.172465,-1.311017,-0.724818,0.394059,0.520067,0.164118,0.096111,-0.194179,-0.013480,-0.273264,-0.392054,0.190073,0.271238,-0.782360,0.133842,0.196044,-0.985145,0.292874,-0.203887,-0.085615,0.404556,0.388775
ar,-0.451572,0.290596,-0.293189,-0.195351,-0.150746,0.300608,0.062211,0.095949,0.141249,-0.070989,0.138237,-0.084773,-0.101832,0.187081,0.333254,-0.437757,0.154268,0.070774,-0.934216,0.082331,0.410056,-0.532278,0.943173,0.201661,0.068000,0.434548,0.264948,0.426922,0.224606,-0.355894,0.606456,-0.061350,-0.190485,-0.006351,-0.349236,0.263008,0.023417,0.002942,0.307783,0.969306,0.453398,0.051839,0.030539,-0.121451,0.135703,0.098042,-0.075701,0.178003,0.457397,-0.169518,-0.381227,-0.564569,-0.137728,-0.482964,0.012076,0.010688,0.174609,-0.291275,0.009980,0.106879,-0.283865,1.042204,-0.283142,-0.275007,-0.197102,-0.503463,0.215082,0.043921,0.711074,0.435901,-0.274976,0.533933,0.737571,-0.095912,-0.160674,-0.409723,0.102774,0.465632,-0.079331,0.520929,1.438096,-0.713124,-0.355676,-0.025959,-0.753172,0.506529,-0.089979,0.539039,0.305986,-0.878563,-0.282631,-0.089548,-0.063333,0.952069,0.020178,-0.424074,-0.338319,0.072181,0.475901,0.072031,-0.257312,0.593744,0.193255,0.014925,-0.577988,0.338825,0.125938,0.410868,0.373873,-0.243976,0.257808,0.302150,0.192175,-0.292311,-0.525132,0.078347,0.444267,0.212758,0.642075,0.733452,0.433662,-0.002025,-0.297691,-0.201924,0.334589,-0.746679,0.209651,-0.562384,-0.661147,0.514334,0.679289,-0.056648,0.259433,0.068178,-0.675915,-0.218685,0.372054,0.158056,0.377761,-1.051161,0.693200,0.578983,0.150486,0.141358,0.793304,-0.133395,0.783493,0.102130,0.070771,0.210968,-0.390282,-0.325112,1.006562,0.277853,0.231919,0.105899,-0.217518,0.422923,-0.478647,-0.625979,0.502862,-0.121426,0.199546,-0.322441,0.335657,-0.073895,-0.244422,0.430278,-0.824096,-0.006518,0.621220,-0.139769,-0.122430,-0.048943,-0.457147,-0.409436,0.073029,-0.350628,0.131223,-0.649701,0.039795,0.552682,0.162580,0.360853,-0.111620,0.035710,-0.190987,-0.330633,-0.062389,0.151972,-0.136904,0.290931,0.690826,0.196652,-0.424621,0.066664,-0.179742,-0.147950,0.164058,0.361713
sl,0.078334,0.007857,0.128361,-0.295457,-0.583357,0.225884,0.157112,-0.223991,0.052445,0.041907,-0.801756,0.393965,-0.243192,-0.297325,-0.056650,0.112712,-0.275860,-0.253583,-0.429906,0.397234,-0.186689,-0.000781,0.193254,0.286919,-0.100430,-0.332007,-0.032643,0.662452,-0.216250,-0.044690,0.106471,-0.121628,-0.256530,-0.207059,-0.984722,0.065538,0.158081,0.340061,0.000075,1.056472,0.771973,-0.196912,0.075988,-0.232394,-0.533965,-0.092857,-0.423936,-0.092418,0.865012,0.102217,0.408758,-0.057674,0.002588,-0.272727,0.146858,-0.149971,0.554531,0.294313,0.639463,-0.066786,-0.443636,0.321198,0.216778,-0.207551,0.204281,-0.068868,0.195549,0.037295,0.539279,0.241603,-0.336200,0.005300,0.155833,-0.180642,-0.046370,-0.113061,-0.058942,0.391650,0.092772,-0.302418,-0.181400,0.312348,-0.179736,0.766984,-0.159679,0.042223,-0.253071,-0.017442,-0.184230,-0.352991,0.060104,0.018082,0.271213,0.423021,-0.020904,-0.298528,0.108829,-0.370748,0.006925,0.354070,-0.202313,0.941318,0.320309,-0.268912,-0.212139,-0.190927,-0.493586,0.193513,-0.317924,0.079242,0.263684,0.027861,0.326077,-0.360496,-0.092390,0.466374,-0.476540,0.313706,-0.138966,0.177195,-0.232624,0.062999,-0.380755,-0.068340,-0.023532,-0.458009,0.265151,-0.143659,-0.107660,0.752820,-0.001986,-0.081018,-0.253230,0.566059,-0.358312,-0.131170,-0.451229,0.215009,0.165799,-0.010390,0.023872,-0.263243,0.145636,0.197177,-0.290466,0.212401,0.064015,-0.302180,-0.257136,0.023298,-0.303325,0.183483,0.016820,0.336752,0.065565,0.087758,0.062475,-0.073010,-0.319326,-0.269803,0.450483,0.047400,0.575935,0.310446,0.276789,0.115398,0.288261,0.387313,-0.044957,-0.282822,-0.013688,-0.203379,0.345081,-0.168654,-0.248554,-0.652504,0.406281,0.658205,-0.512106,-0.665783,0.378097,0.417689,-0.135890,0.244197,0.465221,-0.603903,0.091761,0.122835,-0.497028,0.511444,0.502585,-0.567268,0.149350,0.591157,-0.549384,0.562763,0.188001,-0.075089,0.185336,0.085330
en,0.498582,0.239020,0.071400,0.260545,-0.342542,0.117027,0.556343,0.069529,-0.196064,-0.055593,-0.728267,0.090947,-0.565037,0.589629,-0.374391,-0.480469,-0.116897,-0.009235,-0.112431,0.153472,0.192966,0.223904,0.143268,-0.077979,-0.393405,-0.286455,-0.538185,0.333715,-0.174065,0.185462,0.158191,0.076823,-0.062405,-0.060224,0.013485,0.042140,0.147751,-0.129188,0.035698,0.127957,0.168738,-0.214646,0.014453,-0.144933,0.187037,-0.173141,0.066989,-0.361671,0.534454,-0.537743,0.535951,-0.057278,0.582121,-0.255423,0.055985,-0.316565,0.302294,0.124954,0.043888,-0.279074,0.160445,0.936108,0.366361,-0.336320,-0.325218,-0.216317,-0.337339,-0.194154,0.457769,-0.074918,-0.457489,0.602816,-0.032207,-0.038976,-0.215453,0.116686,0.283257,0.226646,-0.046798,-0.067814,0.343787,-0.179554,0.072368,-0.086585,-0.354756,0.130676,0.069980,-0.042365,-0.318846,-0.399919,0.046371,-0.133935,0.071142,0.783577,-0.278404,-0.012031,0.040379,-0.150400,0.062158,0.295215,0.258067,0.106730,-0.006041,-0.192781,-0.505440,0.135090,-0.144386,0.242058,-0.006061,-0.095635,0.266167,0.277808,0.463719,-0.102700,-0.154739,0.278443,0.224330,0.403638,0.248879,0.208813,0.015916,0.368945,-0.265541,0.381950,0.163130,0.001742,0.201856,0.233598,-0.260861,0.389135,-0.110445,-0.046605,-0.352309,-0.233398,-0.322378,0.413445,-0.287761,0.133600,0.457118,0.272214,-0.229590,0.145891,-0.397078,-0.235288,-0.031413,-0.060000,0.431473,0.253186,-0.473072,-0.453608,-0.515243,0.220424,0.546753,-0.078746,0.384055,0.351650,-0.110955,0.031026,-0.326056,-0.338620,0.389142,-0.261625,0.302647,0.490979,0.502113,0.256446,-0.161415,0.203076,-0.588503,-0.097156,0.398572,-0.112709,0.697733,0.337535,0.034882,-0.453986,0.348249,0.272592,-0.230782,-0.430920,-0.112466,0.249421,-0.006309,-0.100603,0.385349,-0.362078,0.440020,0.009647,-0.219204,0.648012,0.405026,-0.373843,-0.034141,0.222102,-0.516760,0.465049,-0.271788,0.083504,0.323686,-0.005666
