,0,1,2,3,4,5,6,7,8,9,10,11,12,13,14,15,16,17,18,19,20,21,22,23,24,25,26,27,28,29,30,31,32,33,34,35,36,37,38,39,40,41,42,43,44,45,46,47,48,49,50,51,52,53,54,55,56,57,58,59,60,61,62,63,64,65,66,67,68,69,70,71,72,73,74,75,76,77,78,79,80,81,82,83,84,85,86,87,88,89,90,91,92,93,94,95,96,97,98,99,100,101,102,103,104,105,106,107,108,109,110,111,112,113,114,115,116,117,118,119,120,121,122,123,124,125,126,127,128,129,130,131,132,133,134,135,136,137,138,139,140,141,142,143,144,145,146,147,148,149,150,151,152,153,154,155,156,157,158,159,160,161,162,163,164,165,166,167,168,169,170,171,172,173,174,175,176,177,178,179,180,181,182,183,184,185,186,187,188,189,190,191,192,193,194,195,196,197,198,199,200,201,202,203,204,205,206,207,208,209,210,211,212,213,214,215,216,217,218,219,220,221,222,223,224,225,226,227,228,229,230,231,232,233,234,235,236,237,238,239,240,241,242,243,244,245,246,247,248,249,250,251,252,253,254,255,256,257,258,259,260,261,262,263,264,265,266,267,268,269,270,271,272,273,274,275,276,277,278,279,280,281,282,283,284,285,286,287,288,289,290,291,292,293,294,295,296,297,298,299,300,301,302,303,304,305,306,307,308,309,310,311,312,313,314,315,316,317,318,319,320,321,322,323,324,325,326,327,328,329,330,331,332,333,334,335,336,337,338,339,340,341,342,343,344,345,346,347,348,349,350,351,352,353,354,355,356,357,358,359,360,361,362,363,364,365,366,367,368,369,370,371,372,373,374,375,376,377,378,379,380,381,382,383
veneto,-0.008428,0.051770,-0.007233,-0.003153,-0.007556,-0.026525,0.033489,0.007167,0.004650,0.005306,0.030664,0.007152,0.012457,0.000902,-0.015223,-0.008527,-0.015505,0.011878,-0.014697,0.004370,0.027538,-0.016907,0.012723,-0.003413,0.007254,-0.016796,-0.016719,-0.004279,0.003938,-0.017460,-0.013935,0.004218,-0.005217,0.012466,-0.009463,0.022673,-0.019902,0.002296,-0.009650,0.017494,-0.003920,0.005917,0.005605,0.019692,0.007344,-0.004416,0.018453,0.009651,-0.035360,0.001371,0.001272,-0.013189,-0.035771,-0.013988,0.000192,-0.013841,0.029848,0.020344,-0.021421,0.027006,0.012542,-0.004848,-0.036452,0.002935,-0.025734,-0.035434,0.004459,0.000847,-0.013371,0.051671,0.020831,-0.029421,-0.016213,-0.010112,0.005596,0.000312,-0.005907,0.003179,-0.030671,-0.021144,0.051011,0.002977,-0.003558,0.001393,-0.005221,0.008858,0.005849,0.009503,0.032535,-0.030002,0.025987,-0.023284,0.023518,0.008834,0.045242,0.028259,0.010526,0.007895,0.015428,0.028123,0.009403,0.000206,0.016299,0.011865,-0.000206,0.000192,0.010250,-0.018535,-0.004621,-0.018176,-0.024160,0.002627,0.012382,-0.016301,-0.024569,-0.020388,-0.010401,0.019374,-0.033360,0.009094,-0.005490,-0.037531,0.027714,-0.000262,0.015685,-0.014957,0.005650,0.020894,-0.006180,-0.008179,0.017223,-0.005577,-0.019185,-0.001565,-0.013904,-0.007223,0.021486,-0.001595,-0.024048,-0.002420,-0.018680,0.013983,0.018898,0.020822,0.006518,0.006651,-0.003494,-0.017346,0.013172,0.001781,0.019389,-0.022160,0.034101,0.008483,-0.012070,-0.003164,-0.017673,0.016728,0.020754,0.005145,-0.044707,0.009648,-0.001580,0.020771,0.003855,0.022882,-0.003645,-0.004153,0.008019,0.003135,0.002856,-0.000113,0.023385,0.018358,-0.025583,-0.013721,-0.040299,0.009709,-0.006900,0.010468,-0.004019,0.016796,-0.000317,0.030287,-0.019491,0.031778,0.008091,0.009652,0.026887,0.012072,-0.009994,0.013156,0.032210,0.001150,-0.023331,-0.014202,-0.001154,0.039484,-0.005708,-0.001798,-0.050142,0.009703,-0.007874,-0.014531,0.008824,-0.005152,0.019538,-0.031052,-0.015746,0.018276,-0.002084,-0.001296,-0.008778,-0.000256,0.027993,0.000878,-0.020470,0.017271,-0.019221,0.021882,0.002642,-0.041112,-0.009054,-0.061013,-0.018403,-0.001434,-0.013901,0.009993,-0.009831,0.005626,-0.030827,-0.016693,-0.002692,-0.007994,-0.025053,-0.038846,0.061532,0.022495,0.010548,-0.015963,0.010371,-0.016182,-0.017468,0.006350,-0.003327,-0.013585,-0.004626,0.013864,-0.024869,0.034543,0.001785,-0.037175,-0.026732,0.006572,0.002144,-0.007125,-0.008236,0.025124,-0.013448,0.041882,0.014045,0.003682,-0.043420,0.008881,-0.016126,-0.002147,-0.005135,0.016271,0.007139,0.002770,-0.009614,0.007067,0.003964,-0.043480,0.059135,-0.007783,0.000591,-0.034447,-0.009631,0.018088,-0.006735,-0.027015,0.009308,-0.024686,0.029859,-0.007694,-0.010276,0.007438,0.004147,-0.003974,-0.025697,0.031347,0.021923,0.015685,0.024699,-0.004694,-0.007082,0.000191,-0.004793,0.022914,-0.018113,-0.001122,-0.024945,-0.040999,0.010140,-0.039549,0.001085,0.005985,0.043248,-0.018284,-0.010457,-0.042373,-0.003459,0.002930,0.036642,0.007712,0.002263,0.026746,0.042976,-0.067315,0.005483,-0.023735,-0.022165,0.013506,0.023415,-0.013064,0.010158,-0.027191,-0.000288,0.012768,-0.015293,0.044540,-0.011809,-0.014304,0.016490,0.045975,-0.006130,0.011886,-0.004108,0.017137,0.021502,0.038141,-0.009592,-0.036348,-0.010958,0.012443,-0.011857,0.002736,0.005155,-0.019676,0.015616,0.008632,-0.027476,-0.003231,-0.006085,-0.004876,-0.020762,-0.013494,0.008287,-0.028477,0.021559,-0.027711,0.016059,0.040970,-0.001830,0.011591,-0.012505,0.010423,-0.023652,0.034407,-0.001674,0.005131,0.012980,-0.007300,-0.004398,-0.009575,0.004536,0.006283,-0.002113,0.002245,-0.009595,0.018680,0.021567,0.000817
siciliano,-0.004887,0.033098,-0.001612,0.017537,-0.008507,-0.034366,0.022034,-0.002945,0.014225,-0.001523,0.043934,-0.007491,0.014079,0.007296,-0.013155,-0.008782,-0.041114,-0.006643,-0.002022,0.014610,0.027875,-0.005883,-0.004934,0.012317,0.002632,-0.011769,-0.022070,-0.019990,0.005021,-0.028110,-0.019589,0.000944,-0.016238,0.024759,-0.006645,0.022595,-0.008230,0.015331,0.016289,0.025227,-0.008429,0.019970,0.033972,0.004363,0.021389,-0.010862,0.001029,0.003178,-0.021753,-0.005688,0.001654,-0.000265,-0.026045,-0.023104,0.017583,-0.035072,0.025786,-0.008598,-0.016951,0.027207,0.013381,0.014168,-0.030288,0.000004,-0.026885,-0.052431,0.013859,-0.009811,0.010747,0.053727,0.013151,-0.010343,-0.014768,-0.002334,0.012458,0.012906,-0.009044,0.015409,-0.037775,-0.036748,0.024788,0.011486,-0.008048,0.012016,-0.014466,0.020111,-0.000084,-0.003529,0.020247,-0.028503,0.040469,-0.024142,0.034156,0.022292,0.077588,0.017716,0.007588,0.004490,-0.003121,0.017995,0.007612,-0.002698,-0.001403,-0.011348,0.008416,-0.004218,0.003718,-0.041869,-0.000620,-0.018825,-0.001712,0.007174,0.008500,-0.005195,-0.025183,-0.029162,-0.025571,0.009489,-0.065968,0.019009,-0.013981,-0.054561,0.039815,-0.008115,0.022746,-0.032268,0.004307,0.014292,0.000841,-0.018934,0.001364,-0.022552,0.005857,-0.019611,-0.005639,-0.011709,0.032286,0.009418,-0.026257,-0.007618,-0.037259,0.030198,0.026455,0.012044,0.007721,-0.003735,-0.005525,-0.018210,0.003681,0.033563,0.019631,-0.029244,0.026591,0.020341,-0.008961,-0.005893,-0.014386,0.034400,0.039385,0.002051,-0.012117,0.030526,0.000557,0.019071,0.021394,0.004951,-0.014397,0.003116,0.014014,0.009127,0.002090,0.008770,0.024716,0.007028,-0.020015,-0.019057,-0.059016,0.013158,-0.019216,0.016820,-0.003867,0.006540,0.007719,0.008016,-0.022440,0.010830,0.004419,0.030007,0.024912,-0.013137,-0.016607,-0.006408,0.012350,0.010113,-0.017652,-0.015560,0.008427,0.032372,-0.023378,-0.007279,-0.100825,-0.011986,-0.005795,-0.019648,0.020251,-0.000284,0.011834,-0.024277,-0.008710,0.024751,-0.004063,0.001009,-0.000749,0.008228,0.029897,0.001808,-0.015512,-0.004196,-0.014239,0.035391,0.035678,-0.062606,-0.016424,-0.069958,-0.016898,-0.012182,-0.024512,0.028479,-0.023620,-0.005211,-0.021086,0.020731,-0.026472,-0.016104,-0.042405,-0.004693,0.046504,-0.002185,0.006936,-0.025101,0.009413,-0.006762,-0.021050,0.001077,0.009906,-0.013911,0.011016,0.014751,-0.004215,0.070450,-0.009546,-0.057488,-0.030528,-0.001385,0.024909,-0.005282,-0.005419,0.031525,-0.010498,0.026389,0.016884,0.008006,-0.032269,-0.011178,-0.005179,-0.003256,-0.004107,0.037451,-0.022123,-0.005603,-0.020458,0.019522,0.003580,-0.053994,0.056129,-0.016135,0.009674,-0.039374,-0.006072,-0.002528,0.005737,-0.014955,0.013434,-0.019827,0.024038,0.001177,-0.012159,-0.014506,0.002976,0.000649,-0.015247,0.031794,0.007347,0.003412,0.038744,-0.015582,-0.003173,0.008371,-0.000592,0.024226,-0.033361,0.003663,0.001472,-0.020923,-0.014583,-0.033888,-0.010871,0.023090,0.055828,0.000753,-0.012047,-0.037260,0.012909,0.010380,0.047847,-0.008973,0.018709,0.029488,0.048830,-0.080644,0.009361,-0.010156,-0.051601,0.030430,0.026108,0.006505,0.027952,-0.010747,0.007062,0.005297,-0.015954,0.043770,-0.017480,-0.017092,0.022838,0.035943,0.002542,0.004506,-0.008348,-0.005395,0.004480,0.036706,0.007817,-0.030699,-0.025927,0.014689,-0.017018,0.004680,0.017017,0.000549,-0.011628,0.010412,-0.047533,-0.009847,0.002328,0.013071,-0.026778,-0.019930,0.037103,-0.030062,0.035746,-0.036723,0.017049,0.045188,0.005611,0.007949,-0.018719,0.012312,-0.025480,0.043633,0.021135,0.008822,0.004301,0.004708,-0.015720,-0.021686,-0.000708,-0.000110,-0.011246,0.014641,0.009765,0.021990,0.019022,0.028873
lombardo,-0.006115,0.044068,-0.001141,0.006879,-0.001640,-0.037071,0.040906,0.001191,0.008340,-0.010891,0.037439,-0.000060,0.003819,0.000153,-0.020946,-0.007060,-0.036491,-0.006330,-0.009187,0.012909,0.032292,-0.000627,0.002162,0.005992,-0.012785,-0.013831,-0.027923,-0.023001,0.000402,-0.027573,-0.012881,-0.007910,-0.019850,0.023489,-0.009157,0.018668,-0.011218,0.017097,0.008383,0.018556,0.001892,0.006196,0.023062,0.011228,0.014856,-0.001404,0.002238,0.005140,-0.029409,-0.011889,0.005360,-0.014700,-0.039680,-0.015344,0.011057,-0.018888,0.036075,-0.001267,-0.015978,0.030261,0.009514,0.013513,-0.040632,0.012164,-0.010185,-0.052985,0.012282,-0.001974,-0.016387,0.067273,0.021728,-0.013322,-0.008988,-0.007828,0.017918,0.014637,-0.000855,0.007556,-0.027197,-0.028831,0.034367,0.016888,-0.010468,0.011115,-0.022013,0.021968,0.001365,-0.006824,0.027292,-0.029955,0.031165,-0.040343,0.034128,0.019216,0.075368,0.028761,0.012954,0.001292,-0.003655,0.026465,0.000154,-0.005864,0.001417,-0.012106,0.013872,-0.007509,-0.005101,-0.026032,0.005162,-0.030667,-0.003203,0.010890,0.022153,-0.001670,-0.025405,-0.035896,-0.028358,0.013604,-0.057070,0.016026,0.000395,-0.039074,0.030714,-0.009072,0.009810,-0.035734,0.004940,0.020038,-0.003887,-0.021560,0.000361,-0.026138,0.003969,-0.017916,-0.013758,0.000628,0.034556,0.016330,-0.018729,-0.020320,-0.042970,0.033483,0.003562,0.019998,0.002369,-0.001002,0.001269,-0.028044,0.000339,0.026931,0.015049,-0.030688,0.032449,0.017547,-0.025415,-0.003680,-0.023559,0.037407,0.028030,0.008355,-0.014829,0.028828,0.006661,0.012562,0.026087,0.014769,-0.003991,-0.000643,0.028463,0.008771,0.017820,0.000378,0.010650,0.002901,-0.031971,-0.013599,-0.053549,0.026772,-0.001504,0.017896,0.008285,0.002632,0.016010,0.024180,-0.023632,0.013073,0.011471,0.030737,0.025498,-0.007363,0.001269,0.007249,0.023232,0.011699,-0.028495,-0.019700,-0.005163,0.040854,-0.022835,-0.001186,-0.087197,-0.014668,-0.009326,-0.012355,0.024912,-0.010357,0.014965,-0.041390,-0.012907,0.025721,-0.005231,-0.002934,-0.018352,0.009849,0.026868,-0.000176,-0.006583,0.006713,-0.016036,0.018837,0.022654,-0.058381,-0.014167,-0.087528,-0.022956,-0.011213,-0.022187,0.035929,-0.017498,0.002429,-0.027262,0.009178,-0.021689,-0.011706,-0.042567,-0.010881,0.036660,0.001742,0.014864,-0.020486,0.003898,-0.013674,-0.015157,0.006071,0.017863,-0.011797,0.006295,0.021318,-0.007090,0.055420,0.002298,-0.052946,-0.038364,0.003443,0.013464,-0.000343,-0.007117,0.042696,-0.009995,0.030280,0.022463,-0.001040,-0.031845,-0.019899,-0.006207,-0.003751,-0.004308,0.048046,-0.016885,-0.005247,-0.018567,0.019390,0.019008,-0.040935,0.056729,-0.015628,0.012977,-0.043515,-0.013451,0.008985,0.009290,-0.026050,0.020442,-0.012047,0.033672,-0.004247,-0.014135,-0.012130,0.015469,-0.008173,-0.020517,0.041879,0.014064,0.012609,0.030405,-0.001538,-0.003134,0.003382,-0.007394,0.033652,-0.019305,-0.015053,-0.012159,-0.028322,-0.013831,-0.030321,0.004025,0.014675,0.051524,-0.014926,-0.015029,-0.026763,-0.004635,0.009159,0.039936,-0.007625,0.002323,0.027538,0.054584,-0.093607,0.011749,-0.016064,-0.044087,0.024113,0.039186,0.007370,0.021153,-0.019494,0.002322,0.008915,-0.016409,0.044923,-0.017117,-0.017511,0.033456,0.045050,-0.015164,-0.006915,-0.025674,-0.007158,0.009852,0.036671,0.012365,-0.041883,-0.021668,0.006344,-0.013936,0.021009,0.007480,-0.001694,-0.010843,0.018192,-0.057320,-0.000332,0.000593,0.011062,-0.021738,-0.010889,0.036603,-0.029157,0.027868,-0.034665,0.023700,0.060083,-0.012786,0.008708,-0.013825,0.015940,-0.029742,0.037393,0.017828,0.013672,0.012372,0.001708,-0.010602,-0.022694,0.002762,-0.000339,-0.016020,0.011859,-0.003264,0.015757,0.032332,0.023570
sardo,-0.002719,0.033395,-0.005395,0.008082,-0.005404,-0.037084,0.050737,0.007209,-0.000450,-0.007343,0.030327,-0.006934,0.004096,0.009403,-0.008774,-0.015238,-0.015901,0.004823,0.003145,0.020637,0.033295,-0.006211,0.001958,0.009911,-0.012982,-0.017990,-0.022199,-0.018018,-0.001187,-0.020482,-0.014466,-0.001333,-0.013801,0.019754,-0.005983,0.011907,-0.011691,0.012722,0.009118,0.019785,-0.005991,0.010866,0.015440,0.003816,0.012586,-0.012477,-0.000940,0.003747,-0.024308,-0.016638,-0.006205,-0.008121,-0.024867,-0.015701,0.007036,-0.023770,0.028667,0.000182,-0.019623,0.025555,0.016991,0.007799,-0.035430,-0.005463,-0.008740,-0.043561,0.015936,0.015168,-0.020826,0.058232,0.029699,-0.012455,-0.007685,0.016009,0.023185,0.006365,-0.002617,0.005688,-0.039208,-0.031845,0.011540,0.000982,-0.019011,0.001000,-0.022339,0.015334,0.000677,-0.008641,0.030311,-0.020249,0.028576,-0.029543,0.040984,0.008769,0.063721,0.022418,0.005361,-0.002479,-0.006046,0.034595,-0.000083,0.000561,-0.002320,-0.017427,0.012182,-0.002080,0.005441,-0.033970,0.000172,-0.017584,-0.009563,0.007101,0.013461,-0.005120,-0.022985,-0.031402,-0.027799,0.014540,-0.044259,0.014606,-0.001895,-0.035693,0.035022,0.006533,0.027073,-0.033468,0.000088,0.025746,-0.007444,-0.016108,0.007047,-0.010720,-0.001154,-0.011478,-0.012295,-0.004030,0.034771,0.012631,-0.014366,-0.000145,-0.025262,0.040582,0.017309,0.025348,0.011331,0.007096,0.002379,-0.023896,-0.003604,0.027562,0.010001,-0.025480,0.026885,0.018877,-0.016496,-0.008517,-0.018243,0.032164,0.022403,0.009899,-0.020901,0.024540,0.004505,0.011872,0.021507,0.010468,-0.009424,0.006377,0.017701,0.008784,0.026004,0.004587,0.004733,0.010755,-0.020715,-0.022024,-0.052454,0.006923,-0.006942,0.008876,0.006739,0.012028,0.012682,0.014435,-0.032901,0.015837,0.008073,0.019547,0.019866,-0.008125,-0.013282,-0.003766,0.017314,0.016679,-0.025781,-0.021107,-0.000268,0.040048,-0.018213,-0.001672,-0.075415,-0.018205,-0.011566,-0.023602,0.021222,0.001572,0.015403,-0.029117,-0.004785,0.015554,-0.005851,0.005179,-0.010826,0.009201,0.023193,-0.004886,-0.006686,0.017571,-0.007465,0.011566,0.015072,-0.053378,-0.013886,-0.077781,-0.031881,-0.011565,-0.022210,0.026474,-0.018223,-0.006165,-0.027930,0.006376,-0.013206,-0.038113,-0.056858,-0.009807,0.050391,0.002515,-0.004271,-0.010339,0.003118,-0.006176,-0.023552,0.000367,0.001735,0.003372,0.018182,0.017583,-0.012278,0.056893,-0.014678,-0.049858,-0.035721,-0.001224,0.017787,0.002869,-0.009518,0.028777,-0.020787,0.015894,0.009997,0.007345,-0.030259,0.009490,0.001160,0.002314,-0.001661,0.040243,-0.006240,-0.002520,-0.025573,0.008414,0.010648,-0.044455,0.047633,-0.018312,0.006078,-0.037761,-0.015567,-0.000184,0.006951,-0.020795,0.013116,-0.015526,0.033674,-0.006155,-0.006017,-0.001758,0.002488,-0.003751,-0.025586,0.041237,0.016192,0.006646,0.030851,-0.016612,0.004349,0.004980,-0.008039,0.038948,-0.017309,-0.013359,0.002760,-0.026071,-0.018804,-0.026753,-0.009167,0.020717,0.041800,-0.010575,-0.001609,-0.017213,0.014574,0.006434,0.042222,-0.000196,0.019253,0.025554,0.048120,-0.075111,0.010987,-0.020629,-0.037949,0.036971,0.024513,0.011843,0.004751,-0.030407,0.002231,0.010557,-0.008891,0.041440,-0.025829,-0.009815,0.026252,0.035240,-0.004847,0.015437,-0.026001,0.007632,0.009348,0.035382,0.009681,-0.036469,-0.025617,0.011142,-0.013293,0.000609,0.016866,-0.001759,-0.016644,0.016567,-0.051018,0.002131,0.024376,0.004874,-0.023997,-0.004019,0.024518,-0.026656,0.024733,-0.035622,0.010387,0.038500,-0.014590,-0.004267,-0.016913,0.011662,-0.017244,0.043518,0.009295,0.009760,0.013952,0.005471,-0.014468,-0.020448,0.010488,-0.001225,-0.010122,0.013635,0.006383,0.015533,0.026994,0.026146
ligure,-0.004102,0.039932,0.000595,0.005694,0.002251,-0.039334,0.031365,0.005388,0.009730,-0.005499,0.038459,-0.005826,0.006302,0.003135,-0.009060,-0.008205,-0.019371,-0.001469,0.003275,0.013897,0.036578,-0.006101,0.000713,0.009789,-0.007067,-0.013195,-0.024818,-0.014609,-0.003298,-0.027516,-0.010156,-0.009009,-0.010770,0.021875,-0.006766,0.021480,-0.004089,0.008790,0.007353,0.022208,-0.010944,0.008840,0.014340,0.011571,0.012317,-0.003164,0.003902,0.007066,-0.034086,-0.011933,0.007642,-0.010049,-0.040852,-0.005670,0.009249,-0.010563,0.021734,0.000698,-0.014311,0.026474,0.011697,0.008837,-0.037170,0.000719,-0.016421,-0.039110,0.011893,0.001663,-0.014608,0.056846,0.021516,-0.018639,-0.007690,0.004786,0.017556,0.009382,-0.004126,0.008631,-0.023899,-0.027044,0.022979,0.006384,-0.013902,0.003307,-0.017421,0.014840,0.006905,-0.001107,0.027119,-0.020293,0.028379,-0.035143,0.032523,0.016049,0.060429,0.024684,0.005964,0.006449,0.005508,0.042961,0.007374,0.000450,-0.001029,-0.005530,0.013144,-0.003268,0.001188,-0.030875,0.001897,-0.029197,-0.010502,0.004798,0.017784,-0.004366,-0.029352,-0.031436,-0.022040,0.014728,-0.037917,0.012800,-0.005453,-0.033454,0.032450,-0.001168,0.019380,-0.033460,0.000879,0.025950,-0.006304,-0.019107,0.006276,-0.023106,-0.006307,-0.016391,-0.019961,-0.001265,0.032547,0.009524,-0.022220,-0.011908,-0.023097,0.037328,0.020921,0.025563,0.006752,0.006134,-0.002253,-0.025726,0.002827,0.021074,0.014239,-0.028890,0.037425,0.013103,-0.018820,-0.007992,-0.021873,0.028292,0.015140,0.005729,-0.028657,0.024062,0.007406,0.013697,0.027976,0.009346,-0.011751,-0.000236,0.016412,0.009436,0.012854,0.002218,0.022567,0.002004,-0.017684,-0.015913,-0.057702,0.019106,-0.007464,0.006710,0.002892,0.004876,0.006644,0.016792,-0.027388,0.020325,0.009438,0.019571,0.024935,0.002361,-0.004091,-0.002377,0.026771,0.015369,-0.028657,-0.018895,0.003803,0.044264,-0.008202,-0.008167,-0.070562,-0.010425,-0.011728,-0.015913,0.015514,-0.009409,0.021157,-0.033657,-0.020192,0.021815,-0.005115,-0.005558,-0.009463,0.010963,0.025875,-0.004578,-0.016796,0.007771,-0.018681,0.016207,0.013631,-0.059021,-0.005351,-0.079893,-0.018114,-0.008987,-0.018651,0.022138,-0.021679,0.004419,-0.024238,0.003383,-0.024255,-0.016004,-0.048807,-0.016442,0.053554,0.002196,0.011675,-0.017571,0.003669,-0.009361,-0.019580,0.002767,0.005368,-0.012276,0.005104,0.025109,-0.010407,0.058844,-0.003719,-0.043747,-0.045598,0.001887,0.011829,-0.001262,-0.008503,0.032393,-0.023680,0.036006,0.009950,0.003031,-0.033244,-0.004672,-0.010120,0.010784,0.000829,0.035771,-0.012904,-0.002469,-0.030140,0.017755,0.014753,-0.044857,0.049918,-0.015220,0.014283,-0.041107,-0.012484,0.004634,-0.002421,-0.025825,0.017440,-0.013798,0.040144,-0.010780,-0.007199,0.003704,0.020661,-0.011645,-0.021385,0.048995,0.015860,0.016641,0.041737,-0.007678,-0.005933,0.003808,-0.011218,0.039168,-0.017693,-0.006295,-0.007829,-0.019957,-0.008706,-0.028982,-0.001184,0.015085,0.048853,-0.008634,-0.019050,-0.028101,0.006336,0.011056,0.040591,0.006740,0.008815,0.024284,0.043345,-0.089266,0.007349,-0.009632,-0.026115,0.025348,0.029419,0.000965,0.017122,-0.031561,-0.004522,0.007956,-0.015681,0.044361,-0.019942,-0.014739,0.031506,0.039307,-0.009577,-0.001639,-0.023117,0.009688,0.011355,0.033914,0.001523,-0.041700,-0.018178,0.013048,-0.016758,0.010577,0.004412,-0.003855,-0.009698,0.015900,-0.042802,-0.003473,0.005563,0.007447,-0.021559,-0.013781,0.016030,-0.033890,0.027727,-0.043579,0.013282,0.048628,-0.004777,0.008701,-0.021012,0.003944,-0.026460,0.042011,0.014079,0.011385,0.008019,0.002504,-0.014168,-0.019866,0.000702,-0.001226,-0.016933,0.010223,0.003953,0.017195,0.031487,0.019747
friulano,0.001354,0.034231,0.000984,0.008499,0.004345,-0.037184,0.028708,0.002711,0.001225,-0.003559,0.029574,-0.003997,0.003462,0.000249,-0.014355,0.000434,-0.027030,-0.006706,-0.005869,0.015215,0.024840,0.001683,-0.001643,0.007140,-0.016308,-0.011797,-0.036875,-0.017684,0.004418,-0.026619,-0.009784,-0.009381,-0.013968,0.014789,-0.001011,0.017159,-0.006215,0.011387,0.007158,0.022382,0.001902,0.008972,0.017283,0.009636,0.013249,-0.003439,-0.001555,0.005538,-0.025075,-0.013349,0.004082,-0.012577,-0.030873,-0.016184,0.001680,-0.019243,0.019988,-0.005679,-0.014913,0.020625,0.013365,0.006257,-0.035517,0.006249,-0.007914,-0.038147,0.011071,0.001024,-0.000121,0.047499,0.014245,-0.005644,-0.010928,-0.003739,0.013426,0.017662,0.001462,0.004499,-0.031914,-0.026609,0.016472,0.004084,-0.009802,0.009941,-0.017712,0.013308,0.002274,-0.001769,0.015318,-0.021198,0.025806,-0.039060,0.027781,0.019362,0.057132,0.034222,0.011172,0.000002,0.013065,0.018917,0.004293,-0.007640,0.001484,-0.008866,0.013799,-0.006598,-0.003918,-0.036242,0.008993,-0.028173,0.002103,0.004639,0.022000,-0.003162,-0.025289,-0.027222,-0.024285,0.016919,-0.038861,0.015275,-0.009637,-0.036984,0.038088,-0.004649,0.018551,-0.025848,0.001249,0.023718,-0.008200,-0.030401,-0.003043,-0.022693,0.005677,-0.020810,-0.015872,-0.000953,0.032429,0.018544,-0.017123,-0.005636,-0.024833,0.032818,0.017724,0.020615,0.005146,-0.004936,-0.004306,-0.025605,-0.008504,0.014018,0.008325,-0.028868,0.034483,0.012677,-0.013346,-0.003737,-0.015252,0.030752,0.023227,0.008488,-0.018574,0.031471,0.013557,0.024031,0.020897,0.011361,-0.005403,-0.001881,0.020081,0.007042,0.015609,0.001179,0.016463,-0.006020,-0.021700,-0.006886,-0.059552,0.020422,0.002300,0.012788,0.012149,0.003046,0.011299,0.017613,-0.024140,0.009372,0.004433,0.020901,0.024203,0.001241,-0.004363,0.002285,0.020254,0.018573,-0.028703,-0.012688,-0.001576,0.030548,-0.016786,-0.002000,-0.067482,-0.014181,-0.012028,-0.012861,0.012763,-0.004290,0.019276,-0.028234,-0.005203,0.022874,-0.000069,-0.008652,-0.009070,0.001959,0.023683,-0.005021,-0.004653,-0.001131,-0.013885,0.013597,0.015356,-0.047519,-0.007675,-0.077223,-0.020316,-0.007100,-0.013103,0.015553,-0.017203,0.012231,-0.020781,0.018210,-0.029430,-0.014197,-0.041569,-0.003314,0.037226,0.005548,0.005099,-0.025723,0.004264,-0.005038,-0.015915,-0.002483,0.008440,0.000438,0.010118,0.012505,-0.007479,0.049260,-0.006557,-0.044453,-0.038836,0.000499,0.010719,0.002115,-0.007252,0.032713,-0.012266,0.022894,0.017338,0.001965,-0.026445,-0.017484,-0.007015,-0.002413,0.011882,0.036864,-0.010599,-0.004564,-0.018414,0.015623,0.003842,-0.045813,0.044329,-0.007814,0.002755,-0.028580,-0.009242,0.012516,0.008967,-0.024939,0.018844,-0.017244,0.030962,-0.011406,-0.012033,-0.008413,0.019972,-0.005604,-0.019634,0.032305,0.010659,0.009457,0.029137,-0.005354,-0.009519,0.003042,-0.001487,0.031817,-0.023376,-0.002341,-0.014693,-0.017802,-0.017472,-0.023360,0.006548,0.020026,0.047443,-0.009868,-0.012269,-0.027693,0.000518,0.014131,0.044110,-0.008080,0.012891,0.028485,0.047450,-0.077199,0.009628,-0.016374,-0.037478,0.023284,0.027640,0.008889,0.016844,-0.011688,-0.001990,0.003743,-0.018848,0.037072,-0.015874,-0.007208,0.027905,0.028078,-0.006858,-0.004220,-0.020911,0.000882,0.004046,0.037543,0.007434,-0.023329,-0.010570,0.009983,-0.010084,0.009487,0.013299,0.003252,-0.008599,0.011207,-0.050659,-0.000546,0.006527,0.011086,-0.022342,-0.008024,0.021174,-0.025804,0.029836,-0.035392,0.020955,0.045379,-0.010551,0.005991,-0.016658,0.013470,-0.012820,0.039035,0.019952,0.004523,0.008794,-0.005099,-0.008690,-0.022569,0.002730,-0.008689,-0.010618,0.011032,-0.001951,0.011945,0.020744,0.023045
ladino,-0.011227,0.042767,0.008944,0.007272,0.006792,-0.034607,0.058088,0.005164,0.008865,0.003593,0.043327,-0.022002,-0.003656,0.007052,-0.011023,-0.007130,-0.018787,0.005458,0.002629,0.012286,0.053187,0.009297,-0.001594,0.008417,-0.019522,-0.011562,-0.021230,-0.010432,0.010017,-0.024307,-0.006456,0.004183,-0.016005,0.030758,-0.006381,0.016110,-0.019368,-0.003662,-0.000088,0.016223,-0.010146,0.003704,0.012398,0.012417,0.020802,-0.000788,0.004325,0.002030,-0.028523,-0.012790,-0.001949,-0.020170,-0.041556,-0.014066,0.017980,-0.008934,0.038225,0.006839,-0.021648,0.037134,0.021034,0.013031,-0.054508,0.003118,-0.018532,-0.042651,0.013047,0.003088,-0.027943,0.043232,0.021740,-0.020440,-0.003924,-0.002918,0.020822,0.012207,0.000087,-0.001725,-0.046528,-0.034289,0.029399,0.007558,-0.014405,0.005082,-0.013014,0.024189,-0.000323,-0.004286,0.029976,-0.025250,0.031248,-0.037214,0.028935,0.015608,0.073996,0.024341,0.004206,-0.014519,-0.002600,0.054757,-0.000335,0.003640,0.000392,-0.001335,0.003540,0.000563,0.008162,-0.018794,0.004061,-0.017366,-0.012933,0.004240,0.019624,-0.011206,-0.037579,-0.039302,-0.016643,0.009853,-0.035998,0.008047,-0.000518,-0.033641,0.029839,0.001836,0.015973,-0.050060,0.003751,0.022303,-0.009737,-0.003779,0.010954,-0.021958,0.000963,-0.015208,-0.022581,0.000273,0.035162,0.010241,-0.031477,-0.021255,-0.049103,0.031307,0.019578,0.007055,0.007069,-0.009681,-0.001908,-0.028432,-0.003592,0.020907,0.011543,-0.030960,0.030090,0.015447,-0.020987,-0.013844,-0.004918,0.031104,0.027375,0.015423,-0.028422,0.022751,0.002460,0.011351,0.014928,0.019690,-0.008694,0.009769,0.016196,0.011038,0.014296,-0.000662,0.018167,0.022543,-0.016510,-0.017444,-0.039496,0.011942,-0.003967,0.004169,-0.006244,0.009787,0.010162,0.019921,-0.028848,0.023925,-0.006810,0.025468,0.024434,-0.003002,0.004185,0.000089,0.017970,0.017310,-0.024693,-0.019208,0.004773,0.037344,-0.023258,0.006535,-0.063200,-0.007461,-0.014997,-0.018546,0.025288,-0.003814,0.026104,-0.027579,-0.025800,0.017852,-0.005229,0.002639,-0.013910,0.015884,0.029905,-0.006549,-0.002462,0.008357,-0.028905,0.026448,0.024638,-0.068820,-0.006812,-0.081563,-0.017230,-0.003511,-0.030572,0.029331,-0.013106,-0.009146,-0.031739,0.011071,-0.010074,-0.021518,-0.056382,-0.007522,0.052607,0.003171,0.019855,-0.016859,0.001382,-0.010930,-0.023805,0.020903,0.001303,-0.007648,0.011125,0.030161,-0.005858,0.050592,-0.008381,-0.036810,-0.031460,-0.002527,0.025865,-0.008913,-0.009685,0.030194,-0.018939,0.017548,0.021319,-0.004845,-0.047672,0.003935,0.001812,0.006956,-0.006482,0.036585,-0.013794,-0.004136,-0.027076,-0.004182,0.010602,-0.046490,0.068073,-0.018163,0.011267,-0.039647,-0.009468,0.012493,0.006873,-0.024048,0.001226,-0.011634,0.042295,0.008690,-0.013676,-0.008133,0.008046,-0.005678,-0.024205,0.033871,0.022913,0.009929,0.029824,-0.003663,-0.011774,0.001403,-0.008893,0.028327,-0.015446,-0.001300,-0.006942,-0.032606,-0.010888,-0.036224,0.004301,0.016632,0.050623,-0.011438,-0.006343,-0.022621,-0.001083,0.009236,0.028920,0.002745,0.007387,0.033900,0.046834,-0.088230,0.002844,-0.025918,-0.053864,0.020922,0.030194,0.002778,0.012650,-0.036744,0.006525,0.002493,-0.009939,0.042795,-0.039944,-0.002599,0.032184,0.046703,-0.012492,0.004114,-0.017663,-0.008980,0.016950,0.031305,0.006223,-0.047740,-0.017947,0.009758,-0.023654,0.004947,0.011016,-0.010382,-0.003242,0.021906,-0.058234,-0.003012,0.007119,0.015672,-0.013279,-0.010279,0.025485,-0.015584,0.035828,-0.031999,0.018530,0.053416,-0.015646,0.003744,-0.009733,0.010660,-0.023543,0.040642,0.002990,0.001507,0.013736,0.009622,-0.013109,-0.019775,0.000528,-0.002881,-0.027933,0.018745,0.012621,0.017098,0.022805,0.033079
italiano,0.008425,0.008578,-0.002898,0.004191,0.013685,-0.014078,-0.005430,0.000260,0.005820,0.006284,0.013524,0.009925,0.009263,0.007742,0.002502,-0.000582,-0.004043,-0.017542,-0.008446,0.008676,0.002966,-0.015796,-0.000625,0.010723,-0.000782,-0.003957,-0.010533,-0.010312,-0.005939,-0.011538,-0.014815,-0.006778,-0.000955,0.005145,-0.002377,0.011546,0.000752,0.007168,0.008313,0.010904,-0.001195,0.002897,0.016218,0.003055,0.006156,0.003263,0.004321,0.005188,-0.023201,-0.005714,0.009671,-0.004774,-0.019266,-0.003812,-0.004419,-0.005782,-0.000159,-0.011637,-0.011013,-0.000120,0.009088,-0.007261,0.005913,-0.005418,0.002980,-0.007505,-0.001210,0.003996,0.002142,0.022940,-0.003516,0.001328,-0.007100,-0.004918,0.004865,-0.001243,0.001338,0.016300,-0.002725,-0.005200,0.023468,0.012569,-0.004177,0.000093,-0.014857,-0.003722,0.000339,0.002809,0.005499,-0.014716,0.008792,0.002135,0.015063,0.010807,0.008952,0.009151,0.001751,0.000304,0.007988,-0.002647,0.004240,0.006752,-0.004800,-0.007698,0.015138,0.000552,-0.010429,-0.025711,-0.001183,-0.005440,-0.002349,0.003283,0.004871,0.002007,-0.017838,-0.006293,-0.011678,0.007074,-0.012745,0.014747,-0.013775,-0.034616,0.023545,-0.006243,0.023743,-0.007811,-0.010325,0.001985,-0.005207,-0.026359,-0.003048,-0.011447,-0.006270,-0.005762,-0.006387,-0.012825,0.012576,-0.003385,-0.006852,0.013825,0.017069,0.030929,0.033757,0.021131,0.000284,0.018408,-0.005663,-0.006778,0.001822,-0.006114,0.023410,-0.004199,0.023817,-0.002540,-0.004416,0.000778,-0.008168,-0.001137,-0.002241,0.009772,-0.006603,0.013998,0.002382,0.013394,0.000733,0.003996,-0.003443,-0.011727,0.007904,0.002504,0.001955,-0.004499,0.002548,-0.012015,-0.001796,-0.009482,-0.038511,0.017351,-0.009809,-0.005010,0.001575,-0.011229,0.006273,0.001457,-0.005363,-0.001115,0.005454,-0.003132,0.010497,0.003709,-0.011666,0.001448,0.033532,0.009601,-0.007586,0.000133,0.003409,0.016927,0.003234,-0.007816,-0.040401,-0.001610,-0.008131,-0.009194,0.004669,-0.010875,0.025723,-0.010598,-0.001620,0.014461,0.004563,0.001168,-0.003517,-0.000235,0.010915,-0.002508,-0.019266,0.010618,-0.016555,0.012947,-0.000991,-0.010607,-0.002379,-0.027698,-0.023250,-0.005726,-0.007058,0.004529,-0.008036,0.004042,-0.010188,-0.013622,-0.018760,0.002456,-0.040908,-0.016172,0.022851,0.007313,-0.004013,-0.019280,0.000625,-0.002728,-0.010336,-0.004896,0.010725,0.003542,-0.009845,-0.008383,-0.007736,0.018714,-0.005724,-0.037190,-0.020145,-0.010557,-0.013488,0.005547,-0.007730,0.004724,-0.008879,0.030753,0.004480,0.009405,-0.005438,0.013951,0.002735,0.001997,0.005211,-0.005554,-0.003105,0.004283,-0.002646,0.007705,-0.004268,-0.021079,0.025775,-0.007582,-0.007191,-0.005891,0.001766,0.010119,-0.003236,-0.004692,0.010016,-0.008837,0.013919,-0.022020,-0.005395,0.009781,0.012566,-0.003827,-0.005844,0.025536,0.007928,0.007748,0.011595,-0.016483,-0.013330,0.006950,-0.001184,0.026357,0.005296,0.009612,-0.007773,-0.002505,0.002946,-0.004525,0.014276,0.013612,0.020234,-0.000984,-0.011705,-0.038797,-0.005893,0.011013,0.017776,-0.004603,-0.006685,0.005162,0.012748,-0.027673,0.004358,0.002202,-0.000175,0.012156,0.002083,0.000307,0.022799,0.001116,-0.007203,0.000256,-0.011110,0.022518,0.002769,-0.008105,0.004696,0.020349,-0.006355,0.001467,-0.002324,0.018491,0.014098,0.017665,-0.008460,-0.005372,0.004771,0.005789,0.007950,0.019962,-0.001718,-0.007616,-0.002782,-0.002797,-0.013265,-0.003382,0.013152,-0.009620,-0.013779,-0.005638,0.000804,-0.024337,0.008300,-0.016495,0.004958,0.018267,0.007287,-0.000334,-0.016924,0.000974,-0.012067,0.012935,0.001621,-0.002588,0.000743,-0.000870,0.006335,-0.002124,0.004119,0.003790,0.007288,0.010805,0.001521,0.015302,0.006565,0.002813
spagnolo,0.008630,0.009062,-0.002912,0.003480,0.010931,-0.014453,-0.004074,0.001706,0.003866,0.005076,0.013151,0.011046,0.008774,0.007417,0.003146,0.000868,-0.004198,-0.016945,-0.009165,0.007372,0.002233,-0.017091,-0.000406,0.009823,0.000056,-0.003986,-0.009688,-0.009390,-0.005639,-0.013287,-0.014424,-0.005186,-0.002107,0.004195,-0.001773,0.012742,0.000036,0.005769,0.009259,0.010392,0.000582,0.003437,0.015131,0.003039,0.006395,0.002169,0.005042,0.005265,-0.022253,-0.005632,0.008771,-0.006282,-0.016361,-0.006054,-0.005660,-0.004794,0.000561,-0.011486,-0.011419,-0.002037,0.008791,-0.007603,0.005540,-0.006647,0.002524,-0.008973,-0.001095,0.004953,0.002290,0.021821,-0.001964,0.000276,-0.006951,-0.003640,0.005435,-0.001240,0.001058,0.016964,-0.003780,-0.005127,0.022560,0.012874,-0.004815,-0.000168,-0.013060,-0.005283,0.001079,0.000435,0.005851,-0.014105,0.010167,0.001524,0.014219,0.010391,0.009624,0.009059,0.002861,0.000749,0.008083,-0.004803,0.006598,0.007877,-0.004556,-0.007795,0.013800,0.000970,-0.010802,-0.025053,-0.000200,-0.004897,-0.001735,0.002846,0.005009,0.001399,-0.017399,-0.005155,-0.013083,0.008248,-0.013773,0.013825,-0.015134,-0.035058,0.023956,-0.005440,0.023006,-0.007815,-0.009407,0.001770,-0.004014,-0.025868,-0.002258,-0.011543,-0.005658,-0.006113,-0.006206,-0.012055,0.013660,-0.004716,-0.009888,0.015078,0.017998,0.030007,0.032852,0.021761,-0.000338,0.018457,-0.006348,-0.007068,0.002025,-0.006100,0.021894,-0.001981,0.023694,-0.001874,-0.003760,0.002959,-0.009622,-0.001008,-0.002424,0.009527,-0.006712,0.014552,0.002107,0.015018,-0.000209,0.004247,-0.003446,-0.010402,0.007270,0.001893,0.002603,-0.003652,0.001409,-0.012333,-0.001129,-0.009325,-0.037731,0.017421,-0.010562,-0.005764,0.002403,-0.009840,0.007528,0.002344,-0.006438,0.000016,0.006310,-0.003925,0.011746,0.002716,-0.011234,0.002160,0.032891,0.009624,-0.007414,-0.000131,0.003620,0.017533,0.002968,-0.007553,-0.040266,-0.002852,-0.007938,-0.010326,0.003100,-0.011993,0.024333,-0.008919,-0.000110,0.013244,0.005139,0.001201,-0.001792,-0.000012,0.010632,-0.002635,-0.019831,0.010846,-0.016014,0.011487,-0.000777,-0.009028,-0.001186,-0.027061,-0.022741,-0.005220,-0.005400,0.002382,-0.007309,0.004400,-0.008946,-0.013034,-0.017885,0.001149,-0.040337,-0.015623,0.022706,0.007001,-0.004178,-0.019956,0.002143,-0.002084,-0.009434,-0.003153,0.010605,0.004143,-0.009936,-0.008610,-0.007422,0.018005,-0.004905,-0.037150,-0.021019,-0.010154,-0.013188,0.005740,-0.007605,0.006944,-0.008988,0.031534,0.002393,0.009675,-0.003317,0.014697,0.002634,0.001076,0.005168,-0.004581,-0.002793,0.004105,-0.002927,0.007397,-0.005448,-0.020764,0.024213,-0.007631,-0.006716,-0.005272,0.002127,0.009728,-0.003445,-0.004290,0.009625,-0.009576,0.015308,-0.024001,-0.006061,0.010166,0.011764,-0.004441,-0.004556,0.025804,0.007377,0.007273,0.011353,-0.016214,-0.013014,0.008220,-0.001062,0.026675,0.004050,0.008459,-0.008504,-0.002500,0.001390,-0.005841,0.011932,0.012306,0.020146,0.000158,-0.011646,-0.038287,-0.005087,0.012266,0.017087,-0.003966,-0.004672,0.004360,0.012453,-0.026701,0.004463,0.002103,0.000619,0.012226,0.002758,-0.000533,0.021058,0.000891,-0.006604,0.003958,-0.011148,0.022194,0.002405,-0.007152,0.005002,0.018577,-0.005544,0.003652,-0.001971,0.017754,0.013724,0.017196,-0.009558,-0.005808,0.005603,0.006096,0.007688,0.020126,-0.002392,-0.007845,-0.002976,-0.003732,-0.013385,-0.003586,0.012696,-0.009421,-0.013833,-0.005452,0.000059,-0.025648,0.007549,-0.012981,0.005233,0.016069,0.006212,-0.000428,-0.016495,-0.000444,-0.010604,0.013333,0.000992,-0.002596,0.000735,-0.001595,0.006165,-0.001712,0.004499,0.003323,0.006209,0.011136,0.000512,0.014945,0.005307,0.002679
francese,0.008552,0.008804,-0.002829,0.004037,0.012971,-0.014989,-0.005573,0.000306,0.006393,0.005205,0.014378,0.011840,0.009728,0.008987,0.001304,-0.000014,-0.006096,-0.017462,-0.009448,0.007148,0.002016,-0.016044,-0.001020,0.011678,0.000400,-0.002849,-0.011424,-0.010019,-0.006654,-0.011891,-0.015459,-0.007501,-0.002525,0.006214,-0.001827,0.013079,0.001381,0.006459,0.007959,0.009918,-0.000548,0.002517,0.016940,0.002736,0.007896,0.004569,0.006169,0.005026,-0.020257,-0.005806,0.008449,-0.005808,-0.018749,-0.006104,-0.003674,-0.007718,-0.000215,-0.011893,-0.011453,0.000461,0.008672,-0.007842,0.007166,-0.004167,0.001979,-0.008665,-0.000704,0.004623,0.000480,0.024655,-0.002603,-0.000024,-0.007233,-0.003299,0.004450,-0.001965,0.000851,0.014316,-0.002812,-0.003822,0.023412,0.011345,-0.004113,0.000030,-0.013871,-0.005856,-0.000059,0.000239,0.005932,-0.015385,0.008420,0.001357,0.017128,0.010369,0.010810,0.010306,0.002952,0.000579,0.007336,-0.002927,0.005580,0.006032,-0.003755,-0.009439,0.015316,0.000717,-0.011234,-0.024904,0.000596,-0.005499,-0.002860,0.002559,0.005822,0.000988,-0.018754,-0.006541,-0.013206,0.007034,-0.015001,0.014970,-0.013837,-0.036318,0.023742,-0.006322,0.024137,-0.007860,-0.008665,0.002991,-0.003343,-0.026583,-0.002689,-0.010726,-0.006731,-0.006282,-0.006315,-0.012018,0.012328,-0.002801,-0.007723,0.013540,0.015735,0.031581,0.032486,0.021210,-0.000790,0.017597,-0.005924,-0.006285,0.001511,-0.007130,0.024506,-0.002950,0.024984,-0.002188,-0.004576,0.001383,-0.006108,-0.000428,-0.002168,0.008550,-0.004113,0.014500,0.000850,0.013189,0.001146,0.004066,-0.004803,-0.012123,0.007951,0.002698,0.000999,-0.005227,0.003371,-0.010888,-0.002321,-0.008897,-0.038847,0.016189,-0.010087,-0.005102,0.000479,-0.009323,0.007805,0.002794,-0.006217,0.000217,0.005067,-0.003582,0.011131,0.003666,-0.010339,0.001392,0.032932,0.007260,-0.006191,0.000623,0.002913,0.017039,0.004266,-0.007416,-0.040554,-0.002670,-0.007075,-0.009809,0.005247,-0.012383,0.025140,-0.010590,-0.001332,0.014631,0.003850,0.003307,-0.003148,0.001435,0.010206,-0.002085,-0.021338,0.010378,-0.017874,0.013681,0.001586,-0.011771,-0.004521,-0.027811,-0.022825,-0.006777,-0.006720,0.004863,-0.006422,0.003583,-0.010784,-0.013022,-0.018388,0.003670,-0.040039,-0.016393,0.022270,0.006654,-0.002904,-0.018403,0.001645,-0.004082,-0.009783,-0.003357,0.010738,0.003679,-0.010643,-0.007886,-0.008181,0.019572,-0.006335,-0.037693,-0.019977,-0.009710,-0.013260,0.006470,-0.006851,0.007105,-0.009027,0.030793,0.003466,0.007912,-0.005079,0.011656,0.001657,0.001597,0.004475,-0.004350,-0.003251,0.003821,-0.004740,0.008073,-0.003845,-0.021264,0.025835,-0.007347,-0.007692,-0.007687,0.001239,0.008678,-0.002573,-0.004226,0.010095,-0.009318,0.013783,-0.023325,-0.006100,0.011790,0.011672,-0.004248,-0.004345,0.027543,0.007158,0.008918,0.011808,-0.016207,-0.015372,0.007433,-0.000824,0.027950,0.004159,0.010258,-0.008172,-0.003682,0.002640,-0.006416,0.013731,0.013770,0.019668,-0.001158,-0.012495,-0.037729,-0.005400,0.012295,0.018512,-0.005149,-0.006065,0.006095,0.014081,-0.028042,0.004198,0.002620,-0.000066,0.012339,0.002445,-0.001425,0.023127,0.003170,-0.007346,0.000541,-0.011931,0.023018,0.001232,-0.008757,0.004475,0.019323,-0.008369,0.001277,-0.001242,0.018096,0.013247,0.018517,-0.008734,-0.005812,0.004895,0.006109,0.008546,0.018621,-0.001118,-0.007449,-0.001660,-0.002412,-0.014166,-0.003148,0.014075,-0.010236,-0.014657,-0.006344,0.001500,-0.026102,0.008241,-0.013341,0.005307,0.017966,0.007378,-0.000144,-0.016570,0.001006,-0.013194,0.012994,0.002282,-0.002326,0.000326,-0.002107,0.006243,-0.002228,0.003119,0.003683,0.007306,0.011441,0.003983,0.014927,0.007012,0.001322
catalano,0.008187,0.007647,-0.001326,0.004336,0.011576,-0.014405,-0.006880,-0.000668,0.005452,0.004461,0.013524,0.010090,0.009133,0.008511,0.002159,0.000268,-0.005465,-0.015100,-0.008335,0.007341,0.000767,-0.016825,-0.001398,0.010799,0.001894,-0.002628,-0.010213,-0.009183,-0.006461,-0.012709,-0.014931,-0.007503,-0.002517,0.006229,-0.001348,0.012380,0.000188,0.006004,0.007404,0.009704,-0.000865,0.003104,0.015602,0.003150,0.007420,0.003004,0.005206,0.003987,-0.018983,-0.006863,0.009038,-0.005666,-0.018160,-0.004500,-0.005348,-0.007822,-0.000514,-0.011684,-0.011331,-0.000523,0.007196,-0.007451,0.007075,-0.004161,0.001196,-0.007664,-0.000718,0.004221,0.000867,0.020836,-0.003681,0.000488,-0.007372,-0.003268,0.005285,0.000978,0.001022,0.015008,-0.002903,-0.003953,0.021278,0.010473,-0.005710,0.001184,-0.013420,-0.003637,0.000034,0.000280,0.004641,-0.015175,0.009126,0.000784,0.014240,0.011802,0.009670,0.008809,0.003708,0.000963,0.007676,-0.003923,0.006196,0.005259,-0.002503,-0.008177,0.015394,0.000307,-0.008809,-0.024658,0.001187,-0.007103,-0.001323,0.002100,0.006507,0.000569,-0.017936,-0.007562,-0.013386,0.008325,-0.014280,0.013906,-0.013927,-0.034805,0.022063,-0.005228,0.024068,-0.008704,-0.009454,0.003528,-0.001758,-0.024796,-0.002487,-0.010417,-0.004665,-0.006108,-0.005732,-0.011713,0.011965,-0.002151,-0.008426,0.013521,0.014496,0.030932,0.032414,0.019843,-0.001037,0.016398,-0.006282,-0.006024,0.000732,-0.005916,0.022115,-0.002495,0.023896,-0.002030,-0.004787,0.002487,-0.007464,0.000360,-0.003241,0.007640,-0.005246,0.015188,0.002538,0.013461,0.001894,0.003584,-0.004279,-0.010303,0.007377,0.001647,0.000513,-0.004902,0.002806,-0.012173,-0.000355,-0.008612,-0.038290,0.016970,-0.009092,-0.004100,-0.000999,-0.008577,0.008050,0.002688,-0.006388,-0.000880,0.006105,-0.003910,0.011912,0.002168,-0.009715,0.000929,0.032063,0.008261,-0.006695,0.001673,0.002365,0.016627,0.004588,-0.008941,-0.038640,-0.003214,-0.006860,-0.008959,0.005350,-0.012133,0.024799,-0.010440,-0.001696,0.014208,0.002731,0.001991,-0.002352,0.001239,0.010590,-0.001389,-0.019968,0.007966,-0.015939,0.012844,0.000951,-0.010708,-0.003145,-0.026737,-0.022007,-0.007918,-0.006059,0.004367,-0.006293,0.003741,-0.008028,-0.010174,-0.019348,0.004794,-0.039122,-0.014677,0.021359,0.006782,-0.001155,-0.017652,0.002245,-0.001777,-0.009073,-0.002859,0.009703,0.005021,-0.011753,-0.008533,-0.006065,0.018498,-0.005829,-0.034515,-0.019937,-0.009504,-0.013795,0.005199,-0.006284,0.005946,-0.009161,0.029721,0.003353,0.007248,-0.005050,0.009058,0.000731,0.000655,0.004673,-0.002476,-0.003484,0.003140,-0.004409,0.008966,-0.005469,-0.019498,0.024328,-0.007833,-0.005938,-0.006679,0.002002,0.008164,-0.004661,-0.004223,0.009045,-0.009326,0.016028,-0.023031,-0.006298,0.011166,0.012454,-0.004041,-0.005369,0.026243,0.004513,0.008253,0.011743,-0.015828,-0.014327,0.007495,0.000769,0.026757,0.003761,0.010578,-0.008109,-0.002673,0.000698,-0.006107,0.012103,0.012867,0.020269,0.000006,-0.011342,-0.034577,-0.005547,0.011656,0.018963,-0.004748,-0.004203,0.006311,0.012502,-0.027454,0.005068,0.003178,0.000479,0.010517,0.003165,-0.000623,0.022961,0.002416,-0.006091,0.002706,-0.009795,0.021775,0.000622,-0.008002,0.004380,0.017963,-0.006975,0.001817,-0.000989,0.016681,0.012323,0.017200,-0.007600,-0.006251,0.006428,0.006014,0.007931,0.019612,-0.000456,-0.008251,-0.002017,-0.004059,-0.014591,-0.002901,0.013112,-0.008012,-0.014645,-0.005663,0.000930,-0.023930,0.007130,-0.014760,0.006329,0.015472,0.006991,0.000395,-0.016387,-0.000229,-0.012305,0.012832,0.002805,-0.004363,-0.000692,-0.001919,0.006418,-0.002229,0.002816,0.004094,0.006468,0.011565,0.002407,0.014709,0.005421,0.002332
tedesco,0.009877,0.009399,-0.003089,0.005949,0.014949,-0.013647,-0.004780,-0.000597,0.005732,0.005228,0.014225,0.011729,0.009665,0.007579,0.002747,0.001999,-0.003479,-0.015676,-0.008463,0.007301,0.001261,-0.017073,-0.000628,0.012288,0.000693,-0.002549,-0.011855,-0.009418,-0.007093,-0.013109,-0.014886,-0.006208,-0.001622,0.005904,-0.001027,0.012569,0.000756,0.006787,0.007309,0.010084,-0.001253,0.004080,0.017687,0.004552,0.006600,0.003098,0.004860,0.003859,-0.021917,-0.005700,0.007882,-0.006269,-0.018502,-0.005446,-0.003714,-0.006215,-0.000349,-0.009720,-0.012585,0.000428,0.007770,-0.008123,0.005474,-0.003221,0.001527,-0.007843,-0.001235,0.005479,-0.000015,0.022689,-0.002974,0.000960,-0.007214,-0.004076,0.005391,-0.000310,0.000561,0.015276,-0.004357,-0.005011,0.022425,0.009139,-0.005317,-0.000305,-0.012835,-0.004336,-0.000440,-0.000420,0.004038,-0.015732,0.009090,0.000298,0.017074,0.010774,0.011642,0.010254,0.002388,0.001069,0.007948,-0.002297,0.006386,0.006071,-0.003144,-0.008193,0.013755,-0.000882,-0.010412,-0.025434,-0.000276,-0.005553,-0.001564,0.003162,0.005692,0.000726,-0.018080,-0.007965,-0.012626,0.007718,-0.013677,0.015403,-0.014931,-0.034347,0.023378,-0.005614,0.023724,-0.009394,-0.009150,0.003170,-0.003817,-0.026172,-0.001725,-0.010978,-0.006116,-0.007117,-0.007545,-0.014376,0.013593,-0.001937,-0.007663,0.013704,0.015730,0.032267,0.034674,0.019637,-0.001048,0.016303,-0.005829,-0.006927,0.001357,-0.006079,0.022269,-0.002970,0.024178,-0.002440,-0.005577,0.002310,-0.006361,0.000366,-0.003016,0.008946,-0.006894,0.014349,0.000843,0.013084,0.000245,0.003241,-0.004482,-0.010838,0.006565,0.002562,0.000285,-0.005066,0.004801,-0.010657,-0.002174,-0.009452,-0.038520,0.016993,-0.009784,-0.005364,0.000813,-0.009449,0.006916,0.001221,-0.005846,0.000308,0.005711,-0.003685,0.011113,0.004864,-0.010789,0.001317,0.034059,0.008542,-0.007387,0.001226,0.001261,0.016815,0.003771,-0.007359,-0.041236,-0.000990,-0.006987,-0.009949,0.004570,-0.011136,0.026862,-0.011894,0.000152,0.014382,0.003304,0.002615,-0.003008,0.000012,0.010532,-0.001983,-0.021152,0.010439,-0.018386,0.014927,0.001254,-0.012019,-0.004115,-0.029153,-0.022699,-0.006699,-0.006649,0.005991,-0.006190,0.003570,-0.009334,-0.013404,-0.017717,0.004110,-0.041422,-0.016942,0.021554,0.007481,-0.002226,-0.020769,0.001797,-0.003499,-0.010405,-0.002935,0.012094,0.003747,-0.011075,-0.007360,-0.008086,0.019668,-0.006412,-0.037106,-0.018385,-0.010910,-0.013410,0.005595,-0.006040,0.007503,-0.008541,0.030400,0.002816,0.006551,-0.006163,0.013615,0.001665,0.001497,0.004032,-0.004328,-0.003327,0.004699,-0.005252,0.007269,-0.006027,-0.021688,0.024920,-0.007870,-0.007393,-0.006975,0.001032,0.008713,-0.002354,-0.004975,0.011297,-0.008677,0.014803,-0.024418,-0.005746,0.011372,0.013204,-0.003351,-0.004979,0.026288,0.008023,0.007427,0.011687,-0.016581,-0.015863,0.006321,-0.000488,0.027904,0.005291,0.011546,-0.008786,-0.003349,0.003672,-0.008089,0.014295,0.013877,0.019610,-0.001528,-0.013231,-0.037834,-0.005430,0.012487,0.019621,-0.004520,-0.004306,0.006721,0.014161,-0.029577,0.004075,0.001491,-0.001599,0.011988,0.002896,0.000090,0.022413,0.001543,-0.007062,0.000973,-0.010585,0.022736,-0.000123,-0.008422,0.005663,0.021128,-0.008383,0.000537,-0.000178,0.019095,0.014204,0.018697,-0.009036,-0.006141,0.005040,0.007698,0.006786,0.019682,-0.001188,-0.007895,-0.002507,-0.003341,-0.015123,-0.002868,0.012815,-0.009959,-0.013975,-0.004348,0.002056,-0.024298,0.007986,-0.014577,0.004016,0.018254,0.006703,-0.001434,-0.016001,0.001204,-0.013725,0.013077,0.001832,-0.002528,0.000592,-0.001559,0.006644,-0.002055,0.003335,0.002701,0.006049,0.010518,0.004181,0.016783,0.006118,0.003582
inglese,0.008456,0.004544,-0.001129,0.005545,0.010555,-0.012405,-0.006530,-0.000913,0.004254,0.004841,0.010845,0.008449,0.006952,0.009154,0.003838,-0.000673,-0.002255,-0.014706,-0.007235,0.005593,-0.000704,-0.014685,-0.001412,0.010227,-0.001398,-0.002484,-0.007545,-0.007431,-0.006331,-0.008663,-0.012378,-0.004197,-0.001203,0.005533,-0.002572,0.013148,-0.000038,0.004674,0.006540,0.009394,-0.000499,0.004812,0.015985,0.001775,0.006317,0.002404,0.005152,0.003500,-0.017818,-0.004649,0.007770,-0.005168,-0.015445,-0.005668,-0.005323,-0.004411,-0.001139,-0.009787,-0.011037,-0.000431,0.007420,-0.008078,0.009542,-0.004982,0.001187,-0.006915,-0.001841,0.004711,0.002265,0.016084,-0.004180,-0.000043,-0.007107,-0.001953,0.004362,-0.000884,0.000959,0.014348,-0.001700,-0.002222,0.018823,0.007480,-0.004331,-0.002157,-0.010711,-0.004653,-0.000594,0.000292,0.004104,-0.012413,0.010609,0.002166,0.012349,0.010569,0.006280,0.008552,0.002428,0.000578,0.004731,-0.004790,0.007358,0.005724,-0.002250,-0.004460,0.014789,0.001423,-0.007043,-0.021095,0.001049,-0.003296,-0.002293,0.004390,0.004587,0.001394,-0.017851,-0.005365,-0.009564,0.006553,-0.013123,0.013709,-0.012348,-0.032195,0.019392,-0.004805,0.020087,-0.005958,-0.009988,0.001755,-0.003185,-0.023858,-0.001444,-0.008953,-0.005167,-0.005993,-0.005684,-0.011421,0.008963,-0.002686,-0.007761,0.009433,0.014567,0.026637,0.028521,0.016896,-0.001810,0.014416,-0.007074,-0.005661,-0.000072,-0.004941,0.020133,-0.003167,0.020478,-0.002216,-0.003715,0.001035,-0.005222,-0.002149,-0.003710,0.006932,-0.005968,0.012171,-0.000319,0.011963,0.000715,0.003061,-0.004334,-0.009897,0.005767,0.000465,-0.001445,-0.003752,0.003392,-0.010162,-0.000967,-0.005755,-0.033202,0.013779,-0.009594,-0.005752,0.002371,-0.008768,0.005730,0.000686,-0.002540,-0.001405,0.005937,-0.004485,0.010864,0.003415,-0.008682,0.000695,0.027990,0.005718,-0.003924,0.002662,0.002637,0.013828,0.004485,-0.007027,-0.032092,-0.000545,-0.004188,-0.009720,0.001985,-0.011085,0.023556,-0.007325,0.000205,0.013745,0.003216,0.003154,-0.003689,0.001033,0.009326,-0.000198,-0.015988,0.007513,-0.014114,0.011554,-0.000901,-0.008125,-0.002453,-0.020599,-0.020807,-0.007308,-0.003653,0.004897,-0.004712,0.002597,-0.006525,-0.011795,-0.015167,0.003757,-0.033945,-0.012889,0.019199,0.005130,0.000806,-0.015507,-0.000183,-0.001760,-0.008378,-0.003497,0.007594,0.002562,-0.011802,-0.009276,-0.007398,0.014718,-0.005284,-0.031554,-0.016033,-0.007381,-0.011115,0.003388,-0.005060,0.005079,-0.008297,0.026527,0.000901,0.006328,-0.003950,0.010827,0.002347,0.001361,0.005692,-0.005221,-0.002818,0.002828,-0.003562,0.008845,-0.004753,-0.018136,0.023350,-0.004960,-0.007393,-0.003884,0.001656,0.007532,-0.003812,-0.001873,0.006851,-0.007751,0.011540,-0.020512,-0.005588,0.010835,0.010669,-0.004346,-0.003850,0.021092,0.004815,0.006722,0.010954,-0.013758,-0.013685,0.007287,0.001262,0.023585,0.005327,0.010613,-0.007253,-0.001700,0.001598,-0.004355,0.011228,0.011526,0.014961,-0.001285,-0.011703,-0.031797,-0.005998,0.009277,0.015872,-0.004126,-0.005525,0.005177,0.012458,-0.021046,0.003958,0.001963,0.001243,0.010571,-0.000403,-0.001483,0.020622,0.002699,-0.005239,0.001724,-0.011595,0.019574,0.001117,-0.006411,0.002604,0.015455,-0.006246,0.003070,0.001282,0.016597,0.009854,0.013653,-0.008465,-0.001783,0.004945,0.004607,0.006795,0.018866,0.000265,-0.008033,-0.000384,-0.003925,-0.009840,-0.003235,0.012542,-0.009684,-0.010865,-0.006732,0.000870,-0.020399,0.005735,-0.015277,0.004640,0.012453,0.006763,0.000557,-0.013730,-0.000398,-0.011831,0.012549,0.002311,-0.002789,-0.000078,-0.003337,0.005723,-0.000460,0.002294,0.003143,0.007378,0.010046,0.002412,0.012059,0.004484,0.000084
greco,0.010721,0.010645,-0.001455,0.003629,0.011619,-0.014964,-0.001023,0.001232,0.007309,0.005150,0.015081,0.006462,0.010568,0.006911,0.002076,0.001213,-0.006223,-0.014696,-0.012155,0.004525,0.002441,-0.017412,-0.001044,0.010839,0.000021,-0.001870,-0.009330,-0.009480,-0.007310,-0.010388,-0.014338,-0.008425,-0.000079,0.005490,-0.000633,0.014010,0.000257,0.006694,0.008643,0.012817,-0.002089,0.001706,0.016655,0.004622,0.005291,0.003131,0.005415,0.002543,-0.022532,-0.007989,0.008879,-0.006305,-0.019277,-0.005210,-0.004286,-0.008973,0.002005,-0.013148,-0.012420,-0.000609,0.009208,-0.007619,0.003765,-0.004634,-0.000097,-0.007993,0.000420,0.005122,0.002610,0.024104,-0.003725,0.001569,-0.008804,-0.003764,0.005354,-0.001034,0.001223,0.017179,-0.001649,-0.003261,0.025777,0.011958,-0.005378,-0.000260,-0.013668,-0.001925,0.000581,0.001383,0.005752,-0.016866,0.009474,0.000475,0.015716,0.010618,0.010859,0.010295,0.002271,0.000342,0.010248,0.001188,0.006233,0.008153,-0.004160,-0.008623,0.014294,0.002009,-0.012068,-0.027761,-0.000088,-0.005460,-0.003860,0.000877,0.005017,0.001956,-0.017679,-0.005803,-0.012431,0.008666,-0.015013,0.015091,-0.015373,-0.037710,0.021393,-0.004515,0.026631,-0.011153,-0.011260,0.002081,-0.002755,-0.026702,-0.001439,-0.011757,-0.005504,-0.005331,-0.006428,-0.014335,0.013978,-0.000188,-0.008391,0.012314,0.015545,0.031530,0.029102,0.020017,0.001461,0.020126,-0.007865,-0.007193,0.002369,-0.005117,0.022848,-0.003075,0.025061,-0.001101,-0.003792,0.002451,-0.006706,-0.000202,-0.003077,0.007879,-0.007825,0.013970,0.002685,0.013970,0.000183,0.004305,-0.004436,-0.010756,0.008014,0.002345,0.000531,-0.003912,0.005642,-0.010061,-0.001094,-0.009361,-0.037964,0.016280,-0.011070,-0.003620,0.001566,-0.008540,0.007304,0.002489,-0.007957,-0.001340,0.006367,-0.004507,0.011522,0.004499,-0.012386,0.001478,0.035068,0.004840,-0.008640,-0.000156,0.003751,0.017787,0.003733,-0.006734,-0.041294,-0.002443,-0.009076,-0.010220,0.003509,-0.011850,0.026833,-0.011316,-0.003010,0.012988,0.005722,0.000209,-0.004020,0.001644,0.010944,-0.001491,-0.021967,0.010690,-0.019259,0.011310,0.000162,-0.011270,-0.003765,-0.029685,-0.021893,-0.006278,-0.007765,0.002378,-0.006492,0.004453,-0.008623,-0.011549,-0.018248,0.002059,-0.040923,-0.016410,0.021911,0.006981,-0.003188,-0.019307,0.002307,-0.004205,-0.011179,-0.003505,0.010679,0.004079,-0.011118,-0.005962,-0.009469,0.021481,-0.002631,-0.039763,-0.020528,-0.008042,-0.012084,0.006865,-0.008357,0.007208,-0.009091,0.027360,0.004660,0.007430,-0.005988,0.012249,0.002865,0.001952,0.006310,-0.003910,-0.002443,0.002564,-0.001018,0.007756,-0.004555,-0.024105,0.025987,-0.010588,-0.004581,-0.004530,0.004286,0.011740,-0.005133,-0.007720,0.009999,-0.009259,0.013173,-0.024886,-0.006581,0.011014,0.012947,-0.002566,-0.005809,0.028083,0.009358,0.009289,0.012710,-0.017257,-0.015046,0.008973,-0.002134,0.029681,0.004023,0.009894,-0.008511,-0.004274,0.002839,-0.006561,0.011658,0.013106,0.022267,-0.000292,-0.011195,-0.039532,-0.003293,0.009260,0.019098,-0.002321,-0.004954,0.005822,0.015392,-0.031241,0.005466,0.001659,-0.000165,0.011378,0.003651,0.000587,0.023228,0.000033,-0.007061,0.001580,-0.013436,0.023229,-0.000808,-0.012405,0.004751,0.019817,-0.008989,0.001830,-0.001903,0.018157,0.011754,0.014102,-0.009770,-0.005600,0.005001,0.007953,0.009539,0.018656,-0.002368,-0.007334,-0.001551,-0.002111,-0.012882,-0.003678,0.011521,-0.009509,-0.013534,-0.006389,0.001540,-0.027551,0.009491,-0.013261,0.006521,0.020482,0.007004,-0.000236,-0.015199,0.000978,-0.013294,0.013206,0.001084,-0.001019,0.000195,0.000053,0.006457,-0.000781,0.003471,0.004175,0.007363,0.011086,0.004795,0.015286,0.006647,0.000377
arabo,0.009074,0.011557,-0.002362,0.004854,0.012853,-0.014217,-0.004463,-0.000478,0.005678,0.006307,0.013823,0.010975,0.010087,0.009767,0.001906,0.000506,-0.004285,-0.015596,-0.009830,0.006844,0.002887,-0.017200,0.000172,0.011092,0.002379,-0.001187,-0.010132,-0.009006,-0.006853,-0.012500,-0.014568,-0.005427,0.001967,0.007464,-0.002121,0.013815,-0.000480,0.006525,0.008080,0.010803,-0.000174,0.002622,0.018165,0.003429,0.006001,0.003735,0.006517,0.003864,-0.022049,-0.005999,0.008937,-0.005469,-0.018372,-0.004078,-0.005313,-0.007936,-0.002110,-0.013062,-0.012406,-0.003730,0.008721,-0.006847,0.008036,-0.003059,0.001536,-0.009045,-0.002024,0.004881,0.002282,0.017962,-0.003151,0.000044,-0.007052,-0.003014,0.003032,-0.000339,0.002465,0.016022,-0.002878,-0.004507,0.024223,0.012603,-0.004293,0.000566,-0.013587,-0.003836,0.002261,-0.000538,0.004033,-0.016334,0.009358,0.002931,0.019584,0.009604,0.009004,0.006304,0.001804,-0.000339,0.008970,-0.004213,0.005806,0.007086,-0.003290,-0.009492,0.015269,-0.000137,-0.010453,-0.025919,-0.000961,-0.005036,-0.003138,0.001117,0.004567,0.001657,-0.017018,-0.005519,-0.013527,0.006493,-0.015961,0.016250,-0.016659,-0.037074,0.021975,-0.007014,0.025833,-0.006259,-0.010030,0.002717,-0.003581,-0.027127,-0.003723,-0.011249,-0.005700,-0.005046,-0.006346,-0.013656,0.012157,-0.002712,-0.009235,0.015856,0.017284,0.034372,0.032953,0.022886,-0.002126,0.017179,-0.004288,-0.008183,0.002230,-0.006037,0.023648,-0.004477,0.025649,-0.000638,-0.003186,0.000673,-0.003906,0.000432,-0.003568,0.009511,-0.004798,0.014441,0.001144,0.014376,0.001577,0.004398,-0.005823,-0.010957,0.008306,0.002799,0.002417,-0.006291,0.003223,-0.008992,-0.001830,-0.010677,-0.039274,0.018693,-0.009842,-0.004447,-0.001904,-0.008965,0.005280,0.002114,-0.005968,-0.000508,0.005488,-0.003345,0.009334,0.005120,-0.009991,0.002648,0.035913,0.007291,-0.006505,0.002014,0.003118,0.017948,0.005072,-0.009319,-0.040956,-0.002975,-0.010326,-0.010921,0.003842,-0.013607,0.025730,-0.010056,-0.002212,0.015595,0.005071,0.003911,-0.004537,0.001804,0.011769,-0.003754,-0.021908,0.011769,-0.016402,0.013560,0.001664,-0.012387,-0.003892,-0.029838,-0.022546,-0.005942,-0.007504,0.003992,-0.006915,0.003812,-0.010508,-0.011401,-0.020103,0.001035,-0.042380,-0.015747,0.025117,0.007465,-0.002836,-0.017990,0.002554,-0.003185,-0.009996,-0.004118,0.011328,0.003249,-0.011967,-0.006805,-0.007700,0.022876,-0.003841,-0.038148,-0.021593,-0.010278,-0.014674,0.005135,-0.008428,0.007448,-0.006975,0.029512,0.003660,0.007040,-0.006165,0.011856,0.001283,0.000018,0.004749,-0.002135,-0.003460,0.003303,-0.006074,0.007635,-0.004802,-0.022424,0.025745,-0.008240,-0.005692,-0.006647,0.000716,0.010489,-0.002609,-0.005033,0.007476,-0.010107,0.013252,-0.023783,-0.007063,0.012735,0.011879,-0.002750,-0.004488,0.026111,0.007581,0.007140,0.013386,-0.015820,-0.015253,0.010010,0.000397,0.028564,0.003772,0.012026,-0.008157,-0.001457,-0.000006,-0.006635,0.013421,0.012435,0.019610,-0.001724,-0.013195,-0.038818,-0.003661,0.011782,0.020222,-0.002032,-0.007518,0.005948,0.013052,-0.031497,0.003855,0.000548,0.000408,0.012504,0.002930,0.001664,0.023605,0.001134,-0.007838,-0.000433,-0.011974,0.023699,-0.000351,-0.007782,0.005438,0.017207,-0.005387,-0.000012,-0.002165,0.018145,0.013579,0.018110,-0.010000,-0.006068,0.005073,0.007544,0.008903,0.020547,-0.002096,-0.007371,-0.001896,-0.004234,-0.017227,-0.001943,0.012222,-0.011181,-0.012993,-0.005953,0.000865,-0.026661,0.007838,-0.016532,0.005798,0.017392,0.008448,-0.000529,-0.016939,-0.001997,-0.010482,0.013028,0.002613,-0.002748,0.001170,-0.000918,0.007624,-0.000737,0.002600,0.004592,0.007016,0.011734,0.002962,0.015172,0.004162,0.002353
sloveno,0.009544,0.010178,-0.001254,0.005197,0.012165,-0.016116,-0.005343,0.001214,0.005163,0.004335,0.014196,0.011321,0.010183,0.008058,0.001470,0.001440,-0.005140,-0.015580,-0.009320,0.007152,0.001156,-0.015594,-0.002100,0.010742,0.000429,-0.002866,-0.012724,-0.008658,-0.006580,-0.012703,-0.016873,-0.009516,-0.002984,0.005655,-0.001958,0.012893,0.001351,0.006485,0.008825,0.009897,-0.001447,0.003210,0.017474,0.004451,0.005535,0.001572,0.004695,0.004459,-0.020528,-0.004944,0.009136,-0.004898,-0.017965,-0.005703,-0.003831,-0.007698,-0.000964,-0.010696,-0.012343,-0.001330,0.007720,-0.007722,0.008033,-0.004162,0.002391,-0.008044,-0.002174,0.005064,0.001893,0.024126,-0.004268,0.000069,-0.008030,-0.002218,0.003848,-0.000972,0.000837,0.015505,-0.003943,-0.004710,0.020027,0.011036,-0.004390,0.000551,-0.012815,-0.003922,-0.000467,0.000705,0.004632,-0.014478,0.009791,0.001776,0.017277,0.010590,0.009737,0.009344,0.002376,0.001339,0.006941,-0.005866,0.007038,0.005921,-0.003706,-0.008768,0.015137,0.000466,-0.011242,-0.026953,-0.001759,-0.006397,-0.002322,0.003080,0.005997,0.001630,-0.019452,-0.006763,-0.013565,0.007678,-0.014421,0.015242,-0.014816,-0.035176,0.022754,-0.006073,0.023669,-0.007954,-0.007117,0.001965,-0.003303,-0.025823,-0.001601,-0.011941,-0.005972,-0.007574,-0.006039,-0.012546,0.012295,-0.003806,-0.007057,0.015274,0.015982,0.031990,0.033842,0.020659,0.000973,0.016902,-0.007032,-0.007658,0.000851,-0.006032,0.023699,-0.003576,0.024055,-0.002242,-0.005590,0.001955,-0.006512,0.000501,-0.001450,0.008225,-0.004973,0.015984,0.002450,0.013608,0.001579,0.003366,-0.004794,-0.010958,0.006602,0.002485,0.001974,-0.003509,0.003068,-0.011040,-0.003135,-0.008959,-0.039695,0.017703,-0.010136,-0.003571,-0.000416,-0.009136,0.006089,0.001133,-0.005231,0.000127,0.003872,-0.004114,0.011624,0.005211,-0.008446,-0.000975,0.033536,0.008067,-0.006836,0.001782,0.001836,0.018178,0.003981,-0.009007,-0.039928,-0.003156,-0.005121,-0.009579,0.004867,-0.012612,0.026582,-0.012693,-0.000274,0.014564,0.002902,0.003049,-0.001515,-0.000949,0.010458,-0.002820,-0.019417,0.011802,-0.016177,0.013517,0.000611,-0.011013,-0.004336,-0.028043,-0.021734,-0.006743,-0.005192,0.005318,-0.007725,0.003127,-0.008676,-0.014752,-0.018760,0.002879,-0.039924,-0.016177,0.023072,0.006723,-0.002146,-0.018674,0.001276,-0.003173,-0.011224,-0.004058,0.012165,0.003694,-0.009505,-0.007044,-0.008815,0.019770,-0.007490,-0.037571,-0.020234,-0.009987,-0.013987,0.005838,-0.005778,0.007637,-0.009900,0.028788,0.002471,0.008985,-0.005614,0.012388,0.002678,0.000393,0.004835,-0.004175,-0.004046,0.002449,-0.003984,0.007876,-0.005102,-0.020450,0.025601,-0.007806,-0.006502,-0.006283,0.001502,0.009568,-0.002996,-0.005438,0.010311,-0.009073,0.013986,-0.023408,-0.005824,0.012009,0.013066,-0.004143,-0.004662,0.027356,0.006649,0.007173,0.010880,-0.016422,-0.013457,0.007241,0.000313,0.027466,0.003808,0.010457,-0.009549,-0.002176,0.001765,-0.006000,0.013409,0.013795,0.019147,-0.001304,-0.012295,-0.037109,-0.004710,0.012467,0.019518,-0.002843,-0.004926,0.005585,0.012660,-0.027573,0.004014,0.002598,-0.000381,0.011738,0.002064,0.000391,0.023134,0.001582,-0.006861,0.001806,-0.011209,0.023671,0.001122,-0.009712,0.005124,0.019109,-0.007578,0.000184,-0.001500,0.017805,0.013108,0.018171,-0.008347,-0.004557,0.004794,0.007291,0.007219,0.020256,-0.002058,-0.006638,-0.002291,-0.004218,-0.014006,-0.002821,0.014278,-0.009598,-0.013670,-0.006113,0.001269,-0.024762,0.008954,-0.015403,0.004595,0.018653,0.008515,-0.001338,-0.016227,0.001197,-0.012349,0.012978,0.003112,-0.003011,-0.000114,-0.000902,0.005232,-0.002497,0.003480,0.003700,0.005330,0.012505,0.004040,0.015589,0.007325,0.001948
